{"learner":{"attributes":{"scikit_learn":"{\"_estimator_type\": \"regressor\"}"},"feature_names":["video_watched_percentage","pause_count","seek_count"],"feature_types":["float","int","int"],"gradient_booster":{"model":{"cats":{"enc":[],"feature_segments":[],"sorted_idx":[]},"gbtree_model_param":{"num_parallel_tree":"1","num_trees":"100"},"iteration_indptr":[0,1,2,3,4,5,6,7,8,9,10,11,12,13,14,15,16,17,18,19,20,21,22,23,24,25,26,27,28,29,30,31,32,33,34,35,36,37,38,39,40,41,42,43,44,45,46,47,48,49,50,51,52,53,54,55,56,57,58,59,60,61,62,63,64,65,66,67,68,69,70,71,72,73,74,75,76,77,78,79,80,81,82,83,84,85,86,87,88,89,90,91,92,93,94,95,96,97,98,99,100],"tree_info":[0,0,0,0,0,0,0,0,0,0,0,0,0,0,0,0,0,0,0,0,0,0,0,0,0,0,0,0,0,0,0,0,0,0,0,0,0,0,0,0,0,0,0,0,0,0,0,0,0,0,0,0,0,0,0,0,0,0,0,0,0,0,0,0,0,0,0,0,0,0,0,0,0,0,0,0,0,0,0,0,0,0,0,0,0,0,0,0,0,0,0,0,0,0,0,0,0,0,0,0],"trees":[{"base_weights":[-3.619811E-5,-9.555906E-2,9.5156506E-2,-1.832336E-1,-5.4695614E-2,4.874825E-2,1.630841E-1,-2.58226E-1,-1.5606354E-1,-3.659544E-2,-1.2424001E-1,5.7949893E-2,-8.344388E-2,1.8745461E-1,6.1244752E-2,-5.0407585E-2,-3.6120817E-2,-2.1955445E-2,-3.9159466E-2,-1.1214295E-2,-2.3473545E-3,-1.6971849E-2,-3.5719074E-2,1.1761802E-2,4.196098E-3,-1.210061E-2,-3.2280773E-2,2.4414424E-2,3.3657394E-2,9.919192E-3,-9.623233E-3],"categories":[],"categories_nodes":[],"categories_segments":[],"categories_sizes":[],"default_left":[0,0,0,0,0,0,0,0,0,0,0,0,0,0,0,0,0,0,0,0,0,0,0,0,0,0,0,0,0,0,0],"id":0,"left_children":[1,3,5,7,9,11,13,15,17,19,21,23,25,27,29,-1,-1,-1,-1,-1,-1,-1,-1,-1,-1,-1,-1,-1,-1,-1,-1],"loss_changes":[7.19599E2,1.4150601E2,1.24943756E2,2.5545166E1,3.391163E1,2.8650696E1,3.991696E1,4.44458E0,9.346436E0,1.7091906E1,7.0032043E0,1.3503006E1,5.427885E-1,1.1799774E1,1.9074278E0,0E0,0E0,0E0,0E0,0E0,0E0,0E0,0E0,0E0,0E0,0E0,0E0,0E0,0E0,0E0,0E0],"parents":[2147483647,0,0,1,1,2,2,3,3,4,4,5,5,6,6,7,7,8,8,9,9,10,10,11,11,12,12,13,13,14,14],"right_children":[2,4,6,8,10,12,14,16,18,20,22,24,26,28,30,-1,-1,-1,-1,-1,-1,-1,-1,-1,-1,-1,-1,-1,-1,-1,-1],"split_conditions":[6.29E1,4.61E1,7.68E1,3.39E1,2E0,2E0,1E0,2.17E1,3E0,5.36E1,3E0,1E0,3E0,8.71E1,2E0,-5.0407585E-2,-3.6120817E-2,-2.1955445E-2,-3.9159466E-2,-1.1214295E-2,-2.3473545E-3,-1.6971849E-2,-3.5719074E-2,1.1761802E-2,4.196098E-3,-1.210061E-2,-3.2280773E-2,2.4414424E-2,3.3657394E-2,9.919192E-3,-9.623233E-3],"split_indices":[0,0,0,0,2,2,2,0,2,0,2,2,2,0,2,0,0,0,0,0,0,0,0,0,0,0,0,0,0,0,0],"split_type":[0,0,0,0,0,0,0,0,0,0,0,0,0,0,0,0,0,0,0,0,0,0,0,0,0,0,0,0,0,0,0],"sum_hessian":[7.9135E4,3.9499E4,3.9636E4,1.2556E4,2.6943E4,2.3549E4,1.6087E4,3.337E3,9.219E3,2.138E4,5.563E3,2.2017E4,1.532E3,1.298E4,3.107E3,6.07E2,2.73E3,8.442E3,7.77E2,7.575E3,1.3805E4,5.071E3,4.92E2,1.3084E4,8.933E3,1.502E3,3E1,7.782E3,5.198E3,2.991E3,1.16E2],"tree_param":{"num_deleted":"0","num_feature":"3","num_nodes":"31","size_leaf_vector":"1"}},{"base_weights":[1.8216177E-5,-7.4560985E-2,8.8192776E-2,-1.4209715E-1,-3.347894E-2,5.1849455E-2,1.4442521E-1,-2.0351538E-1,-1.1568908E-1,-1.9209506E-2,-9.727915E-2,7.766281E-2,1.6538735E-2,1.636787E-1,5.5735637E-2,-3.9501842E-2,-2.7489694E-2,-1.6339675E-2,-3.2271698E-2,-6.695714E-3,-1.5576104E-5,-1.3465743E-2,-2.9960983E-2,8.045816E-3,1.551335E-2,4.381778E-3,-1.0492586E-2,2.1781927E-2,2.96116E-2,8.880671E-3,-7.5582075E-3],"categories":[],"categories_nodes":[],"categories_segments":[],"categories_sizes":[],"default_left":[0,0,0,0,0,0,0,0,0,0,0,0,0,0,0,0,0,0,0,0,0,0,0,0,0,0,0,0,0,0,0],"id":1,"left_children":[1,3,5,7,9,11,13,15,17,19,21,23,25,27,29,-1,-1,-1,-1,-1,-1,-1,-1,-1,-1,-1,-1,-1,-1,-1,-1],"loss_changes":[5.206736E2,1.190112E2,7.414105E1,2.6290771E1,2.4281042E1,2.008791E1,2.4312042E1,5.8607483E0,7.6036987E0,1.0590603E1,3.7320557E0,7.873619E0,1.0205539E1,7.260376E0,9.387593E-1,0E0,0E0,0E0,0E0,0E0,0E0,0E0,0E0,0E0,0E0,0E0,0E0,0E0,0E0,0E0,0E0],"parents":[2147483647,0,0,1,1,2,2,3,3,4,4,5,5,6,6,7,7,8,8,9,9,10,10,11,11,12,12,13,13,14,14],"right_children":[2,4,6,8,10,12,14,16,18,20,22,24,26,28,30,-1,-1,-1,-1,-1,-1,-1,-1,-1,-1,-1,-1,-1,-1,-1,-1],"split_conditions":[6.47E1,4.91E1,7.82E1,3.7E1,2E0,1E0,1E0,2.65E1,3E0,5.69E1,3E0,7.16E1,2E0,8.9E1,2E0,-3.9501842E-2,-2.7489694E-2,-1.6339675E-2,-3.2271698E-2,-6.695714E-3,-1.5576104E-5,-1.3465743E-2,-2.9960983E-2,8.045816E-3,1.551335E-2,4.381778E-3,-1.0492586E-2,2.1781927E-2,2.96116E-2,8.880671E-3,-7.5582075E-3],"split_indices":[0,0,0,0,2,2,2,0,2,0,2,0,2,0,2,0,0,0,0,0,0,0,0,0,0,0,0,0,0,0,0],"split_type":[0,0,0,0,0,0,0,0,0,0,0,0,0,0,0,0,0,0,0,0,0,0,0,0,0,0,0,0,0,0,0],"sum_hessian":[7.9176E4,4.2895E4,3.6281E4,1.6223E4,2.6672E4,2.2039E4,1.4242E4,4.876E3,1.1347E4,2.1798E4,4.874E3,1.2731E4,9.308E3,1.1701E4,2.541E3,1.23E3,3.646E3,1.0627E4,7.2E2,9.351E3,1.2447E4,4.543E3,3.31E2,6.589E3,6.142E3,8.119E3,1.189E3,7.565E3,4.136E3,2.461E3,8E1],"tree_param":{"num_deleted":"0","num_feature":"3","num_nodes":"31","size_leaf_vector":"1"}},{"base_weights":[3.085855E-5,2.0806983E-2,-1.1475689E-1,1.2027776E-2,1.3971528E-1,-9.739625E-2,-2.0493458E-1,3.4321044E-2,-2.083324E-2,1.1935338E-1,2.015358E-1,-1.046918E-1,-6.1283454E-2,-1.9496968E-1,-5.259991E-2,4.3376093E-3,1.1631488E-2,-3.9507714E-3,4.1270605E-3,1.9752674E-2,1.2465704E-2,2.8922034E-2,3.709289E-2,-1.5842276E-2,-1.5108656E-2,-1.1155609E-2,-3.2771793E-3,-2.9824995E-2,-2.643151E-2],"categories":[],"categories_nodes":[],"categories_segments":[],"categories_sizes":[],"default_left":[0,0,0,0,0,0,0,0,0,0,0,0,0,0,0,0,0,0,0,0,0,0,0,0,0,0,0,0,0],"id":2,"left_children":[1,3,5,7,9,11,13,15,17,19,21,23,25,27,-1,-1,-1,-1,-1,-1,-1,-1,-1,-1,-1,-1,-1,-1,-1],"loss_changes":[1.8872469E2,6.994832E1,1.896695E1,4.57144E1,5.7751694E0,2.673523E0,2.77359E0,8.681202E0,6.714115E0,1.5392036E0,4.0723038E-1,2.0362854E-2,8.819461E-1,9.788513E-2,0E0,0E0,0E0,0E0,0E0,0E0,0E0,0E0,0E0,0E0,0E0,0E0,0E0,0E0,0E0],"parents":[2147483647,0,0,1,1,2,2,3,3,4,4,5,5,6,6,7,7,8,8,9,9,10,10,11,11,12,12,13,13],"right_children":[2,4,6,8,10,12,14,16,18,20,22,24,26,28,-1,-1,-1,-1,-1,-1,-1,-1,-1,-1,-1,-1,-1,-1,-1],"split_conditions":[2E0,7E0,3E0,1E0,8E0,5E0,4E0,6E0,6E0,1E0,9E0,4E0,6E0,4E0,-5.259991E-2,4.3376093E-3,1.1631488E-2,-3.9507714E-3,4.1270605E-3,1.9752674E-2,1.2465704E-2,2.8922034E-2,3.709289E-2,-1.5842276E-2,-1.5108656E-2,-1.1155609E-2,-3.2771793E-3,-2.9824995E-2,-2.643151E-2],"split_indices":[2,1,2,2,1,1,2,1,1,2,1,1,1,1,0,0,0,0,0,0,0,0,0,0,0,0,0,0,0],"split_type":[0,0,0,0,0,0,0,0,0,0,0,0,0,0,0,0,0,0,0,0,0,0,0,0,0,0,0,0,0],"sum_hessian":[7.9133E4,6.7006E4,1.2127E4,6.24E4,4.606E3,1.0171E4,1.956E3,3.7178E4,2.5222E4,3.467E3,1.139E3,8.46E3,1.711E3,1.833E3,1.23E2,3.3048E4,4.13E3,2.2644E4,2.578E3,2.585E3,8.82E2,9.61E2,1.78E2,6.842E3,1.618E3,1.284E3,4.27E2,1.512E3,3.21E2],"tree_param":{"num_deleted":"0","num_feature":"3","num_nodes":"29","size_leaf_vector":"1"}},{"base_weights":[-1.0842047E-6,1.76088E-2,-9.762506E-2,1.0059919E-2,1.1933804E-1,-8.286213E-2,-1.7470218E-1,2.88961E-2,-1.774709E-2,1.01894945E-1,1.7138425E-1,-8.9051634E-2,-5.2257083E-2,-1.6635184E-1,-4.469668E-2,3.6379208E-3,9.854531E-3,-3.369659E-3,3.5441408E-3,1.6829709E-2,1.0700848E-2,2.4597783E-2,3.1504586E-2,-1.34939905E-2,-1.2780516E-2,-9.481009E-3,-2.834631E-3,-2.5455408E-2,-2.2541333E-2],"categories":[],"categories_nodes":[],"categories_segments":[],"categories_sizes":[],"default_left":[0,0,0,0,0,0,0,0,0,0,0,0,0,0,0,0,0,0,0,0,0,0,0,0,0,0,0,0,0],"id":3,"left_children":[1,3,5,7,9,11,13,15,17,19,21,23,25,27,-1,-1,-1,-1,-1,-1,-1,-1,-1,-1,-1,-1,-1,-1,-1],"loss_changes":[1.3604126E2,5.1481636E1,1.3745949E1,3.268949E1,4.186775E0,1.918251E0,1.9505424E0,6.356224E0,4.919772E0,1.0847397E0,2.9754257E-1,2.1842957E-2,6.2342596E-1,7.2647095E-2,0E0,0E0,0E0,0E0,0E0,0E0,0E0,0E0,0E0,0E0,0E0,0E0,0E0,0E0,0E0],"parents":[2147483647,0,0,1,1,2,2,3,3,4,4,5,5,6,6,7,7,8,8,9,9,10,10,11,11,12,12,13,13],"right_children":[2,4,6,8,10,12,14,16,18,20,22,24,26,28,-1,-1,-1,-1,-1,-1,-1,-1,-1,-1,-1,-1,-1,-1,-1],"split_conditions":[2E0,7E0,3E0,1E0,8E0,5E0,4E0,6E0,6E0,1E0,9E0,4E0,6E0,4E0,-4.469668E-2,3.6379208E-3,9.854531E-3,-3.369659E-3,3.5441408E-3,1.6829709E-2,1.0700848E-2,2.4597783E-2,3.1504586E-2,-1.34939905E-2,-1.2780516E-2,-9.481009E-3,-2.834631E-3,-2.5455408E-2,-2.2541333E-2],"split_indices":[2,1,2,2,1,1,2,1,1,2,1,1,1,1,0,0,0,0,0,0,0,0,0,0,0,0,0,0,0],"split_type":[0,0,0,0,0,0,0,0,0,0,0,0,0,0,0,0,0,0,0,0,0,0,0,0,0,0,0,0,0],"sum_hessian":[7.9131E4,6.7039E4,1.2092E4,6.2409E4,4.63E3,1.015E4,1.942E3,3.7206E4,2.5203E4,3.47E3,1.16E3,8.441E3,1.709E3,1.821E3,1.21E2,3.3039E4,4.167E3,2.2624E4,2.579E3,2.593E3,8.77E2,9.78E2,1.82E2,6.811E3,1.63E3,1.286E3,4.23E2,1.499E3,3.22E2],"tree_param":{"num_deleted":"0","num_feature":"3","num_nodes":"29","size_leaf_vector":"1"}},{"base_weights":[1.1592656E-4,-6.847046E-2,5.6435086E-2,-1.2958932E-1,-4.4559795E-2,2.3586476E-2,1.01414956E-1,-1.862001E-1,-1.14241734E-1,-6.614872E-2,-2.6631264E-2,6.261494E-3,4.276412E-2,8.168598E-2,1.3350733E-1,-2.9648319E-2,-1.8616116E-2,-1.826435E-2,-8.448505E-3,-1.0642138E-2,1.3137794E-3,-4.7934586E-3,2.7032166E-3,5.019332E-4,1.0868831E-2,5.893043E-3,1.2731309E-2,1.0830808E-2,1.4377878E-2,1.8118713E-2,2.3822473E-2],"categories":[],"categories_nodes":[],"categories_segments":[],"categories_sizes":[],"default_left":[0,0,0,0,0,0,0,0,0,0,0,0,0,0,0,0,0,0,0,0,0,0,0,0,0,0,0,0,0,0,0],"id":4,"left_children":[1,3,5,7,9,11,13,15,17,19,21,23,25,27,29,-1,-1,-1,-1,-1,-1,-1,-1,-1,-1,-1,-1,-1,-1,-1,-1],"loss_changes":[3.0591257E2,5.2179092E1,6.425078E1,8.702744E0,9.93362E0,8.350563E0,1.1609924E1,1.4976425E0,3.4350967E0,4.1866455E0,3.3354588E0,2.5482965E0,1.7434063E0,1.5200119E0,2.2291107E0,0E0,0E0,0E0,0E0,0E0,0E0,0E0,0E0,0E0,0E0,0E0,0E0,0E0,0E0,0E0,0E0],"parents":[2147483647,0,0,1,1,2,2,3,3,4,4,5,5,6,6,7,7,8,8,9,9,10,10,11,11,12,12,13,13,14,14],"right_children":[2,4,6,8,10,12,14,16,18,20,22,24,26,28,30,-1,-1,-1,-1,-1,-1,-1,-1,-1,-1,-1,-1,-1,-1,-1,-1],"split_conditions":[6.09E1,4.37E1,7.52E1,3.05E1,5.29E1,6.8E1,8.54E1,4E0,5E0,6E0,6E0,7E0,7E0,8.05E1,9.38E1,-2.9648319E-2,-1.8616116E-2,-1.826435E-2,-8.448505E-3,-1.0642138E-2,1.3137794E-3,-4.7934586E-3,2.7032166E-3,5.019332E-4,1.0868831E-2,5.893043E-3,1.2731309E-2,1.0830808E-2,1.4377878E-2,1.8118713E-2,2.3822473E-2],"split_indices":[0,0,0,0,0,0,0,1,1,1,1,1,1,0,0,0,0,0,0,0,0,0,0,0,0,0,0,0,0,0,0],"split_type":[0,0,0,0,0,0,0,0,0,0,0,0,0,0,0,0,0,0,0,0,0,0,0,0,0,0,0,0,0,0,0],"sum_hessian":[7.9194E4,3.5708E4,4.3486E4,1.004E4,2.5668E4,2.5133E4,1.8353E4,2.139E3,7.901E3,1.1644E4,1.4024E4,1.3205E4,1.1928E4,1.1368E4,6.985E3,1.804E3,3.35E2,6.992E3,9.09E2,1.0943E4,7.01E2,1.253E4,1.494E3,1.2649E4,5.56E2,1.102E4,9.08E2,6.814E3,4.554E3,4.653E3,2.332E3],"tree_param":{"num_deleted":"0","num_feature":"3","num_nodes":"31","size_leaf_vector":"1"}},{"base_weights":[-1.039952E-4,-4.5204505E-2,6.1938994E-2,-9.237669E-2,-1.892336E-2,4.130951E-2,1.0074283E-1,-1.2935255E-1,-7.227559E-2,-3.482248E-2,-2.5225233E-3,2.4919352E-2,5.5578798E-2,8.9851916E-2,1.323911E-1,-2.6129456E-2,-1.7620888E-2,-1.136231E-2,1.811451E-3,-5.9127337E-3,1.7113285E-3,-7.3917577E-4,9.801085E-3,3.351038E-3,9.573061E-3,8.094651E-3,1.9648597E-2,1.2120636E-2,1.5001172E-2,1.8479187E-2,2.2099523E-2],"categories":[],"categories_nodes":[],"categories_segments":[],"categories_sizes":[],"default_left":[0,0,0,0,0,0,0,0,0,0,0,0,0,0,0,0,0,0,0,0,0,0,0,0,0,0,0,0,0,0,0],"id":5,"left_children":[1,3,5,7,9,11,13,15,17,19,21,23,25,27,29,-1,-1,-1,-1,-1,-1,-1,-1,-1,-1,-1,-1,-1,-1,-1,-1],"loss_changes":[2.2144159E2,5.6810516E1,2.6662216E1,1.2177078E1,7.674309E0,5.0856476E0,3.9732819E0,3.0550613E0,3.1133842E0,3.175562E0,2.3652287E0,1.0144119E0,1.4085159E0,7.8260803E-1,3.882408E-1,0E0,0E0,0E0,0E0,0E0,0E0,0E0,0E0,0E0,0E0,0E0,0E0,0E0,0E0,0E0,0E0],"parents":[2147483647,0,0,1,1,2,2,3,3,4,4,5,5,6,6,7,7,8,8,9,9,10,10,11,11,12,12,13,13,14,14],"right_children":[2,4,6,8,10,12,14,16,18,20,22,24,26,28,30,-1,-1,-1,-1,-1,-1,-1,-1,-1,-1,-1,-1,-1,-1,-1,-1],"split_conditions":[6.63E1,4.93E1,8.05E1,3.85E1,5.86E1,7.21E1,9.22E1,2.65E1,6E0,6E0,7E0,7E0,8E0,8.54E1,9.81E1,-2.6129456E-2,-1.7620888E-2,-1.136231E-2,1.811451E-3,-5.9127337E-3,1.7113285E-3,-7.3917577E-4,9.801085E-3,3.351038E-3,9.573061E-3,8.094651E-3,1.9648597E-2,1.2120636E-2,1.5001172E-2,1.8479187E-2,2.2099523E-2],"split_indices":[0,0,0,0,0,0,0,0,1,1,1,1,1,0,0,0,0,0,0,0,0,0,0,0,0,0,0,0,0,0,0],"split_type":[0,0,0,0,0,0,0,0,0,0,0,0,0,0,0,0,0,0,0,0,0,0,0,0,0,0,0,0,0,0,0],"sum_hessian":[7.9136E4,4.5825E4,3.3311E4,1.6395E4,2.943E4,2.175E4,1.1561E4,5.772E3,1.0623E4,1.4943E4,1.4487E4,1.0124E4,1.1626E4,8.604E3,2.957E3,1.206E3,4.566E3,1.0203E4,4.2E2,1.3592E4,1.351E3,1.3992E4,4.95E2,9.496E3,6.28E2,1.1384E4,2.42E2,4.555E3,4.049E3,1.836E3,1.121E3],"tree_param":{"num_deleted":"0","num_feature":"3","num_nodes":"31","size_leaf_vector":"1"}},{"base_weights":[-2.0275056E-5,-5.1682256E-2,3.9487913E-2,-9.6143E-2,-3.4592032E-2,1.4355515E-2,7.145963E-2,-1.4288987E-1,-8.742933E-2,-5.0310064E-2,-2.2593202E-2,2.3040108E-3,2.7459055E-2,5.9013814E-2,1.0001404E-1,-2.8198116E-2,-1.9624034E-2,-1.4057213E-2,-5.2828146E-3,-8.516148E-3,-3.2402857E-3,-3.6290104E-3,1.0434873E-2,4.392252E-5,7.779244E-3,3.725252E-3,9.180596E-3,8.5674925E-3,1.6835913E-2,1.3794457E-2,1.7959267E-2],"categories":[],"categories_nodes":[],"categories_segments":[],"categories_sizes":[],"default_left":[0,0,0,0,0,0,0,0,0,0,0,0,0,0,0,0,0,0,0,0,0,0,0,0,0,0,0,0,0,0,0],"id":6,"left_children":[1,3,5,7,9,11,13,15,17,19,21,23,25,27,29,-1,-1,-1,-1,-1,-1,-1,-1,-1,-1,-1,-1,-1,-1,-1,-1],"loss_changes":[1.6148343E2,2.6047928E1,3.6022644E1,3.864952E0,4.6698704E0,3.9639778E0,7.006157E0,7.881584E-1,2.6305542E0,1.9883423E0,2.0732355E0,1.3033692E0,1.0633593E0,1.3814507E0,9.3941116E-1,0E0,0E0,0E0,0E0,0E0,0E0,0E0,0E0,0E0,0E0,0E0,0E0,0E0,0E0,0E0,0E0],"parents":[2147483647,0,0,1,1,2,2,3,3,4,4,5,5,6,6,7,7,8,8,9,9,10,10,11,11,12,12,13,13,14,14],"right_children":[2,4,6,8,10,12,14,16,18,20,22,24,26,28,30,-1,-1,-1,-1,-1,-1,-1,-1,-1,-1,-1,-1,-1,-1,-1,-1],"split_conditions":[6.01E1,4.31E1,7.42E1,2.8E1,5.19E1,6.71E1,8.67E1,1.79E1,5E0,5E0,7E0,7E0,7E0,8E0,9.55E1,-2.8198116E-2,-1.9624034E-2,-1.4057213E-2,-5.2828146E-3,-8.516148E-3,-3.2402857E-3,-3.6290104E-3,1.0434873E-2,4.392252E-5,7.779244E-3,3.725252E-3,9.180596E-3,8.5674925E-3,1.6835913E-2,1.3794457E-2,1.7959267E-2],"split_indices":[0,0,0,0,0,0,0,0,1,1,1,1,1,1,0,0,0,0,0,0,0,0,0,0,0,0,0,0,0,0,0],"split_type":[0,0,0,0,0,0,0,0,0,0,0,0,0,0,0,0,0,0,0,0,0,0,0,0,0,0,0,0,0,0,0],"sum_hessian":[7.9115E4,3.4284E4,4.4831E4,9.518E3,2.4766E4,2.5101E4,1.973E4,1.493E3,8.025E3,1.072E4,1.4046E4,1.3076E4,1.2025E4,1.3743E4,5.987E3,3.12E2,1.181E3,7.162E3,8.63E2,8.749E3,1.971E3,1.3807E4,2.39E2,1.2567E4,5.09E2,1.1159E4,8.66E2,1.3272E4,4.71E2,4.255E3,1.732E3],"tree_param":{"num_deleted":"0","num_feature":"3","num_nodes":"31","size_leaf_vector":"1"}},{"base_weights":[5.6920384E-5,-3.3705473E-2,4.3763857E-2,-7.2395205E-2,-1.7230898E-2,3.0540418E-2,7.735449E-2,-1.0255894E-1,-5.983929E-2,-3.239531E-2,-4.8485147E-3,1.3488914E-2,3.9849386E-2,6.94239E-2,9.5799476E-2,-1.6875567E-2,-9.433366E-3,-9.349907E-3,2.7257423E-3,-5.392384E-3,1.5738338E-3,-9.820128E-4,7.3849666E-3,1.7254968E-3,6.970488E-3,5.786906E-3,1.4601005E-2,1.0138009E-2,1.4431065E-2,1.3406023E-2,1.5930928E-2],"categories":[],"categories_nodes":[],"categories_segments":[],"categories_sizes":[],"default_left":[0,0,0,0,0,0,0,0,0,0,0,0,0,0,0,0,0,0,0,0,0,0,0,0,0,0,0,0,0,0,0],"id":7,"left_children":[1,3,5,7,9,11,13,15,17,19,21,23,25,27,29,-1,-1,-1,-1,-1,-1,-1,-1,-1,-1,-1,-1,-1,-1,-1,-1],"loss_changes":[1.170014E2,2.8511429E1,1.5346397E1,5.05336E0,5.891177E0,3.9353752E0,1.4210434E0,1.541378E0,1.8363724E0,2.1499367E0,1.5867342E0,5.730021E-1,1.1673164E0,3.2952118E-1,1.8658066E-1,0E0,0E0,0E0,0E0,0E0,0E0,0E0,0E0,0E0,0E0,0E0,0E0,0E0,0E0,0E0,0E0],"parents":[2147483647,0,0,1,1,2,2,3,3,4,4,5,5,6,6,7,7,8,8,9,9,10,10,11,11,12,12,13,13,14,14],"right_children":[2,4,6,8,10,12,14,16,18,20,22,24,26,28,30,-1,-1,-1,-1,-1,-1,-1,-1,-1,-1,-1,-1,-1,-1,-1,-1],"split_conditions":[6.57E1,4.68E1,8.23E1,3.52E1,5.64E1,7.06E1,9.22E1,4E0,6E0,6E0,7E0,7E0,8E0,8E0,9.81E1,-1.6875567E-2,-9.433366E-3,-9.349907E-3,2.7257423E-3,-5.392384E-3,1.5738338E-3,-9.820128E-4,7.3849666E-3,1.7254968E-3,6.970488E-3,5.786906E-3,1.4601005E-2,1.0138009E-2,1.4431065E-2,1.3406023E-2,1.5930928E-2],"split_indices":[0,0,0,0,0,0,0,1,1,1,1,1,1,1,0,0,0,0,0,0,0,0,0,0,0,0,0,0,0,0,0],"split_type":[0,0,0,0,0,0,0,0,0,0,0,0,0,0,0,0,0,0,0,0,0,0,0,0,0,0,0,0,0,0,0],"sum_hessian":[7.9286E4,4.4732E4,3.4554E4,1.3358E4,3.1374E4,2.4795E4,9.759E3,3.924E3,9.434E3,1.4102E4,1.7272E4,8.757E3,1.6038E4,6.828E3,2.931E3,3.136E3,7.88E2,9.142E3,2.92E2,1.3023E4,1.079E3,1.6747E4,5.25E2,8.261E3,4.96E2,1.5693E4,3.45E2,6.393E3,4.35E2,1.818E3,1.113E3],"tree_param":{"num_deleted":"0","num_feature":"3","num_nodes":"31","size_leaf_vector":"1"}},{"base_weights":[-1.6162676E-5,9.166503E-3,-5.0796907E-2,2.002175E-2,-7.894706E-3,-4.272522E-2,-9.334411E-2,1.5793465E-2,6.1709486E-2,-1.2706372E-2,5.7246815E-3,-6.753392E-3,-3.1427607E-2,-8.816544E-2,-2.5537906E-2,1.7738926E-3,4.143081E-3,7.7621345E-3,1.2576534E-2,-2.0658472E-3,-1.2418935E-3,4.5389496E-4,3.6031108E-3,-5.273819E-3,-3.0332743E-3,-1.3429881E-2,-1.2177862E-2],"categories":[],"categories_nodes":[],"categories_segments":[],"categories_sizes":[],"default_left":[0,0,0,0,0,0,0,0,0,0,0,0,0,0,0,0,0,0,0,0,0,0,0,0,0,0,0],"id":8,"left_children":[1,3,5,7,9,11,13,15,17,19,21,-1,23,25,-1,-1,-1,-1,-1,-1,-1,-1,-1,-1,-1,-1,-1],"loss_changes":[3.696614E1,1.2433803E1,4.165222E0,7.231287E0,1.7108496E0,2.6348114E-1,7.5567055E-1,1.7477379E0,8.28701E-1,9.0920925E-2,3.3647305E-1,0E0,7.153809E-2,1.004982E-2,0E0,0E0,0E0,0E0,0E0,0E0,0E0,0E0,0E0,0E0,0E0,0E0,0E0],"parents":[2147483647,0,0,1,1,2,2,3,3,4,4,5,5,6,6,7,7,8,8,9,9,10,10,12,12,13,13],"right_children":[2,4,6,8,10,12,14,16,18,20,22,-1,24,26,-1,-1,-1,-1,-1,-1,-1,-1,-1,-1,-1,-1,-1],"split_conditions":[2E0,1E0,3E0,7E0,5E0,5E0,4E0,5E0,8E0,4E0,7E0,-6.753392E-3,6E0,4E0,-2.5537906E-2,1.7738926E-3,4.143081E-3,7.7621345E-3,1.2576534E-2,-2.0658472E-3,-1.2418935E-3,4.5389496E-4,3.6031108E-3,-5.273819E-3,-3.0332743E-3,-1.3429881E-2,-1.2177862E-2],"split_indices":[2,2,2,1,1,1,2,1,1,1,1,0,1,1,0,0,0,0,0,0,0,0,0,0,0,0,0],"split_type":[0,0,0,0,0,0,0,0,0,0,0,0,0,0,0,0,0,0,0,0,0,0,0,0,0,0,0],"sum_hessian":[7.9273E4,6.7134E4,1.2139E4,4.1029E4,2.6105E4,1.0205E4,1.934E3,3.7252E4,3.777E3,1.929E4,6.815E3,8.478E3,1.727E3,1.814E3,1.2E2,2.7896E4,9.356E3,2.607E3,1.17E3,1.5545E4,3.745E3,5.94E3,8.75E2,1.294E3,4.33E2,1.507E3,3.07E2],"tree_param":{"num_deleted":"0","num_feature":"3","num_nodes":"27","size_leaf_vector":"1"}},{"base_weights":[1.6621398E-6,7.790181E-3,-4.3234363E-2,1.718378E-2,-6.9532236E-3,-3.6361676E-2,-7.918931E-2,1.3616705E-2,5.254931E-2,-1.1299422E-2,5.1709255E-3,-3.840188E-2,-2.6390836E-2,-7.4976265E-2,-1.4426482E-1,1.5462763E-3,3.5251388E-3,6.5977667E-3,1.0804303E-2,-1.8357224E-3,-1.1032406E-3,4.408311E-4,3.0607146E-3,-5.817501E-3,-5.515541E-3,-4.4044033E-3,-2.6214146E-3,-1.1384929E-2,-1.05406325E-2,-2.2462897E-2,-1.706407E-2],"categories":[],"categories_nodes":[],"categories_segments":[],"categories_sizes":[],"default_left":[0,0,0,0,0,0,0,0,0,0,0,0,0,0,0,0,0,0,0,0,0,0,0,0,0,0,0,0,0,0,0],"id":9,"left_children":[1,3,5,7,9,11,13,15,17,19,21,23,25,27,29,-1,-1,-1,-1,-1,-1,-1,-1,-1,-1,-1,-1,-1,-1,-1,-1],"loss_changes":[2.6709236E1,9.30814E0,2.9888458E0,5.1781816E0,1.3783745E0,2.0578766E-1,5.216131E-1,1.2192001E0,6.2426186E-1,7.120705E-2,2.3466074E-1,3.8261414E-3,4.5320272E-2,2.6006699E-3,2.5498867E-3,0E0,0E0,0E0,0E0,0E0,0E0,0E0,0E0,0E0,0E0,0E0,0E0,0E0,0E0,0E0,0E0],"parents":[2147483647,0,0,1,1,2,2,3,3,4,4,5,5,6,6,7,7,8,8,9,9,10,10,11,11,12,12,13,13,14,14],"right_children":[2,4,6,8,10,12,14,16,18,20,22,24,26,28,30,-1,-1,-1,-1,-1,-1,-1,-1,-1,-1,-1,-1,-1,-1,-1,-1],"split_conditions":[2E0,1E0,3E0,7E0,5E0,5E0,4E0,5E0,8E0,4E0,7E0,4E0,6E0,4E0,3E0,1.5462763E-3,3.5251388E-3,6.5977667E-3,1.0804303E-2,-1.8357224E-3,-1.1032406E-3,4.408311E-4,3.0607146E-3,-5.817501E-3,-5.515541E-3,-4.4044033E-3,-2.6214146E-3,-1.1384929E-2,-1.05406325E-2,-2.2462897E-2,-1.706407E-2],"split_indices":[2,2,2,1,1,1,2,1,1,1,1,1,1,1,1,0,0,0,0,0,0,0,0,0,0,0,0,0,0,0,0],"split_type":[0,0,0,0,0,0,0,0,0,0,0,0,0,0,0,0,0,0,0,0,0,0,0,0,0,0,0,0,0,0,0],"sum_hessian":[7.9314E4,6.7208E4,1.2106E4,4.1052E4,2.6156E4,1.0165E4,1.941E3,3.7292E4,3.76E3,1.9254E4,6.902E3,8.436E3,1.729E3,1.825E3,1.16E2,2.7942E4,9.35E3,2.614E3,1.146E3,1.5551E4,3.703E3,6.021E3,8.81E2,6.819E3,1.617E3,1.295E3,4.34E2,1.513E3,3.12E2,9.5E1,2.1E1],"tree_param":{"num_deleted":"0","num_feature":"3","num_nodes":"31","size_leaf_vector":"1"}},{"base_weights":[1.2656843E-4,-3.2046434E-2,2.7822187E-2,-6.89097E-2,-2.2416517E-2,1.1971336E-2,4.8664115E-2,-7.3273554E-2,-2.1210173E-2,-3.3842478E-2,-1.289924E-2,5.440411E-3,2.3744553E-2,3.7260633E-2,6.1832942E-2,-1.596568E-2,-1.0210881E-2,-4.6294755E-3,5.4463223E-3,-5.384963E-3,4.3835334E-4,-2.326597E-3,1.3353684E-3,7.655422E-4,1.2832596E-2,3.487111E-3,1.0361568E-2,4.966072E-3,6.5116202E-3,8.247257E-3,1.1194315E-2],"categories":[],"categories_nodes":[],"categories_segments":[],"categories_sizes":[],"default_left":[0,0,0,0,0,0,0,0,0,0,0,0,0,0,0,0,0,0,0,0,0,0,0,0,0,0,0,0,0,0,0],"id":10,"left_children":[1,3,5,7,9,11,13,15,17,19,21,23,25,27,29,-1,-1,-1,-1,-1,-1,-1,-1,-1,-1,-1,-1,-1,-1,-1,-1],"loss_changes":[7.0522255E1,1.2995712E1,1.40503845E1,1.5768738E0,3.1565113E0,1.857533E0,2.7567787E0,1.1910286E0,3.548025E-1,9.9788666E-1,9.0195847E-1,4.1887316E-1,1.9266272E-1,2.5015163E-1,7.4325943E-1,0E0,0E0,0E0,0E0,0E0,0E0,0E0,0E0,0E0,0E0,0E0,0E0,0E0,0E0,0E0,0E0],"parents":[2147483647,0,0,1,1,2,2,3,3,4,4,5,5,6,6,7,7,8,8,9,9,10,10,11,11,12,12,13,13,14,14],"right_children":[2,4,6,8,10,12,14,16,18,20,22,24,26,28,30,-1,-1,-1,-1,-1,-1,-1,-1,-1,-1,-1,-1,-1,-1,-1,-1],"split_conditions":[6.14E1,4.09E1,7.52E1,5E0,5.23E1,6.99E1,8.36E1,2.46E1,6E0,6E0,6E0,8E0,8E0,7.97E1,9.22E1,-1.596568E-2,-1.0210881E-2,-4.6294755E-3,5.4463223E-3,-5.384963E-3,4.3835334E-4,-2.326597E-3,1.3353684E-3,7.655422E-4,1.2832596E-2,3.487111E-3,1.0361568E-2,4.966072E-3,6.5116202E-3,8.247257E-3,1.1194315E-2],"split_indices":[0,0,0,1,0,0,0,0,1,1,1,1,1,0,0,0,0,0,0,0,0,0,0,0,0,0,0,0,0,0,0],"split_type":[0,0,0,0,0,0,0,0,0,0,0,0,0,0,0,0,0,0,0,0,0,0,0,0,0,0,0,0,0,0,0],"sum_hessian":[7.9143E4,3.6612E4,4.2531E4,7.582E3,2.903E4,2.4159E4,1.8372E4,6.946E3,6.36E2,1.3191E4,1.5839E4,1.554E4,8.619E3,9.848E3,8.524E3,9.39E2,6.007E3,5.45E2,9.1E1,1.2492E4,6.99E2,1.4145E4,1.694E3,1.5476E4,6.4E1,8.527E3,9.2E1,5.882E3,3.966E3,5.555E3,2.969E3],"tree_param":{"num_deleted":"0","num_feature":"3","num_nodes":"31","size_leaf_vector":"1"}},{"base_weights":[1.401839E-4,-2.924106E-2,2.1857316E-2,-5.5769134E-2,-2.0224877E-2,8.53004E-3,4.158215E-2,-7.483978E-2,-4.816925E-2,-2.982735E-2,-1.3495591E-2,1.2027449E-2,-2.9325204E-2,5.2115325E-2,2.8370656E-3,-1.5692776E-2,-9.964345E-3,-9.955318E-3,-6.0631135E-3,-6.2825684E-3,-3.4828377E-3,-1.9066803E-3,-1.0284181E-2,1.0623052E-3,3.3076738E-3,-4.102989E-3,-1.3610513E-2,6.2612207E-3,8.939849E-3,8.2788593E-4,-7.7500944E-3],"categories":[],"categories_nodes":[],"categories_segments":[],"categories_sizes":[],"default_left":[0,0,0,0,0,0,0,0,0,0,0,0,0,0,0,0,0,0,0,0,0,0,0,0,0,0,0,0,0,0,0],"id":11,"left_children":[1,3,5,7,9,11,13,15,17,19,21,23,25,27,29,-1,-1,-1,-1,-1,-1,-1,-1,-1,-1,-1,-1,-1,-1,-1,-1],"loss_changes":[5.0471844E1,8.039692E0,1.1955875E1,1.2322521E0,1.6209879E0,3.5940895E0,7.4841633E0,6.011753E-1,8.5753345E-1,8.2269955E-1,6.364393E-1,1.2316437E0,2.7556396E-1,1.1169205E0,5.734968E-1,0E0,0E0,0E0,0E0,0E0,0E0,0E0,0E0,0E0,0E0,0E0,0E0,0E0,0E0,0E0,0E0],"parents":[2147483647,0,0,1,1,2,2,3,3,4,4,5,5,6,6,7,7,8,8,9,9,10,10,11,11,12,12,13,13,14,14],"right_children":[2,4,6,8,10,12,14,16,18,20,22,24,26,28,30,-1,-1,-1,-1,-1,-1,-1,-1,-1,-1,-1,-1,-1,-1,-1,-1],"split_conditions":[5.98E1,4.2E1,7.52E1,1E0,5.1E1,2E0,1E0,3.05E1,3.15E1,1E0,3E0,6.99E1,3E0,8.23E1,2E0,-1.5692776E-2,-9.964345E-3,-9.955318E-3,-6.0631135E-3,-6.2825684E-3,-3.4828377E-3,-1.9066803E-3,-1.0284181E-2,1.0623052E-3,3.3076738E-3,-4.102989E-3,-1.3610513E-2,6.2612207E-3,8.939849E-3,8.2788593E-4,-7.7500944E-3],"split_indices":[0,0,0,2,0,2,2,0,0,2,2,0,2,0,2,0,0,0,0,0,0,0,0,0,0,0,0,0,0,0,0],"split_type":[0,0,0,0,0,0,0,0,0,0,0,0,0,0,0,0,0,0,0,0,0,0,0,0,0,0,0,0,0,0,0],"sum_hessian":[7.9098E4,3.3617E4,4.5481E4,8.526E3,2.5091E4,2.7143E4,1.8338E4,2.427E3,6.099E3,1.0337E4,1.4754E4,2.4848E4,2.295E3,1.4418E4,3.92E3,5.32E2,1.895E3,1.819E3,4.28E3,3.658E3,6.679E3,1.4548E4,2.06E2,1.664E4,8.208E3,2.225E3,7E1,6.045E3,8.373E3,3.737E3,1.83E2],"tree_param":{"num_deleted":"0","num_feature":"3","num_nodes":"31","size_leaf_vector":"1"}},{"base_weights":[-7.101386E-5,-2.4701906E-2,1.9025741E-2,-5.0561275E-2,-1.780195E-2,7.627363E-3,3.5381958E-2,-5.757328E-2,-2.802965E-2,-1.9992543E-2,8.178983E-3,2.4481576E-3,1.5253724E-2,3.0516831E-2,5.180914E-2,-1.4107373E-2,-8.040409E-3,-4.699265E-3,5.553453E-3,-4.28396E-3,-2.0800645E-3,2.3925885E-4,7.3976177E-3,2.3318842E-4,3.3797529E-3,2.2132758E-3,9.293894E-3,3.939455E-3,5.5638636E-3,8.61794E-3,4.379863E-3],"categories":[],"categories_nodes":[],"categories_segments":[],"categories_sizes":[],"default_left":[0,0,0,0,0,0,0,0,0,0,0,0,0,0,0,0,0,0,0,0,0,0,0,0,0,0,0,0,0,0,0],"id":12,"left_children":[1,3,5,7,9,11,13,15,17,19,21,23,25,27,29,-1,-1,-1,-1,-1,-1,-1,-1,-1,-1,-1,-1,-1,-1,-1,-1],"loss_changes":[3.7255196E1,6.1709423E0,8.31731E0,1.1493568E0,1.5542479E0,1.0384963E0,1.462719E0,7.9948616E-1,3.726232E-1,1.3211536E0,5.752121E-1,2.809993E-1,2.46701E-1,3.9448357E-1,5.3235435E-1,0E0,0E0,0E0,0E0,0E0,0E0,0E0,0E0,0E0,0E0,0E0,0E0,0E0,0E0,0E0,0E0],"parents":[2147483647,0,0,1,1,2,2,3,3,4,4,5,5,6,6,7,7,8,8,9,9,10,10,11,11,12,12,13,13,14,14],"right_children":[2,4,6,8,10,12,14,16,18,20,22,24,26,28,30,-1,-1,-1,-1,-1,-1,-1,-1,-1,-1,-1,-1,-1,-1,-1,-1],"split_conditions":[6.03E1,4.06E1,7.52E1,4E0,6E0,6.87E1,8.96E1,2.17E1,6E0,5.06E1,7E0,7E0,8E0,8.23E1,7E0,-1.4107373E-2,-8.040409E-3,-4.699265E-3,5.553453E-3,-4.28396E-3,-2.0800645E-3,2.3925885E-4,7.3976177E-3,2.3318842E-4,3.3797529E-3,2.2132758E-3,9.293894E-3,3.939455E-3,5.5638636E-3,8.61794E-3,4.379863E-3],"split_indices":[0,0,0,1,1,0,0,0,1,0,1,1,1,0,1,0,0,0,0,0,0,0,0,0,0,0,0,0,0,0,0],"split_type":[0,0,0,0,0,0,0,0,0,0,0,0,0,0,0,0,0,0,0,0,0,0,0,0,0,0,0,0,0,0,0],"sum_hessian":[7.9202E4,3.4589E4,4.4613E4,7.284E3,2.7305E4,2.6292E4,1.8321E4,5.554E3,1.73E3,2.5182E4,2.123E3,1.5659E4,1.0633E4,1.4137E4,4.184E3,5.43E2,5.011E3,1.647E3,8.3E1,1.0497E4,1.4685E4,1.831E3,2.92E2,1.4993E4,6.66E2,1.0522E4,1.11E2,8.587E3,5.55E3,3.347E3,8.37E2],"tree_param":{"num_deleted":"0","num_feature":"3","num_nodes":"31","size_leaf_vector":"1"}},{"base_weights":[-7.662121E-5,-1.6124163E-2,2.0884316E-2,-3.7484027E-2,-8.953731E-3,1.275116E-2,3.3535276E-2,-4.100793E-2,-7.310217E-3,-1.6834622E-2,-2.3196202E-3,7.994797E-3,1.817529E-2,2.8591327E-2,4.4479884E-2,-8.409365E-3,-5.1151644E-3,-2.11882E-3,3.561977E-3,-2.7906394E-3,9.924643E-4,-6.129174E-4,1.3591249E-3,1.1451676E-3,9.700691E-3,3.1142135E-3,2.0206247E-3,4.876929E-3,2.7203304E-3,7.690518E-3,4.4263946E-3],"categories":[],"categories_nodes":[],"categories_segments":[],"categories_sizes":[],"default_left":[0,0,0,0,0,0,0,0,0,0,0,0,0,0,0,0,0,0,0,0,0,0,0,0,0,0,0,0,0,0,0],"id":13,"left_children":[1,3,5,7,9,11,13,15,17,19,21,23,25,27,29,-1,-1,-1,-1,-1,-1,-1,-1,-1,-1,-1,-1,-1,-1,-1,-1],"loss_changes":[2.6547113E1,6.845893E0,3.520752E0,1.1942062E0,1.7497063E0,5.37302E-1,7.233105E-1,1.0440121E0,2.4924688E-1,6.349058E-1,3.6535823E-1,2.2622412E-1,1.1812329E-1,3.7774277E-1,4.21875E-1,0E0,0E0,0E0,0E0,0E0,0E0,0E0,0E0,0E0,0E0,0E0,0E0,0E0,0E0,0E0,0E0],"parents":[2147483647,0,0,1,1,2,2,3,3,4,4,5,5,6,6,7,7,8,8,9,9,10,10,11,11,12,12,13,13,14,14],"right_children":[2,4,6,8,10,12,14,16,18,20,22,24,26,28,30,-1,-1,-1,-1,-1,-1,-1,-1,-1,-1,-1,-1,-1,-1,-1,-1],"split_conditions":[6.58E1,4.49E1,7.89E1,5E0,5.59E1,7.21E1,8.96E1,3.39E1,6E0,6E0,6E0,8E0,5E0,6E0,6E0,-8.409365E-3,-5.1151644E-3,-2.11882E-3,3.561977E-3,-2.7906394E-3,9.924643E-4,-6.129174E-4,1.3591249E-3,1.1451676E-3,9.700691E-3,3.1142135E-3,2.0206247E-3,4.876929E-3,2.7203304E-3,7.690518E-3,4.4263946E-3],"split_indices":[0,0,0,1,0,0,0,0,1,1,1,1,1,1,1,0,0,0,0,0,0,0,0,0,0,0,0,0,0,0,0],"split_type":[0,0,0,0,0,0,0,0,0,0,0,0,0,0,0,0,0,0,0,0,0,0,0,0,0,0,0,0,0,0,0],"sum_hessian":[7.892E4,4.4699E4,3.4221E4,1.1233E4,3.3466E4,2.0831E4,1.339E4,1.0058E4,1.175E3,1.5295E4,1.8171E4,1.11E4,9.731E3,9.226E3,4.164E3,3.161E3,6.897E3,9.64E2,2.11E2,1.4222E4,1.073E3,1.573E4,2.441E3,1.1031E4,6.9E1,6.277E3,3.454E3,6.708E3,2.518E3,2.863E3,1.301E3],"tree_param":{"num_deleted":"0","num_feature":"3","num_nodes":"31","size_leaf_vector":"1"}},{"base_weights":[-4.3530574E-5,3.7347702E-3,-2.085134E-2,8.161616E-3,-3.2205826E-3,-1.7151361E-2,-4.0263623E-2,6.3959444E-3,2.5621375E-2,-5.0393143E-3,1.8923788E-3,-1.7633252E-2,-2.2156956E-3,-3.7227638E-2,-8.661314E-2,7.230504E-4,1.6692792E-3,3.542144E-3,9.780015E-3,-8.273813E-4,-4.574751E-4,1.7231572E-4,1.0503272E-3,-2.60272E-3,-2.7099135E-3,-5.9821215E-3,-5.484306E-3,-1.3750482E-2,-9.416595E-3],"categories":[],"categories_nodes":[],"categories_segments":[],"categories_sizes":[],"default_left":[0,0,0,0,0,0,0,0,0,0,0,0,0,0,0,0,0,0,0,0,0,0,0,0,0,0,0,0,0],"id":14,"left_children":[1,3,5,7,9,11,13,15,17,19,21,23,-1,25,27,-1,-1,-1,-1,-1,-1,-1,-1,-1,-1,-1,-1,-1,-1],"loss_changes":[6.227501E0,2.0641751E0,8.736353E-1,1.2627437E0,2.4247438E-1,1.1467934E-2,2.7089143E-1,2.7737272E-1,2.973051E-1,1.82181E-2,2.598941E-2,7.2312355E-4,0E0,1.7735958E-3,8.588433E-3,0E0,0E0,0E0,0E0,0E0,0E0,0E0,0E0,0E0,0E0,0E0,0E0,0E0,0E0],"parents":[2147483647,0,0,1,1,2,2,3,3,4,4,5,5,6,6,7,7,8,8,9,9,10,10,11,11,13,13,14,14],"right_children":[2,4,6,8,10,12,14,16,18,20,22,24,-1,26,28,-1,-1,-1,-1,-1,-1,-1,-1,-1,-1,-1,-1,-1,-1],"split_conditions":[2E0,1E0,3E0,7E0,5E0,5E0,4E0,5E0,9E0,4E0,7E0,3E0,-2.2156956E-3,1E0,3E0,7.230504E-4,1.6692792E-3,3.542144E-3,9.780015E-3,-8.273813E-4,-4.574751E-4,1.7231572E-4,1.0503272E-3,-2.60272E-3,-2.7099135E-3,-5.9821215E-3,-5.484306E-3,-1.3750482E-2,-9.416595E-3],"split_indices":[2,2,2,1,1,1,2,1,1,1,1,1,0,1,1,0,0,0,0,0,0,0,0,0,0,0,0,0,0],"split_type":[0,0,0,0,0,0,0,0,0,0,0,0,0,0,0,0,0,0,0,0,0,0,0,0,0,0,0,0,0],"sum_hessian":[7.921E4,6.7038E4,1.2172E4,4.0965E4,2.6073E4,1.0225E4,1.947E3,3.7204E4,3.761E3,1.9232E4,6.841E3,8.498E3,1.727E3,1.829E3,1.18E2,2.7913E4,9.291E3,3.581E3,1.8E2,1.5514E4,3.718E3,5.973E3,8.68E2,5.172E3,3.326E3,3.55E2,1.474E3,9.5E1,2.3E1],"tree_param":{"num_deleted":"0","num_feature":"3","num_nodes":"29","size_leaf_vector":"1"}},{"base_weights":[-9.815815E-5,-1.7336573E-2,1.2648113E-2,-3.6413424E-2,-1.2822376E-2,2.10995E-2,-1.7941286E-3,-5.8489062E-2,-2.808962E-2,-2.0922296E-2,-7.7641667E-3,8.120248E-3,3.132209E-2,2.1290192E-3,-2.4693562E-2,-1.3630535E-2,-8.1090685E-3,-1.0555444E-2,-3.879382E-3,-4.737901E-3,-2.2717896E-3,-9.2895055E-4,-5.550774E-3,4.0645598E-4,2.310533E-3,3.74307E-3,5.4375E-3,5.6610274E-4,-1.6146522E-3,-2.6684422E-3,-5.9991553E-3],"categories":[],"categories_nodes":[],"categories_segments":[],"categories_sizes":[],"default_left":[0,0,0,0,0,0,0,0,0,0,0,0,0,0,0,0,0,0,0,0,0,0,0,0,0,0,0,0,0,0,0],"id":15,"left_children":[1,3,5,7,9,11,13,15,17,19,21,23,25,27,29,-1,-1,-1,-1,-1,-1,-1,-1,-1,-1,-1,-1,-1,-1,-1,-1],"loss_changes":[1.7432583E1,2.903905E0,5.567302E0,1.1841164E0,1.1172833E0,3.8175259E0,1.5128323E0,2.4833822E-1,4.3960547E-1,6.453843E-1,7.7118874E-1,4.99595E-1,5.0422573E-1,3.0497068E-1,2.5946987E-1,0E0,0E0,0E0,0E0,0E0,0E0,0E0,0E0,0E0,0E0,0E0,0E0,0E0,0E0,0E0,0E0],"parents":[2147483647,0,0,1,1,2,2,3,3,4,4,5,5,6,6,7,7,8,8,9,9,10,10,11,11,12,12,13,13,14,14],"right_children":[2,4,6,8,10,12,14,16,18,20,22,24,26,28,30,-1,-1,-1,-1,-1,-1,-1,-1,-1,-1,-1,-1,-1,-1,-1,-1],"split_conditions":[5.98E1,3.94E1,1E0,1E0,1E0,7.34E1,2E0,2.46E1,1.79E1,4.98E1,3E0,6.78E1,8.14E1,8.11E1,6.78E1,-1.3630535E-2,-8.1090685E-3,-1.0555444E-2,-3.879382E-3,-4.737901E-3,-2.2717896E-3,-9.2895055E-4,-5.550774E-3,4.0645598E-4,2.310533E-3,3.74307E-3,5.4375E-3,5.6610274E-4,-1.6146522E-3,-2.6684422E-3,-5.9991553E-3],"split_indices":[0,0,2,2,2,0,2,0,0,0,2,0,0,0,0,0,0,0,0,0,0,0,0,0,0,0,0,0,0,0,0],"split_type":[0,0,0,0,0,0,0,0,0,0,0,0,0,0,0,0,0,0,0,0,0,0,0,0,0,0,0,0,0,0,0],"sum_hessian":[7.9336E4,3.3725E4,4.5611E4,6.452E3,2.7273E4,2.8773E4,1.6838E4,1.765E3,4.687E3,1.0483E4,1.679E4,1.2678E4,1.6095E4,1.4376E4,2.462E3,2.1E2,1.555E3,2.33E2,4.454E3,3.682E3,6.801E3,1.5935E4,8.55E2,7.275E3,5.403E3,7.024E3,9.071E3,1.275E4,1.626E3,1.698E3,7.64E2],"tree_param":{"num_deleted":"0","num_feature":"3","num_nodes":"31","size_leaf_vector":"1"}},{"base_weights":[-1.5128853E-5,2.7408553E-3,-1.5215904E-2,6.0786083E-3,-2.4847975E-3,-1.2541983E-2,-2.9113894E-2,4.8608175E-3,1.8138345E-2,-3.796247E-3,1.2008967E-3,-1.2830564E-2,-1.6693142E-3,-2.6588151E-2,-6.597908E-2,5.7893794E-4,1.1773433E-3,2.4706214E-3,7.52883E-3,-6.29709E-4,-3.1658314E-4,7.105103E-5,9.258103E-4,-1.8528643E-3,-2.0366253E-3,-4.1148146E-3,-3.773983E-3,-9.522917E-3,-1.882801E-2],"categories":[],"categories_nodes":[],"categories_segments":[],"categories_sizes":[],"default_left":[0,0,0,0,0,0,0,0,0,0,0,0,0,0,0,0,0,0,0,0,0,0,0,0,0,0,0,0,0],"id":16,"left_children":[1,3,5,7,9,11,13,15,17,19,21,23,-1,25,27,-1,-1,-1,-1,-1,-1,-1,-1,-1,-1,-1,-1,-1,-1],"loss_changes":[3.3169696E0,1.1690612E0,4.512291E-1,6.0059357E-1,1.2628241E-1,4.0141344E-3,1.8074512E-1,1.11118674E-1,1.9966781E-1,1.3042688E-2,2.478617E-2,2.853036E-3,0E0,1.5230179E-3,1.0585487E-2,0E0,0E0,0E0,0E0,0E0,0E0,0E0,0E0,0E0,0E0,0E0,0E0,0E0,0E0],"parents":[2147483647,0,0,1,1,2,2,3,3,4,4,5,5,6,6,7,7,8,8,9,9,10,10,11,11,13,13,14,14],"right_children":[2,4,6,8,10,12,14,16,18,20,22,24,-1,26,28,-1,-1,-1,-1,-1,-1,-1,-1,-1,-1,-1,-1,-1,-1],"split_conditions":[2E0,1E0,3E0,7E0,5E0,5E0,4E0,5E0,9E0,4E0,7E0,3E0,-1.6693142E-3,3E0,5E0,5.7893794E-4,1.1773433E-3,2.4706214E-3,7.52883E-3,-6.29709E-4,-3.1658314E-4,7.105103E-5,9.258103E-4,-1.8528643E-3,-2.0366253E-3,-4.1148146E-3,-3.773983E-3,-9.522917E-3,-1.882801E-2],"split_indices":[2,2,2,1,1,1,2,1,1,1,1,1,0,1,2,0,0,0,0,0,0,0,0,0,0,0,0,0,0],"split_type":[0,0,0,0,0,0,0,0,0,0,0,0,0,0,0,0,0,0,0,0,0,0,0,0,0,0,0,0,0],"sum_hessian":[7.9175E4,6.7024E4,1.2151E4,4.09E4,2.6124E4,1.0192E4,1.959E3,3.715E4,3.75E3,1.9268E4,6.856E3,8.457E3,1.735E3,1.835E3,1.24E2,2.7828E4,9.322E3,3.566E3,1.84E2,1.5558E4,3.71E3,5.982E3,8.74E2,5.167E3,3.29E3,1.142E3,6.93E2,1.21E2,3E0],"tree_param":{"num_deleted":"0","num_feature":"3","num_nodes":"29","size_leaf_vector":"1"}},{"base_weights":[-1.2411641E-4,-1.6649002E-2,9.116714E-3,-2.741046E-2,-1.0847314E-2,2.0845851E-3,1.8875865E-2,-5.310708E-2,-2.2519618E-2,-2.6051454E-2,-7.729846E-3,4.0082424E-3,-1.426005E-2,2.5907336E-2,-3.7786344E-3,-1.1664747E-2,-7.393937E-3,-4.7477297E-3,-2.8274378E-3,-6.4675505E-3,-2.3262615E-3,-9.847005E-4,-3.57457E-3,1.4036958E-4,1.2129755E-3,-1.9017126E-3,-8.077335E-3,3.6479991E-3,6.008275E-3,-2.6955854E-4,-5.913794E-3],"categories":[],"categories_nodes":[],"categories_segments":[],"categories_sizes":[],"default_left":[0,0,0,0,0,0,0,0,0,0,0,0,0,0,0,0,0,0,0,0,0,0,0,0,0,0,0,0,0,0,0],"id":17,"left_children":[1,3,5,7,9,11,13,15,17,19,21,23,25,27,29,-1,-1,-1,-1,-1,-1,-1,-1,-1,-1,-1,-1,-1,-1,-1,-1],"loss_changes":[1.20784E1,1.7708483E0,3.481371E0,1.2475414E0,8.734939E-1,9.271092E-1,3.3843083E0,1.4551735E-1,2.7921534E-1,5.635693E-1,2.86835E-1,3.3055243E-1,1.9377792E-1,3.631277E-1,3.5544318E-1,0E0,0E0,0E0,0E0,0E0,0E0,0E0,0E0,0E0,0E0,0E0,0E0,0E0,0E0,0E0,0E0],"parents":[2147483647,0,0,1,1,2,2,3,3,4,4,5,5,6,6,7,7,8,8,9,9,10,10,11,11,12,12,13,13,14,14],"right_children":[2,4,6,8,10,12,14,16,18,20,22,24,26,28,30,-1,-1,-1,-1,-1,-1,-1,-1,-1,-1,-1,-1,-1,-1,-1,-1],"split_conditions":[5.69E1,1E0,7.32E1,3.85E1,3.59E1,2E0,1E0,2.46E1,4.66E1,2E0,3E0,6.63E1,3E0,9.55E1,2E0,-1.1664747E-2,-7.393937E-3,-4.7477297E-3,-2.8274378E-3,-6.4675505E-3,-2.3262615E-3,-9.847005E-4,-3.57457E-3,1.4036958E-4,1.2129755E-3,-1.9017126E-3,-8.077335E-3,3.6479991E-3,6.008275E-3,-2.6955854E-4,-5.913794E-3],"split_indices":[0,2,0,0,0,2,2,0,0,2,2,0,2,0,2,0,0,0,0,0,0,0,0,0,0,0,0,0,0,0,0],"split_type":[0,0,0,0,0,0,0,0,0,0,0,0,0,0,0,0,0,0,0,0,0,0,0,0,0,0,0,0,0,0,0],"sum_hessian":[7.9095E4,2.8367E4,5.0728E4,9.935E3,1.8432E4,2.9484E4,2.1244E4,1.587E3,8.348E3,3.135E3,1.5297E4,2.638E4,3.104E3,1.6212E4,5.032E3,2.1E2,1.377E3,2.391E3,5.957E3,1.196E3,1.939E3,1.4266E4,1.031E3,1.5046E4,1.1334E4,2.986E3,1.18E2,1.4579E4,1.633E3,4.768E3,2.64E2],"tree_param":{"num_deleted":"0","num_feature":"3","num_nodes":"31","size_leaf_vector":"1"}},{"base_weights":[-4.199353E-5,-9.843383E-3,1.07800765E-2,-1.8507512E-2,-4.493873E-3,6.4190407E-3,1.960202E-2,-2.1197824E-2,3.217944E-4,-5.1102852E-3,2.674917E-2,2.803854E-3,9.402976E-3,2.4423793E-2,7.6570553E-3,-4.8855655E-3,-2.6740043E-3,-1.2790317E-4,1.1544841E-2,-1.3518917E-3,-3.3718877E-4,3.4636182E-3,1.216741E-2,3.815256E-4,7.799694E-3,1.8796466E-3,5.452255E-4,3.3450283E-3,6.35134E-3,9.875982E-4,4.6823183E-3],"categories":[],"categories_nodes":[],"categories_segments":[],"categories_sizes":[],"default_left":[0,0,0,0,0,0,0,0,0,0,0,0,0,0,0,0,0,0,0,0,0,0,0,0,0,0,0,0,0,0,0],"id":18,"left_children":[1,3,5,7,9,11,13,15,17,19,21,23,25,27,29,-1,-1,-1,-1,-1,-1,-1,-1,-1,-1,-1,-1,-1,-1,-1,-1],"loss_changes":[8.412198E0,1.9287705E0,1.4499526E0,8.047395E-1,4.9567944E-1,2.720772E-1,7.179189E-1,5.323243E-1,1.7892897E-1,2.8183997E-1,9.717661E-2,1.459649E-1,2.4926901E-1,3.3703136E-1,9.047295E-2,0E0,0E0,0E0,0E0,0E0,0E0,0E0,0E0,0E0,0E0,0E0,0E0,0E0,0E0,0E0,0E0],"parents":[2147483647,0,0,1,1,2,2,3,3,4,4,5,5,6,6,7,7,8,8,9,9,10,10,11,11,12,12,13,13,14,14],"right_children":[2,4,6,8,10,12,14,16,18,20,22,24,26,28,30,-1,-1,-1,-1,-1,-1,-1,-1,-1,-1,-1,-1,-1,-1,-1,-1],"split_conditions":[6.4E1,4.88E1,7.97E1,5E0,7E0,7.03E1,6E0,3.39E1,7E0,5.59E1,8E0,8E0,5E0,9.68E1,9E0,-4.8855655E-3,-2.6740043E-3,-1.2790317E-4,1.1544841E-2,-1.3518917E-3,-3.3718877E-4,3.4636182E-3,1.216741E-2,3.815256E-4,7.799694E-3,1.8796466E-3,5.452255E-4,3.3450283E-3,6.35134E-3,9.875982E-4,4.6823183E-3],"split_indices":[0,0,0,1,1,0,1,0,1,0,1,1,1,0,1,0,0,0,0,0,0,0,0,0,0,0,0,0,0,0,0],"split_type":[0,0,0,0,0,0,0,0,0,0,0,0,0,0,0,0,0,0,0,0,0,0,0,0,0,0,0,0,0,0,0],"sum_hessian":[7.9305E4,4.1615E4,3.769E4,1.5885E4,2.573E4,2.5223E4,1.2467E4,1.3899E4,1.986E3,2.5233E4,4.97E2,1.1406E4,1.3817E4,8.881E3,3.586E3,3.176E3,1.0723E4,1.957E3,2.9E1,1.0676E4,1.4557E4,4.67E2,3E1,1.1347E4,5.9E1,8.958E3,4.859E3,7.942E3,9.39E2,3.431E3,1.55E2],"tree_param":{"num_deleted":"0","num_feature":"3","num_nodes":"31","size_leaf_vector":"1"}},{"base_weights":[-9.153681E-5,-8.5431095E-3,9.330072E-3,-1.8553246E-2,-4.861627E-3,5.6481673E-3,1.6732564E-2,-2.2463389E-2,-7.6876795E-3,-6.2444047E-3,7.6639294E-3,5.3497422E-3,2.960392E-2,2.1012489E-2,6.0941037E-3,-7.1078306E-3,-3.103817E-3,-1.5350714E-3,3.8426071E-3,-1.5547036E-3,-5.5076747E-4,6.729943E-4,3.4487834E-3,1.0819341E-3,2.0809486E-4,3.6975055E-3,1.0937151E-2,2.9121735E-3,5.780416E-3,7.896849E-4,3.821749E-3],"categories":[],"categories_nodes":[],"categories_segments":[],"categories_sizes":[],"default_left":[0,0,0,0,0,0,0,0,0,0,0,0,0,0,0,0,0,0,0,0,0,0,0,0,0,0,0,0,0,0,0],"id":19,"left_children":[1,3,5,7,9,11,13,15,17,19,21,23,25,27,29,-1,-1,-1,-1,-1,-1,-1,-1,-1,-1,-1,-1,-1,-1,-1,-1],"loss_changes":[6.2955823E0,1.5357964E0,1.0188708E0,4.7592425E-1,5.278247E-1,1.7834514E-1,5.652859E-1,3.627658E-1,2.518608E-1,2.9085612E-1,1.4746249E-1,1.8206787E-1,6.4071E-2,2.4721622E-1,5.71748E-2,0E0,0E0,0E0,0E0,0E0,0E0,0E0,0E0,0E0,0E0,0E0,0E0,0E0,0E0,0E0,0E0],"parents":[2147483647,0,0,1,1,2,2,3,3,4,4,5,5,6,6,7,7,8,8,9,9,10,10,11,11,12,12,13,13,14,14],"right_children":[2,4,6,8,10,12,14,16,18,20,22,24,26,28,30,-1,-1,-1,-1,-1,-1,-1,-1,-1,-1,-1,-1,-1,-1,-1,-1],"split_conditions":[6.41E1,4.49E1,7.97E1,4E0,6E0,8E0,6E0,2.17E1,6E0,5.34E1,7E0,5E0,9E0,9.81E1,9E0,-7.1078306E-3,-3.103817E-3,-1.5350714E-3,3.8426071E-3,-1.5547036E-3,-5.5076747E-4,6.729943E-4,3.4487834E-3,1.0819341E-3,2.0809486E-4,3.6975055E-3,1.0937151E-2,2.9121735E-3,5.780416E-3,7.896849E-4,3.821749E-3],"split_indices":[0,0,0,1,1,1,1,0,1,0,1,1,1,0,1,0,0,0,0,0,0,0,0,0,0,0,0,0,0,0,0],"split_type":[0,0,0,0,0,0,0,0,0,0,0,0,0,0,0,0,0,0,0,0,0,0,0,0,0,0,0,0,0,0,0],"sum_hessian":[7.9061E4,4.1676E4,3.7385E4,1.1205E4,3.0471E4,2.4968E4,1.2417E4,8.239E3,2.966E3,2.7442E4,3.029E3,2.4662E4,3.06E2,8.854E3,3.563E3,5.45E2,7.694E3,2.756E3,2.1E2,1.0547E4,1.6895E4,2.51E3,5.19E2,1.6774E4,7.888E3,2.76E2,3E1,8.116E3,7.38E2,3.418E3,1.45E2],"tree_param":{"num_deleted":"0","num_feature":"3","num_nodes":"31","size_leaf_vector":"1"}},{"base_weights":[2.9367831E-5,-9.454115E-3,6.5745343E-3,-1.8296197E-2,-4.4908295E-3,1.1729585E-2,-2.0670057E-3,-3.0746182E-2,-1.3305289E-2,-1.0749564E-2,-1.450332E-3,2.4998935E-3,1.6959248E-2,5.29771E-4,-1.6469985E-2,-8.793275E-3,-4.319848E-3,-2.5668496E-3,-1.4556078E-3,-3.0067482E-3,-5.7705404E-4,-6.180553E-5,-3.6180355E-3,-1.6048352E-5,9.5068954E-4,2.0225877E-3,3.0440143E-3,3.5075026E-4,-2.148355E-3,-1.438606E-3,-4.348613E-3],"categories":[],"categories_nodes":[],"categories_segments":[],"categories_sizes":[],"default_left":[0,0,0,0,0,0,0,0,0,0,0,0,0,0,0,0,0,0,0,0,0,0,0,0,0,0,0,0,0,0,0],"id":20,"left_children":[1,3,5,7,9,11,13,15,17,19,21,23,25,27,29,-1,-1,-1,-1,-1,-1,-1,-1,-1,-1,-1,-1,-1,-1,-1,-1],"loss_changes":[4.911056E0,1.4177794E0,2.0853853E0,7.2130895E-1,3.9378428E-1,1.4152288E0,6.542326E-1,1.7868233E-1,1.1353135E-1,4.34043E-1,3.278516E-1,1.0611701E-1,2.1659565E-1,3.981409E-1,2.2987163E-1,0E0,0E0,0E0,0E0,0E0,0E0,0E0,0E0,0E0,0E0,0E0,0E0,0E0,0E0,0E0,0E0],"parents":[2147483647,0,0,1,1,2,2,3,3,4,4,5,5,6,6,7,7,8,8,9,9,10,10,11,11,12,12,13,13,14,14],"right_children":[2,4,6,8,10,12,14,16,18,20,22,24,26,28,30,-1,-1,-1,-1,-1,-1,-1,-1,-1,-1,-1,-1,-1,-1,-1,-1],"split_conditions":[5.91E1,1E0,1E0,4.49E1,4.31E1,7.08E1,2E0,2.46E1,5.31E1,2E0,3E0,6.63E1,8.08E1,8.11E1,6.65E1,-8.793275E-3,-4.319848E-3,-2.5668496E-3,-1.4556078E-3,-3.0067482E-3,-5.7705404E-4,-6.180553E-5,-3.6180355E-3,-1.6048352E-5,9.5068954E-4,2.0225877E-3,3.0440143E-3,3.5075026E-4,-2.148355E-3,-1.438606E-3,-4.348613E-3],"split_indices":[0,2,2,0,0,0,2,0,0,2,2,0,0,0,0,0,0,0,0,0,0,0,0,0,0,0,0,0,0,0,0],"split_type":[0,0,0,0,0,0,0,0,0,0,0,0,0,0,0,0,0,0,0,0,0,0,0,0,0,0,0,0,0,0,0],"sum_hessian":[7.9118E4,3.2307E4,4.6811E4,1.1614E4,2.0693E4,2.932E4,1.7491E4,3.322E3,8.292E3,6.765E3,1.3928E4,1.0605E4,1.8715E4,1.482E4,2.671E3,2.15E2,3.107E3,4.029E3,4.263E3,2.882E3,3.883E3,1.3319E4,6.09E2,6.316E3,4.289E3,9.166E3,9.549E3,1.3212E4,1.608E3,1.725E3,9.46E2],"tree_param":{"num_deleted":"0","num_feature":"3","num_nodes":"31","size_leaf_vector":"1"}},{"base_weights":[8.9897534E-5,-8.430694E-3,4.941269E-3,-1.6262388E-2,-4.2133066E-3,8.855205E-3,-1.2352202E-3,-3.190247E-2,-1.2967881E-2,-2.1551002E-2,-3.0564934E-3,1.35017335E-5,1.3874462E-2,9.170164E-4,-1.177238E-2,-6.326416E-3,-4.1010333E-3,-2.4431045E-3,-1.47871E-3,-6.43684E-3,-1.6119616E-3,-2.950945E-4,-2.2290472E-3,-3.0549537E-4,5.890005E-4,1.6404529E-3,2.6722804E-3,4.4150653E-4,-1.3671372E-3,-1.1203034E-3,-3.8456444E-3],"categories":[],"categories_nodes":[],"categories_segments":[],"categories_sizes":[],"default_left":[0,0,0,0,0,0,0,0,0,0,0,0,0,0,0,0,0,0,0,0,0,0,0,0,0,0,0,0,0,0,0],"id":21,"left_children":[1,3,5,7,9,11,13,15,17,19,21,23,25,27,29,-1,-1,-1,-1,-1,-1,-1,-1,-1,-1,-1,-1,-1,-1,-1,-1],"loss_changes":[3.2735248E0,9.4889593E-1,1.2198745E0,5.177355E-1,3.7450883E-1,1.3707716E0,4.43919E-1,8.082402E-2,8.560276E-2,2.6911294E-1,2.2507839E-1,8.9748055E-2,2.2793269E-1,3.3044147E-1,1.9791871E-1,0E0,0E0,0E0,0E0,0E0,0E0,0E0,0E0,0E0,0E0,0E0,0E0,0E0,0E0,0E0,0E0],"parents":[2147483647,0,0,1,1,2,2,3,3,4,4,5,5,6,6,7,7,8,8,9,9,10,10,11,11,12,12,13,13,14,14],"right_children":[2,4,6,8,10,12,14,16,18,20,22,24,26,28,30,-1,-1,-1,-1,-1,-1,-1,-1,-1,-1,-1,-1,-1,-1,-1,-1],"split_conditions":[5.71E1,1E0,1E0,3.94E1,2.8E1,6.97E1,2E0,3.05E1,5.04E1,2E0,3E0,6.57E1,8.23E1,7.75E1,6.76E1,-6.326416E-3,-4.1010333E-3,-2.4431045E-3,-1.47871E-3,-6.43684E-3,-1.6119616E-3,-2.950945E-4,-2.2290472E-3,-3.0549537E-4,5.890005E-4,1.6404529E-3,2.6722804E-3,4.4150653E-4,-1.3671372E-3,-1.1203034E-3,-3.8456444E-3],"split_indices":[0,2,2,0,0,0,2,0,0,2,2,0,0,0,0,0,0,0,0,0,0,0,0,0,0,0,0,0,0,0,0],"split_type":[0,0,0,0,0,0,0,0,0,0,0,0,0,0,0,0,0,0,0,0,0,0,0,0,0,0,0,0,0,0,0],"sum_hessian":[7.919E4,2.873E4,5.046E4,1.0055E4,1.8675E4,3.0887E4,1.9573E4,1.748E3,8.307E3,1.167E3,1.7508E4,1.1185E4,1.9702E4,1.6254E4,3.319E3,5.35E2,1.213E3,4.016E3,4.291E3,3.91E2,7.76E2,1.603E4,1.478E3,7.34E3,3.845E3,1.1289E4,8.413E3,1.3523E4,2.731E3,2.534E3,7.85E2],"tree_param":{"num_deleted":"0","num_feature":"3","num_nodes":"31","size_leaf_vector":"1"}},{"base_weights":[3.8727947E-5,-7.8431945E-3,3.9392207E-3,-1.4532365E-2,-4.304073E-3,7.283382E-4,8.808588E-3,-2.8074238E-2,-1.1610831E-2,-3.83132E-2,-3.8231167E-3,1.8553768E-3,-8.249879E-3,1.3044513E-2,-4.940512E-3,-6.284381E-3,-3.8834214E-3,-2.2371286E-3,-1.4358765E-3,-1.0872448E-2,-4.0820125E-3,-1.2057737E-3,-3.2096854E-4,-5.3011332E-5,4.438982E-4,-1.0410215E-3,-6.10301E-3,1.8450756E-3,3.5298336E-3,-5.5153546E-4,-4.069829E-3],"categories":[],"categories_nodes":[],"categories_segments":[],"categories_sizes":[],"default_left":[0,0,0,0,0,0,0,0,0,0,0,0,0,0,0,0,0,0,0,0,0,0,0,0,0,0,0,0,0,0,0],"id":22,"left_children":[1,3,5,7,9,11,13,15,17,19,21,23,25,27,29,-1,-1,-1,-1,-1,-1,-1,-1,-1,-1,-1,-1,-1,-1,-1,-1],"loss_changes":[2.4347222E0,6.205933E-1,8.283028E-1,3.585502E-1,2.8032517E-1,3.2307813E-1,1.226136E0,4.750228E-2,5.0107837E-2,8.8674724E-2,1.1996657E-1,6.917046E-2,1.5100212E-1,1.2529159E-1,1.3895857E-1,0E0,0E0,0E0,0E0,0E0,0E0,0E0,0E0,0E0,0E0,0E0,0E0,0E0,0E0,0E0,0E0],"parents":[2147483647,0,0,1,1,2,2,3,3,4,4,5,5,6,6,7,7,8,8,9,9,10,10,11,11,12,12,13,13,14,14],"right_children":[2,4,6,8,10,12,14,16,18,20,22,24,26,28,30,-1,-1,-1,-1,-1,-1,-1,-1,-1,-1,-1,-1,-1,-1,-1,-1],"split_conditions":[5.57E1,1E0,7.34E1,3.85E1,1.79E1,2E0,1E0,2.46E1,4.76E1,2E0,4.02E1,6.19E1,3E0,9.81E1,2E0,-6.284381E-3,-3.8834214E-3,-2.2371286E-3,-1.4358765E-3,-1.0872448E-2,-4.0820125E-3,-1.2057737E-3,-3.2096854E-4,-5.3011332E-5,4.438982E-4,-1.0410215E-3,-6.10301E-3,1.8450756E-3,3.5298336E-3,-5.5153546E-4,-4.069829E-3],"split_indices":[0,2,0,0,0,2,2,0,0,2,0,0,2,0,2,0,0,0,0,0,0,0,0,0,0,0,0,0,0,0,0],"split_type":[0,0,0,0,0,0,0,0,0,0,0,0,0,0,0,0,0,0,0,0,0,0,0,0,0,0,0,0,0,0,0],"sum_hessian":[7.9193E4,2.6216E4,5.2977E4,9.07E3,1.7146E4,3.1926E4,2.1051E4,1.608E3,7.462E3,2.38E2,1.6908E4,2.8366E4,3.56E3,1.6093E4,4.958E3,2.17E2,1.391E3,2.845E3,4.617E3,5.7E1,1.81E2,4.824E3,1.2084E4,9.453E3,1.8913E4,3.423E3,1.37E2,1.5029E4,1.064E3,4.692E3,2.66E2],"tree_param":{"num_deleted":"0","num_feature":"3","num_nodes":"31","size_leaf_vector":"1"}},{"base_weights":[4.841822E-5,-6.189299E-3,3.702171E-3,-8.414055E-3,4.7321366E-3,1.0038944E-3,7.4036494E-3,-1.5073199E-2,-6.421986E-3,3.2966803E-3,4.3650158E-2,8.4537984E-4,3.746054E-2,1.0442256E-2,-1.0932926E-3,-5.6603146E-3,-2.0638807E-3,-1.2907183E-3,-7.6646626E-4,5.60409E-3,3.5255426E-4,1.047143E-2,5.4637236E-3,-2.3857348E-5,3.91161E-4,1.06478585E-2,4.8365397E-3,1.1341178E-3,2.3251737E-3,-2.6219664E-4,2.9430657E-3],"categories":[],"categories_nodes":[],"categories_segments":[],"categories_sizes":[],"default_left":[0,0,0,0,0,0,0,0,0,0,0,0,0,0,0,0,0,0,0,0,0,0,0,0,0,0,0,0,0,0,0],"id":23,"left_children":[1,3,5,7,9,11,13,15,17,19,21,23,25,27,29,-1,-1,-1,-1,-1,-1,-1,-1,-1,-1,-1,-1,-1,-1,-1,-1],"loss_changes":[1.8044834E0,7.106457E-1,4.9866414E-1,3.2221425E-1,2.763884E-1,1.6685738E-1,5.435244E-1,1.6605914E-1,5.352992E-2,1.5383586E-1,3.0723006E-2,5.0901517E-2,1.9573525E-2,2.2591496E-1,7.5243406E-2,0E0,0E0,0E0,0E0,0E0,0E0,0E0,0E0,0E0,0E0,0E0,0E0,0E0,0E0,0E0,0E0],"parents":[2147483647,0,0,1,1,2,2,3,3,4,4,5,5,6,6,7,7,8,8,9,9,10,10,11,11,12,12,13,13,14,14],"right_children":[2,4,6,8,10,12,14,16,18,20,22,24,26,28,30,-1,-1,-1,-1,-1,-1,-1,-1,-1,-1,-1,-1,-1,-1,-1,-1],"split_conditions":[5.74E1,5E0,7.34E1,3.89E1,7E0,8E0,6E0,1.79E1,4.76E1,3.24E1,5.04E1,6.73E1,6.19E1,8.4E1,9E0,-5.6603146E-3,-2.0638807E-3,-1.2907183E-3,-7.6646626E-4,5.60409E-3,3.5255426E-4,1.047143E-2,5.4637236E-3,-2.3857348E-5,3.91161E-4,1.06478585E-2,4.8365397E-3,1.1341178E-3,2.3251737E-3,-2.6219664E-4,2.9430657E-3],"split_indices":[0,1,0,0,1,1,1,0,0,0,0,0,0,0,1,0,0,0,0,0,0,0,0,0,0,0,0,0,0,0,0],"split_type":[0,0,0,0,0,0,0,0,0,0,0,0,0,0,0,0,0,0,0,0,0,0,0,0,0,0,0,0,0,0,0],"sum_hessian":[7.9173E4,2.9245E4,4.9928E4,2.4296E4,4.949E3,2.8878E4,2.105E4,5.593E3,1.8703E4,4.774E3,1.75E2,2.8754E4,1.24E2,1.5505E4,5.545E3,3.05E2,5.288E3,7.02E3,1.1683E4,1.28E2,4.646E3,3.6E1,1.39E2,1.8316E4,1.0438E4,1.5E1,1.09E2,9.88E3,5.625E3,5.376E3,1.69E2],"tree_param":{"num_deleted":"0","num_feature":"3","num_nodes":"31","size_leaf_vector":"1"}},{"base_weights":[-3.5718767E-5,6.9925113E-4,-4.108487E-3,1.597554E-3,-7.1020547E-4,-3.7673402E-3,-3.8781032E-2,1.5218625E-3,2.873563E-3,-1.0810876E-3,3.2536668E-4,-3.390301E-3,-5.871357E-3,-4.2351298E-2,-3.5708386E-3,2.1233792E-4,8.800421E-4,-1.1231374E-5,-2.6448903E-4,4.521592E-6,3.5193216E-4,-4.1196594E-4,-6.0748187E-4,-1.1568186E-3,-8.1196934E-4,-4.395027E-3,-7.388789E-3],"categories":[],"categories_nodes":[],"categories_segments":[],"categories_sizes":[],"default_left":[0,0,0,0,0,0,0,0,0,0,0,0,0,0,0,0,0,0,0,0,0,0,0,0,0,0,0],"id":24,"left_children":[1,3,5,7,9,11,13,15,-1,17,19,21,23,25,-1,-1,-1,-1,-1,-1,-1,-1,-1,-1,-1,-1,-1],"loss_changes":[2.3735851E-1,8.505014E-2,1.4323816E-1,5.449883E-2,1.0043151E-2,9.503633E-3,5.300835E-3,1.885584E-2,0E0,1.3215322E-2,4.1140844E-3,4.3133646E-3,1.495935E-3,7.030621E-3,0E0,0E0,0E0,0E0,0E0,0E0,0E0,0E0,0E0,0E0,0E0,0E0,0E0],"parents":[2147483647,0,0,1,1,2,2,3,3,4,4,5,5,6,6,7,7,9,9,10,10,11,11,12,12,13,13],"right_children":[2,4,6,8,10,12,14,16,-1,18,20,22,24,26,-1,-1,-1,-1,-1,-1,-1,-1,-1,-1,-1,-1,-1],"split_conditions":[2E0,1E0,4E0,9E0,5E0,3E0,3E0,8E0,2.873563E-3,2E0,7E0,3E0,1E0,1E0,-3.5708386E-3,2.1233792E-4,8.800421E-4,-1.1231374E-5,-2.6448903E-4,4.521592E-6,3.5193216E-4,-4.1196594E-4,-6.0748187E-4,-1.1568186E-3,-8.1196934E-4,-4.395027E-3,-7.388789E-3],"split_indices":[2,2,2,1,1,2,1,1,0,1,1,1,1,1,0,0,0,0,0,0,0,0,0,0,0,0,0],"split_type":[0,0,0,0,0,0,0,0,0,0,0,0,0,0,0,0,0,0,0,0,0,0,0,0,0,0,0],"sum_hessian":[7.9293E4,6.7172E4,1.2121E4,4.1025E4,2.6147E4,1.2004E4,1.17E2,4.085E4,1.75E2,1.9252E4,6.895E3,1.0182E4,1.822E3,9.3E1,2.4E1,3.9876E4,9.74E2,7.779E3,1.1473E4,6.017E3,8.78E2,5.155E3,5.027E3,3.6E2,1.462E3,3.4E1,5.9E1],"tree_param":{"num_deleted":"0","num_feature":"3","num_nodes":"27","size_leaf_vector":"1"}},{"base_weights":[9.7376964E-5,-6.071822E-3,2.5610414E-3,-1.2165189E-2,-2.994492E-3,3.45407E-3,-7.566745E-3,-2.3454951E-2,-9.989504E-3,-1.1609539E-2,-2.282258E-3,1.1408114E-3,6.688226E-3,-4.33575E-3,-1.8866217E-2,-4.418385E-3,-2.772265E-3,-1.8324261E-3,-1.1539225E-3,-4.768966E-3,-1.8542493E-4,-3.1666094E-4,-8.40146E-3,-6.948188E-5,4.6722844E-4,1.4798566E-3,-5.8389985E-4,-4.7276984E-4,-4.068353E-3,-2.6816607E-3,-1.0492573E-2],"categories":[],"categories_nodes":[],"categories_segments":[],"categories_sizes":[],"default_left":[0,0,0,0,0,0,0,0,0,0,0,0,0,0,0,0,0,0,0,0,0,0,0,0,0,0,0,0,0,0,0],"id":25,"left_children":[1,3,5,7,9,11,13,15,17,19,21,23,25,27,29,-1,-1,-1,-1,-1,-1,-1,-1,-1,-1,-1,-1,-1,-1,-1,-1],"loss_changes":[1.2030945E0,4.2355555E-1,5.116411E-1,1.8595302E-1,9.207997E-2,3.8890755E-1,1.6727331E-1,3.5984457E-2,3.241551E-2,2.3990063E-1,1.2741208E-1,9.5969155E-2,7.288324E-1,9.6118875E-2,5.0204575E-2,0E0,0E0,0E0,0E0,0E0,0E0,0E0,0E0,0E0,0E0,0E0,0E0,0E0,0E0,0E0,0E0],"parents":[2147483647,0,0,1,1,2,2,3,3,4,4,5,5,6,6,7,7,8,8,9,9,10,10,11,11,12,12,13,13,14,14],"right_children":[2,4,6,8,10,12,14,16,18,20,22,24,26,28,30,-1,-1,-1,-1,-1,-1,-1,-1,-1,-1,-1,-1,-1,-1,-1,-1],"split_conditions":[5.34E1,1E0,2E0,3.64E1,2.8E1,7.28E1,6.62E1,3.05E1,4.76E1,2E0,4E0,1E0,1E0,3E0,3E0,-4.418385E-3,-2.772265E-3,-1.8324261E-3,-1.1539225E-3,-4.768966E-3,-1.8542493E-4,-3.1666094E-4,-8.40146E-3,-6.948188E-5,4.6722844E-4,1.4798566E-3,-5.8389985E-4,-4.7276984E-4,-4.068353E-3,-2.6816607E-3,-1.0492573E-2],"split_indices":[0,2,2,0,0,0,0,0,0,2,2,2,2,2,2,0,0,0,0,0,0,0,0,0,0,0,0,0,0,0,0],"split_type":[0,0,0,0,0,0,0,0,0,0,0,0,0,0,0,0,0,0,0,0,0,0,0,0,0,0,0,0,0,0,0],"sum_hessian":[7.9155E4,2.2589E4,5.6566E4,7.579E3,1.501E4,5.1983E4,4.583E3,1.223E3,6.356E3,1.145E3,1.3865E4,3.0307E4,2.1676E4,3.565E3,1.018E3,5.52E2,6.71E2,3.225E3,3.131E3,3.88E2,7.57E2,1.3822E4,4.3E1,1.6721E4,1.3586E4,1.667E4,5.006E3,3.39E3,1.75E2,1E3,1.8E1],"tree_param":{"num_deleted":"0","num_feature":"3","num_nodes":"31","size_leaf_vector":"1"}},{"base_weights":[-4.4100238E-5,-4.65085E-3,2.395177E-3,-1.0314283E-2,-1.627615E-3,3.0878321E-3,-6.908658E-3,-1.8595668E-2,-8.653366E-3,-2.3711374E-2,-1.3302291E-3,9.814039E-4,5.0025154E-3,-3.5279328E-3,-1.6254377E-2,-4.937663E-3,-2.6767545E-3,-1.5994614E-3,-1.2072368E-3,-5.933166E-3,-4.477543E-6,-1.7912264E-4,-4.2605917E-3,-7.1555674E-5,4.1499268E-4,1.1158953E-3,-3.0721084E-4,-3.917221E-4,-3.7369637E-3,-2.1122592E-3,-4.656195E-3],"categories":[],"categories_nodes":[],"categories_segments":[],"categories_sizes":[],"default_left":[0,0,0,0,0,0,0,0,0,0,0,0,0,0,0,0,0,0,0,0,0,0,0,0,0,0,0,0,0,0,0],"id":26,"left_children":[1,3,5,7,9,11,13,15,17,19,21,23,25,27,29,-1,-1,-1,-1,-1,-1,-1,-1,-1,-1,-1,-1,-1,-1,-1,-1],"loss_changes":[8.8818336E-1,4.6848953E-1,3.3304596E-1,1.3082492E-1,1.1713741E-1,1.9397709E-1,1.1308546E-1,1.6506255E-2,9.56285E-3,8.891836E-2,6.4825386E-2,5.9632264E-2,4.32885E-1,5.149852E-2,3.0115455E-2,0E0,0E0,0E0,0E0,0E0,0E0,0E0,0E0,0E0,0E0,0E0,0E0,0E0,0E0,0E0,0E0],"parents":[2147483647,0,0,1,1,2,2,3,3,4,4,5,5,6,6,7,7,8,8,9,9,10,10,11,11,12,12,13,13,14,14],"right_children":[2,4,6,8,10,12,14,16,18,20,22,24,26,28,30,-1,-1,-1,-1,-1,-1,-1,-1,-1,-1,-1,-1,-1,-1,-1,-1],"split_conditions":[5.64E1,1E0,2E0,3.85E1,1.79E1,7.06E1,6.65E1,1.79E1,4.52E1,3E0,4E0,1E0,1E0,3E0,7.68E1,-4.937663E-3,-2.6767545E-3,-1.5994614E-3,-1.2072368E-3,-5.933166E-3,-4.477543E-6,-1.7912264E-4,-4.2605917E-3,-7.1555674E-5,4.1499268E-4,1.1158953E-3,-3.0721084E-4,-3.917221E-4,-3.7369637E-3,-2.1122592E-3,-4.656195E-3],"split_indices":[0,2,2,0,0,0,0,0,0,2,2,2,2,2,0,0,0,0,0,0,0,0,0,0,0,0,0,0,0,0,0],"split_type":[0,0,0,0,0,0,0,0,0,0,0,0,0,0,0,0,0,0,0,0,0,0,0,0,0,0,0,0,0,0,0],"sum_hessian":[7.9038E4,2.7362E4,5.1676E4,9.522E3,1.784E4,4.8096E4,3.58E3,1.589E3,7.933E3,2.36E2,1.7604E4,2.2902E4,2.5194E4,2.63E3,9.5E2,7.7E1,1.512E3,1.832E3,6.101E3,1.41E2,9.5E1,1.7517E4,8.7E1,1.2605E4,1.0297E4,1.8723E4,6.471E3,2.523E3,1.07E2,8.3E2,1.2E2],"tree_param":{"num_deleted":"0","num_feature":"3","num_nodes":"31","size_leaf_vector":"1"}},{"base_weights":[-1.1751848E-4,3.146763E-4,-2.5267892E-3,2.747987E-4,2.2719437E-3,-2.2894244E-3,-2.6495319E-2,7.88277E-4,-5.327377E-4,-1.8228829E-3,-4.8840553E-3,-2.4635714E-2,-1.343524E-2,2.1160187E-4,4.600669E-6,-1.9289985E-4,8.601229E-5,-2.0859228E-4,-3.3955261E-4,-4.6908102E-4,-7.9694943E-4,-2.6582377E-3,-4.075679E-3],"categories":[],"categories_nodes":[],"categories_segments":[],"categories_sizes":[],"default_left":[0,0,0,0,0,0,0,0,0,0,0,0,0,0,0,0,0,0,0,0,0,0,0],"id":27,"left_children":[1,3,5,7,-1,9,11,13,15,17,19,21,-1,-1,-1,-1,-1,-1,-1,-1,-1,-1,-1],"loss_changes":[8.244471E-2,3.97022E-2,6.845543E-2,2.7763475E-2,0E0,1.442755E-2,1.1633731E-2,1.9299904E-2,2.1686178E-2,1.9232519E-3,1.3526417E-3,1.5520304E-3,0E0,0E0,0E0,0E0,0E0,0E0,0E0,0E0,0E0,0E0,0E0],"parents":[2147483647,0,0,1,1,2,2,3,3,5,5,6,6,7,7,8,8,9,9,10,10,11,11],"right_children":[2,4,6,8,-1,10,12,14,16,18,20,22,-1,-1,-1,-1,-1,-1,-1,-1,-1,-1,-1],"split_conditions":[2E0,9E0,4E0,1E0,2.2719437E-3,3E0,5E0,4E0,4E0,3E0,1E0,1E0,-1.343524E-2,2.1160187E-4,4.600669E-6,-1.9289985E-4,8.601229E-5,-2.0859228E-4,-3.3955261E-4,-4.6908102E-4,-7.9694943E-4,-2.6582377E-3,-4.075679E-3],"split_indices":[2,1,2,2,0,2,2,1,1,1,1,1,0,0,0,0,0,0,0,0,0,0,0],"split_type":[0,0,0,0,0,0,0,0,0,0,0,0,0,0,0,0,0,0,0,0,0,0,0],"sum_hessian":[7.9175E4,6.7133E4,1.2042E4,6.6954E4,1.79E2,1.1925E4,1.17E2,4.0929E4,2.6025E4,1.0109E4,1.816E3,1.15E2,2E0,2.2469E4,1.846E4,1.5482E4,1.0543E4,5.106E3,5.003E3,3.58E2,1.458E3,3.3E1,8.2E1],"tree_param":{"num_deleted":"0","num_feature":"3","num_nodes":"23","size_leaf_vector":"1"}},{"base_weights":[8.887226E-5,-2.2583047E-3,3.6576698E-3,-5.3636264E-3,-2.1127127E-4,6.4434204E-3,-2.805306E-3,-8.100409E-3,-1.1308539E-3,-4.030072E-3,7.4406184E-4,5.7120416E-3,1.2113127E-2,-8.794709E-4,-1.1792009E-2,-3.37779E-3,-1.1103852E-3,-3.2496342E-4,1.3929949E-4,-2.0652534E-3,4.1849047E-4,1.8510998E-4,-1.9649975E-3,6.7813246E-4,1.0795265E-3,1.4563501E-3,2.2882272E-3,5.5717985E-5,-1.8018559E-3,-1.5302658E-3,-3.9574523E-3],"categories":[],"categories_nodes":[],"categories_segments":[],"categories_sizes":[],"default_left":[0,0,0,0,0,0,0,0,0,0,0,0,0,0,0,0,0,0,0,0,0,0,0,0,0,0,0,0,0,0,0],"id":28,"left_children":[1,3,5,7,9,11,13,15,17,19,21,23,25,27,29,-1,-1,-1,-1,-1,-1,-1,-1,-1,-1,-1,-1,-1,-1,-1,-1],"loss_changes":[6.6129893E-1,3.027302E-1,5.6394696E-1,2.191751E-1,1.047217E-1,9.069389E-2,1.6328031E-1,1.15451336E-1,1.5850639E-2,3.8152716E-1,1.5577544E-1,3.425944E-2,1.8734634E-2,1.0822663E-1,3.8364097E-2,0E0,0E0,0E0,0E0,0E0,0E0,0E0,0E0,0E0,0E0,0E0,0E0,0E0,0E0,0E0,0E0],"parents":[2147483647,0,0,1,1,2,2,3,3,4,4,5,5,6,6,7,7,8,8,9,9,10,10,11,11,12,12,13,13,14,14],"right_children":[2,4,6,8,10,12,14,16,18,20,22,24,26,28,30,-1,-1,-1,-1,-1,-1,-1,-1,-1,-1,-1,-1,-1,-1,-1,-1],"split_conditions":[6.73E1,1E0,1E0,5.9E1,4.13E1,9.3E1,8.11E1,3.05E1,6.47E1,2E0,3E0,7.89E1,9.81E1,2E0,9.22E1,-3.37779E-3,-1.1103852E-3,-3.2496342E-4,1.3929949E-4,-2.0652534E-3,4.1849047E-4,1.8510998E-4,-1.9649975E-3,6.7813246E-4,1.0795265E-3,1.4563501E-3,2.2882272E-3,5.5717985E-5,-1.8018559E-3,-1.5302658E-3,-3.9574523E-3],"split_indices":[0,2,2,0,0,0,0,0,0,2,2,0,0,2,0,0,0,0,0,0,0,0,0,0,0,0,0,0,0,0,0],"split_type":[0,0,0,0,0,0,0,0,0,0,0,0,0,0,0,0,0,0,0,0,0,0,0,0,0,0,0,0,0,0,0],"sum_hessian":[7.8944E4,4.7623E4,3.1321E4,1.892E4,2.8703E4,2.1887E4,9.434E3,1.149E4,7.43E3,5.743E3,2.296E4,1.9388E4,2.499E3,7.77E3,1.664E3,5.29E2,1.0961E4,4.944E3,2.486E3,2.365E3,3.378E3,2.2176E4,7.84E2,1.076E4,8.628E3,1.418E3,1.081E3,6.986E3,7.84E2,1.502E3,1.62E2],"tree_param":{"num_deleted":"0","num_feature":"3","num_nodes":"31","size_leaf_vector":"1"}},{"base_weights":[-1.2598651E-4,-3.9402107E-3,1.3489024E-3,-5.6466064E-3,5.848837E-3,-1.3278579E-4,3.1549684E-3,-1.0944943E-2,-4.890048E-3,4.744626E-3,5.6417014E-2,-2.3897132E-4,3.8973786E-2,5.581257E-3,-3.930097E-3,-1.994546E-3,6.606787E-4,-8.167001E-4,-5.3812546E-4,4.8183105E-3,5.243118E-4,1.0115799E-2,5.776384E-3,-1.0936299E-4,4.283522E-4,9.833869E-3,4.778841E-3,6.584008E-4,1.6996003E-3,-1.7566618E-4,-7.880551E-4],"categories":[],"categories_nodes":[],"categories_segments":[],"categories_sizes":[],"default_left":[0,0,0,0,0,0,0,0,0,0,0,0,0,0,0,0,0,0,0,0,0,0,0,0,0,0,0,0,0,0,0],"id":29,"left_children":[1,3,5,7,9,11,13,15,17,19,21,23,25,27,29,-1,-1,-1,-1,-1,-1,-1,-1,-1,-1,-1,-1,-1,-1,-1,-1],"loss_changes":[4.4570124E-1,3.6907434E-1,1.5289523E-1,7.5362384E-2,1.8288073E-1,1.3034548E-1,4.4265786E-1,8.489928E-2,1.1875063E-2,1.0970487E-1,1.1219129E-2,4.7480486E-2,1.39891505E-2,1.3139439E-1,2.3982577E-2,0E0,0E0,0E0,0E0,0E0,0E0,0E0,0E0,0E0,0E0,0E0,0E0,0E0,0E0,0E0,0E0],"parents":[2147483647,0,0,1,1,2,2,3,3,4,4,5,5,6,6,7,7,8,8,9,9,10,10,11,11,12,12,13,13,14,14],"right_children":[2,4,6,8,10,12,14,16,18,20,22,24,26,28,30,-1,-1,-1,-1,-1,-1,-1,-1,-1,-1,-1,-1,-1,-1,-1,-1],"split_conditions":[5.31E1,5E0,7.06E1,3.15E1,7E0,8E0,6E0,4E0,4.88E1,3.32E1,5.04E1,6E0,6.19E1,8.86E1,7.7E1,-1.994546E-3,6.606787E-4,-8.167001E-4,-5.3812546E-4,4.8183105E-3,5.243118E-4,1.0115799E-2,5.776384E-3,-1.0936299E-4,4.283522E-4,9.833869E-3,4.778841E-3,6.584008E-4,1.6996003E-3,-1.7566618E-4,-7.880551E-4],"split_indices":[0,1,0,0,1,1,1,1,0,0,0,1,0,0,0,0,0,0,0,0,0,0,0,0,0,0,0,0,0,0,0],"split_type":[0,0,0,0,0,0,0,0,0,0,0,0,0,0,0,0,0,0,0,0,0,0,0,0,0,0,0,0,0,0,0],"sum_hessian":[7.9226E4,2.2092E4,5.7134E4,1.8813E4,3.279E3,3.1386E4,2.5748E4,2.349E3,1.6464E4,3.21E3,6.9E1,3.1302E4,8.4E1,1.918E4,6.568E3,2.037E3,3.12E2,1.1545E4,4.919E3,1.39E2,3.071E3,4.1E1,2.8E1,2.7023E4,4.279E3,1.6E1,6.8E1,1.5888E4,3.292E3,2.13E3,4.438E3],"tree_param":{"num_deleted":"0","num_feature":"3","num_nodes":"31","size_leaf_vector":"1"}},{"base_weights":[2.1753423E-5,-3.3033795E-3,1.3459226E-3,-4.04028E-3,1.3832716E-2,3.2557268E-4,3.2430203E-3,-2.1449665E-2,-3.7735994E-3,3.7532125E-2,1.017403E-2,2.0533384E-4,2.9526325E-2,6.567855E-3,-1.9958538E-3,-3.9134105E-3,4.963382E-3,-6.5866456E-4,1.43158E-4,1.05881635E-2,4.4565666E-3,1.0959792E-3,6.0390527E-3,1.5154368E-6,7.391414E-4,9.179406E-3,3.5476352E-3,7.9386274E-4,1.7565489E-3,1.9982336E-4,-5.2575953E-4],"categories":[],"categories_nodes":[],"categories_segments":[],"categories_sizes":[],"default_left":[0,0,0,0,0,0,0,0,0,0,0,0,0,0,0,0,0,0,0,0,0,0,0,0,0,0,0,0,0,0,0],"id":30,"left_children":[1,3,5,7,9,11,13,15,17,19,21,23,25,27,29,-1,-1,-1,-1,-1,-1,-1,-1,-1,-1,-1,-1,-1,-1,-1,-1],"loss_changes":[3.4862822E-1,2.848209E-1,1.0961394E-1,1.00304514E-1,8.025725E-2,1.2928537E-1,3.449844E-1,8.3356306E-2,6.2181205E-2,2.9963091E-2,6.932782E-2,3.3810962E-2,2.6649684E-2,7.9405546E-2,3.862895E-2,0E0,0E0,0E0,0E0,0E0,0E0,0E0,0E0,0E0,0E0,0E0,0E0,0E0,0E0,0E0,0E0],"parents":[2147483647,0,0,1,1,2,2,3,3,4,4,5,5,6,6,7,7,8,8,9,9,10,10,11,11,12,12,13,13,14,14],"right_children":[2,4,6,8,10,12,14,16,18,20,22,24,26,28,30,-1,-1,-1,-1,-1,-1,-1,-1,-1,-1,-1,-1,-1,-1,-1,-1],"split_conditions":[5.34E1,6E0,7.42E1,1.79E1,4.27E1,8E0,5E0,4E0,5E0,3.59E1,7E0,7E0,6.19E1,8.96E1,6E0,-3.9134105E-3,4.963382E-3,-6.5866456E-4,1.43158E-4,1.05881635E-2,4.4565666E-3,1.0959792E-3,6.0390527E-3,1.5154368E-6,7.391414E-4,9.179406E-3,3.5476352E-3,7.9386274E-4,1.7565489E-3,1.9982336E-4,-5.2575953E-4],"split_indices":[0,1,0,0,0,1,1,1,1,0,1,1,0,0,1,0,0,0,0,0,0,0,0,0,0,0,0,0,0,0,0],"split_type":[0,0,0,0,0,0,0,0,0,0,0,0,0,0,0,0,0,0,0,0,0,0,0,0,0,0,0,0,0,0,0],"sum_hessian":[7.9177E4,2.255E4,5.6627E4,2.1621E4,9.29E2,3.6823E4,1.9804E4,3.25E2,2.1296E4,1.23E2,8.06E2,3.6673E4,1.5E2,1.2115E4,7.689E3,3E2,2.5E1,1.8836E4,2.46E3,2.2E1,1.01E2,7.37E2,6.9E1,3.5218E4,1.455E3,2.2E1,1.28E2,9.709E3,2.406E3,2.399E3,5.29E3],"tree_param":{"num_deleted":"0","num_feature":"3","num_nodes":"31","size_leaf_vector":"1"}},{"base_weights":[-4.4056498E-5,-1.2884847E-5,-2.042686E-2,-3.7161426E-5,1.6040757E-3,-1.8802857E-2,-1.1705505E-2,4.0215178E-4,-5.0674134E-4,-2.1624316E-2,-8.0698053E-4,3.3016235E-4,1.8157674E-5,-6.7683395E-5,-2.4408814E-4,-2.1914395E-3,-3.720605E-3],"categories":[],"categories_nodes":[],"categories_segments":[],"categories_sizes":[],"default_left":[0,0,0,0,0,0,0,0,0,0,0,0,0,0,0,0,0],"id":31,"left_children":[1,3,5,7,-1,9,-1,11,13,15,-1,-1,-1,-1,-1,-1,-1],"loss_changes":[5.0347384E-2,2.056599E-2,9.85327E-3,1.6285773E-2,0E0,4.390478E-3,0E0,2.0624919E-2,2.3730537E-3,1.8234923E-3,0E0,0E0,0E0,0E0,0E0,0E0,0E0],"parents":[2147483647,0,0,1,1,2,2,3,3,5,5,7,7,8,8,9,9],"right_children":[2,4,6,8,-1,10,-1,12,14,16,-1,-1,-1,-1,-1,-1,-1],"split_conditions":[4E0,9E0,5E0,1E0,1.6040757E-3,3E0,-1.1705505E-2,1E0,3E0,1E0,-8.0698053E-4,3.3016235E-4,1.8157674E-5,-6.7683395E-5,-2.4408814E-4,-2.1914395E-3,-3.720605E-3],"split_indices":[2,1,2,2,0,1,0,1,2,1,0,0,0,0,0,0,0],"split_type":[0,0,0,0,0,0,0,0,0,0,0,0,0,0,0,0,0],"sum_hessian":[7.9241E4,7.9121E4,1.2E2,7.8943E4,1.78E2,1.18E2,2E0,4.0786E4,3.8157E4,9.7E1,2.1E1,5.511E3,3.5275E4,3.6357E4,1.8E3,3.2E1,6.5E1],"tree_param":{"num_deleted":"0","num_feature":"3","num_nodes":"17","size_leaf_vector":"1"}},{"base_weights":[9.5032774E-5,1.20457466E-4,-1.6740542E-2,9.9023106E-5,1.4624146E-3,-1.495204E-2,-9.663297E-3,2.5555887E-4,-7.7192945E-4,-1.6957972E-2,-8.415635E-4,1.5867194E-4,1.8533698E-5,-4.7843736E-5,-2.688064E-4,-1.9733403E-3,-2.8154443E-3],"categories":[],"categories_nodes":[],"categories_segments":[],"categories_sizes":[],"default_left":[0,0,0,0,0,0,0,0,0,0,0,0,0,0,0,0,0],"id":32,"left_children":[1,3,5,7,-1,9,-1,11,13,15,-1,-1,-1,-1,-1,-1,-1],"loss_changes":[3.377988E-2,1.6261604E-2,9.184882E-3,1.0719009E-2,0E0,2.0785425E-3,0E0,7.0573515E-3,5.5342456E-3,4.0749088E-4,0E0,0E0,0E0,0E0,0E0,0E0,0E0],"parents":[2147483647,0,0,1,1,2,2,3,3,5,5,7,7,8,8,9,9],"right_children":[2,4,6,8,-1,10,-1,12,14,16,-1,-1,-1,-1,-1,-1,-1],"split_conditions":[4E0,9E0,5E0,2E0,1.4624146E-3,3E0,-9.663297E-3,1E0,4E0,1E0,-8.415635E-4,1.5867194E-4,1.8533698E-5,-4.7843736E-5,-2.688064E-4,-1.9733403E-3,-2.8154443E-3],"split_indices":[2,1,2,2,0,1,0,1,1,1,0,0,0,0,0,0,0],"split_type":[0,0,0,0,0,0,0,0,0,0,0,0,0,0,0,0,0],"sum_hessian":[7.8912E4,7.8794E4,1.18E2,7.862E4,1.74E2,1.15E2,3E0,6.6643E4,1.1977E4,9.4E1,2.1E1,9.415E3,5.7228E4,8.295E3,3.682E3,3.3E1,6.1E1],"tree_param":{"num_deleted":"0","num_feature":"3","num_nodes":"17","size_leaf_vector":"1"}},{"base_weights":[-9.562482E-5,-2.993852E-3,8.55473E-4,-4.309916E-3,5.129239E-3,2.152517E-3,-7.1739656E-4,-1.5173186E-2,-4.0986734E-3,2.095714E-2,3.048637E-3,-3.7308753E-4,4.2701317E-3,-9.85657E-4,2.7977228E-3,-2.9089628E-3,4.4516474E-3,-7.031196E-4,-2.3397959E-4,2.6007534E-3,7.1810903E-3,3.2460995E-4,6.990827E-3,-2.2373353E-4,1.0657363E-6,5.984981E-4,2.1131327E-3,-1.6469895E-4,3.895728E-3,1.5224552E-3,-1.4041328E-3],"categories":[],"categories_nodes":[],"categories_segments":[],"categories_sizes":[],"default_left":[0,0,0,0,0,0,0,0,0,0,0,0,0,0,0,0,0,0,0,0,0,0,0,0,0,0,0,0,0,0,0],"id":33,"left_children":[1,3,5,7,9,11,13,15,17,19,21,23,25,27,29,-1,-1,-1,-1,-1,-1,-1,-1,-1,-1,-1,-1,-1,-1,-1,-1],"loss_changes":[2.1840537E-1,2.0931019E-1,1.2170461E-1,3.8600355E-2,8.98393E-2,1.7486289E-1,2.542704E-2,6.132991E-2,2.4699181E-2,3.004767E-2,9.290847E-2,6.3410923E-3,4.8855036E-2,7.588955E-2,1.7100835E-1,0E0,0E0,0E0,0E0,0E0,0E0,0E0,0E0,0E0,0E0,0E0,0E0,0E0,0E0,0E0,0E0],"parents":[2147483647,0,0,1,1,2,2,3,3,4,4,5,5,6,6,7,7,8,8,9,9,10,10,11,11,12,12,13,13,14,14],"right_children":[2,4,6,8,10,12,14,16,18,20,22,24,26,28,30,-1,-1,-1,-1,-1,-1,-1,-1,-1,-1,-1,-1,-1,-1,-1,-1],"split_conditions":[5.14E1,5E0,4E0,1.79E1,3.7E1,6.57E1,9.09E1,4E0,4E0,6E0,7E0,1E0,9.81E1,9E0,7E0,-2.9089628E-3,4.4516474E-3,-7.031196E-4,-2.3397959E-4,2.6007534E-3,7.1810903E-3,3.2460995E-4,6.990827E-3,-2.2373353E-4,1.0657363E-6,5.984981E-4,2.1131327E-3,-1.6469895E-4,3.895728E-3,1.5224552E-3,-1.4041328E-3],"split_indices":[0,1,1,0,0,0,0,1,1,1,1,1,0,1,1,0,0,0,0,0,0,0,0,0,0,0,0,0,0,0,0],"split_type":[0,0,0,0,0,0,0,0,0,0,0,0,0,0,0,0,0,0,0,0,0,0,0,0,0,0,0,0,0,0,0],"sum_hessian":[7.9231E4,1.9576E4,5.9655E4,1.6847E4,2.729E3,3.2694E4,2.6961E4,3.2E2,1.6527E4,3.16E2,2.413E3,1.4911E4,1.7783E4,2.505E4,1.911E3,2.93E2,2.7E1,1.3415E4,3.112E3,2.8E2,3.6E1,2.366E3,4.7E1,3.782E3,1.1129E4,1.7291E4,4.92E2,2.4947E4,1.03E2,1.191E3,7.2E2],"tree_param":{"num_deleted":"0","num_feature":"3","num_nodes":"31","size_leaf_vector":"1"}},{"base_weights":[-3.818806E-5,-2.7160472E-3,8.016524E-4,-5.7012886E-3,2.7769716E-3,1.3133595E-3,-4.316126E-3,-1.3011183E-2,-3.4682706E-3,5.501154E-3,-7.3748524E-4,1.1478091E-3,6.41532E-3,-1.26518E-3,-1.0155927E-2,-3.483521E-3,-1.7849974E-3,-9.956093E-4,-4.0176943E-5,9.160444E-4,-2.027936E-3,6.614911E-5,-1.085791E-3,4.4262928E-5,2.4231848E-4,1.178232E-3,-3.7924433E-3,-3.9640003E-5,-2.262493E-3,-1.40128E-3,-6.3587106E-3],"categories":[],"categories_nodes":[],"categories_segments":[],"categories_sizes":[],"default_left":[0,0,0,0,0,0,0,0,0,0,0,0,0,0,0,0,0,0,0,0,0,0,0,0,0,0,0,0,0,0,0],"id":34,"left_children":[1,3,5,7,9,11,13,15,17,19,21,23,25,27,29,-1,-1,-1,-1,-1,-1,-1,-1,-1,-1,-1,-1,-1,-1,-1,-1],"loss_changes":[1.7797028E-1,3.09823E-1,1.5776502E-1,1.9976622E-1,6.370001E-2,4.6249747E-2,9.7552605E-2,3.2224E-2,9.511498E-2,4.327047E-2,2.2267327E-2,2.1152861E-2,7.873052E-2,4.9758963E-2,4.8912033E-2,0E0,0E0,0E0,0E0,0E0,0E0,0E0,0E0,0E0,0E0,0E0,0E0,0E0,0E0,0E0,0E0],"parents":[2147483647,0,0,1,1,2,2,3,3,4,4,5,5,6,6,7,7,8,8,9,9,10,10,11,11,12,12,13,13,14,14],"right_children":[2,4,6,8,10,12,14,16,18,20,22,24,26,28,30,-1,-1,-1,-1,-1,-1,-1,-1,-1,-1,-1,-1,-1,-1,-1,-1],"split_conditions":[5.1E1,2E0,2E0,3.75E1,4.27E1,9.55E1,6.19E1,2.17E1,1E0,4E0,3E0,6.41E1,1E0,3E0,3E0,-3.483521E-3,-1.7849974E-3,-9.956093E-4,-4.0176943E-5,9.160444E-4,-2.027936E-3,6.614911E-5,-1.085791E-3,4.4262928E-5,2.4231848E-4,1.178232E-3,-3.7924433E-3,-3.9640003E-5,-2.262493E-3,-1.40128E-3,-6.3587106E-3],"split_indices":[0,2,2,0,0,0,0,0,2,2,2,0,2,2,2,0,0,0,0,0,0,0,0,0,0,0,0,0,0,0,0],"split_type":[0,0,0,0,0,0,0,0,0,0,0,0,0,0,0,0,0,0,0,0,0,0,0,0,0,0,0,0,0,0,0],"sum_hessian":[7.9132E4,1.8892E4,6.024E4,1.224E4,6.652E3,5.4765E4,5.475E3,2.863E3,9.377E3,3.747E3,2.905E3,5.3045E4,1.72E3,3.597E3,1.878E3,2.79E2,2.584E3,4.711E3,4.666E3,3.632E3,1.15E2,2.46E3,4.45E2,1.8788E4,3.4257E4,1.646E3,7.4E1,3.355E3,2.42E2,1.833E3,4.5E1],"tree_param":{"num_deleted":"0","num_feature":"3","num_nodes":"31","size_leaf_vector":"1"}},{"base_weights":[1.12855516E-4,-8.3193276E-4,2.066379E-3,-1.446532E-3,4.7680093E-3,4.230927E-3,-1.5170942E-3,-1.4760813E-2,-1.3576952E-3,8.44092E-3,5.159812E-4,3.1103117E-3,6.904485E-3,3.500842E-4,-2.430308E-3,-2.7737464E-3,4.4780136E-3,-4.830801E-4,-1.3609057E-4,9.344301E-4,3.1091005E-3,-3.136866E-5,3.6701271E-3,1.4086951E-3,4.077015E-4,9.365885E-4,1.731196E-3,-4.762209E-4,7.238056E-4,-1.3822988E-4,-6.353186E-4],"categories":[],"categories_nodes":[],"categories_segments":[],"categories_sizes":[],"default_left":[0,0,0,0,0,0,0,0,0,0,0,0,0,0,0,0,0,0,0,0,0,0,0,0,0,0,0,0,0,0,0],"id":35,"left_children":[1,3,5,7,9,11,13,15,17,19,21,23,25,27,29,-1,-1,-1,-1,-1,-1,-1,-1,-1,-1,-1,-1,-1,-1,-1,-1],"loss_changes":[1.4629841E-1,1.8388766E-1,2.0042923E-1,5.6924507E-2,8.251756E-2,4.8241556E-2,1.6593503E-2,5.3649E-2,4.012637E-2,7.6897874E-2,4.2555224E-2,2.7948767E-2,1.4498204E-2,5.0447654E-2,1.779459E-2,0E0,0E0,0E0,0E0,0E0,0E0,0E0,0E0,0E0,0E0,0E0,0E0,0E0,0E0,0E0,0E0],"parents":[2147483647,0,0,1,1,2,2,3,3,4,4,5,5,6,6,7,7,8,8,9,9,10,10,11,11,12,12,13,13,14,14],"right_children":[2,4,6,8,10,12,14,16,18,20,22,24,26,28,30,-1,-1,-1,-1,-1,-1,-1,-1,-1,-1,-1,-1,-1,-1,-1,-1],"split_conditions":[7.06E1,6E0,5E0,1.79E1,6.27E1,8.4E1,6E0,4E0,4.34E1,7E0,8E0,7.12E1,9.81E1,8.02E1,8.2E1,-2.7737464E-3,4.4780136E-3,-4.830801E-4,-1.3609057E-4,9.344301E-4,3.1091005E-3,-3.136866E-5,3.6701271E-3,1.4086951E-3,4.077015E-4,9.365885E-4,1.731196E-3,-4.762209E-4,7.238056E-4,-1.3822988E-4,-6.353186E-4],"split_indices":[0,1,1,0,0,0,1,1,0,1,1,0,0,0,0,0,0,0,0,0,0,0,0,0,0,0,0,0,0,0,0],"split_type":[0,0,0,0,0,0,0,0,0,0,0,0,0,0,0,0,0,0,0,0,0,0,0,0,0,0,0,0,0,0,0],"sum_hessian":[7.9264E4,5.3426E4,2.5838E4,4.8143E4,5.283E3,1.6108E4,9.73E3,3.18E2,4.7825E4,2.834E3,2.449E3,1.1352E4,4.756E3,3.196E3,6.534E3,2.94E2,2.4E1,9.311E3,3.8514E4,2.403E3,4.31E2,2.378E3,7.1E1,6.66E2,1.0686E4,4.165E3,5.91E2,1.788E3,1.408E3,3.56E3,2.974E3],"tree_param":{"num_deleted":"0","num_feature":"3","num_nodes":"31","size_leaf_vector":"1"}},{"base_weights":[8.332732E-5,-1.4148281E-3,1.120382E-3,-2.569985E-3,3.889969E-3,2.6502712E-3,-6.098386E-4,-5.1983884E-3,-1.8690387E-3,2.4807885E-2,3.0834393E-3,1.4318716E-3,5.411063E-3,-7.9542346E-4,3.399957E-3,-1.0006139E-3,3.6307966E-4,-1.3889307E-4,-4.988729E-4,3.3732525E-3,7.8377435E-3,3.3517083E-4,3.2950782E-3,2.0334467E-3,1.8941824E-4,7.6148385E-4,1.5567336E-3,-1.6660176E-4,8.509445E-4,1.9061785E-3,-1.8069308E-3],"categories":[],"categories_nodes":[],"categories_segments":[],"categories_sizes":[],"default_left":[0,0,0,0,0,0,0,0,0,0,0,0,0,0,0,0,0,0,0,0,0,0,0,0,0,0,0,0,0,0,0],"id":36,"left_children":[1,3,5,7,9,11,13,15,17,19,21,23,25,27,29,-1,-1,-1,-1,-1,-1,-1,-1,-1,-1,-1,-1,-1,-1,-1,-1],"loss_changes":[1.2307859E-1,1.9858375E-1,1.2391777E-1,4.901761E-2,9.76905E-2,8.356455E-2,1.6351102E-2,6.285867E-2,2.886188E-2,1.2511164E-2,8.942374E-2,3.5323523E-2,1.2586623E-2,4.2825226E-2,1.398988E-1,0E0,0E0,0E0,0E0,0E0,0E0,0E0,0E0,0E0,0E0,0E0,0E0,0E0,0E0,0E0,0E0],"parents":[2147483647,0,0,1,1,2,2,3,3,4,4,5,5,6,6,7,7,8,8,9,9,10,10,11,11,12,12,13,13,14,14],"right_children":[2,4,6,8,10,12,14,16,18,20,22,24,26,28,30,-1,-1,-1,-1,-1,-1,-1,-1,-1,-1,-1,-1,-1,-1,-1,-1],"split_conditions":[5.91E1,5E0,4E0,3.89E1,3.46E1,7.7E1,9.55E1,4E0,3E0,6E0,7E0,5.93E1,9.81E1,8E0,7E0,-1.0006139E-3,3.6307966E-4,-1.3889307E-4,-4.988729E-4,3.3732525E-3,7.8377435E-3,3.3517083E-4,3.2950782E-3,2.0334467E-3,1.8941824E-4,7.6148385E-4,1.5567336E-3,-1.6660176E-4,8.509445E-4,1.9061785E-3,-1.8069308E-3],"split_indices":[0,1,1,0,0,0,0,1,1,1,1,0,0,1,1,0,0,0,0,0,0,0,0,0,0,0,0,0,0,0,0],"split_type":[0,0,0,0,0,0,0,0,0,0,0,0,0,0,0,0,0,0,0,0,0,0,0,0,0,0,0,0,0,0,0],"sum_hessian":[7.9216E4,3.2404E4,4.6812E4,2.661E4,5.794E3,2.4844E4,2.1968E4,5.601E3,2.1009E4,2.14E2,5.58E3,1.7238E4,7.606E3,2.0997E4,9.71E2,4.694E3,9.07E2,1.2754E4,8.255E3,1.99E2,1.5E1,5.341E3,2.39E2,2.36E2,1.7002E4,7.128E3,4.78E2,2.0022E4,9.75E2,6.06E2,3.65E2],"tree_param":{"num_deleted":"0","num_feature":"3","num_nodes":"31","size_leaf_vector":"1"}},{"base_weights":[1.0009645E-6,3.614548E-6,-7.7647786E-3,-1.2171225E-5,1.0013742E-3,-2.2806473E-6,-6.627272E-3,2.4671415E-5,-3.5798646E-5,6.281828E-5,-1.3880897E-3],"categories":[],"categories_nodes":[],"categories_segments":[],"categories_sizes":[],"default_left":[0,0,0,0,0,0,0,0,0,0,0],"id":37,"left_children":[1,3,-1,5,-1,7,9,-1,-1,-1,-1],"loss_changes":[1.0719495E-2,8.344642E-3,0E0,5.171348E-3,0E0,3.1109832E-3,2.1877722E-3,0E0,0E0,0E0,0E0],"parents":[2147483647,0,0,1,1,3,3,5,5,6,6],"right_children":[2,4,-1,6,-1,8,10,-1,-1,-1,-1],"split_conditions":[5E0,9E0,-7.7647786E-3,4E0,1.0013742E-3,4E0,1E0,2.4671415E-5,-3.5798646E-5,6.281828E-5,-1.3880897E-3],"split_indices":[2,1,0,2,0,1,1,0,0,0,0],"split_type":[0,0,0,0,0,0,0,0,0,0,0],"sum_hessian":[7.9228E4,7.9225E4,3E0,7.9039E4,1.86E2,7.8922E4,1.17E2,4.6276E4,3.2646E4,3.2E1,8.5E1],"tree_param":{"num_deleted":"0","num_feature":"3","num_nodes":"11","size_leaf_vector":"1"}},{"base_weights":[-6.0015645E-5,-1.1348919E-3,9.1276114E-4,-1.663485E-3,5.909693E-3,2.2439063E-3,-1.5877947E-3,-2.043331E-3,8.707127E-4,2.8993802E-2,4.975216E-3,1.5484933E-3,4.7355513E-3,6.7907684E-3,-1.8955041E-3,-6.0276425E-4,-2.396689E-4,3.480502E-3,4.091547E-5,6.914251E-3,3.47114E-3,6.8425655E-4,7.466567E-3,8.794657E-5,3.6322986E-4,5.9067796E-4,1.1306361E-3,-7.582296E-5,2.023159E-3,-8.5360506E-7,-3.6245224E-4],"categories":[],"categories_nodes":[],"categories_segments":[],"categories_sizes":[],"default_left":[0,0,0,0,0,0,0,0,0,0,0,0,0,0,0,0,0,0,0,0,0,0,0,0,0,0,0,0,0,0,0],"id":38,"left_children":[1,3,5,7,9,11,13,15,17,19,21,23,25,27,29,-1,-1,-1,-1,-1,-1,-1,-1,-1,-1,-1,-1,-1,-1,-1,-1],"loss_changes":[8.283149E-2,1.4014828E-1,1.384202E-1,3.3700645E-2,5.652426E-2,4.7015294E-2,3.725957E-2,2.6784629E-2,6.0939677E-2,9.142615E-3,4.6569236E-2,1.7822199E-2,1.3204753E-2,2.502453E-2,1.3717171E-2,0E0,0E0,0E0,0E0,0E0,0E0,0E0,0E0,0E0,0E0,0E0,0E0,0E0,0E0,0E0,0E0],"parents":[2147483647,0,0,1,1,2,2,3,3,4,4,5,5,6,6,7,7,8,8,9,9,10,10,11,11,12,12,13,13,14,14],"right_children":[2,4,6,8,10,12,14,16,18,20,22,24,26,28,30,-1,-1,-1,-1,-1,-1,-1,-1,-1,-1,-1,-1,-1,-1,-1,-1],"split_conditions":[6.19E1,6E0,5E0,5E0,4.13E1,8.2E1,6.29E1,3.89E1,3.24E1,3.59E1,8E0,6.97E1,9.38E1,6E0,6.83E1,-6.0276425E-4,-2.396689E-4,3.480502E-3,4.091547E-5,6.914251E-3,3.47114E-3,6.8425655E-4,7.466567E-3,8.794657E-5,3.6322986E-4,5.9067796E-4,1.1306361E-3,-7.582296E-5,2.023159E-3,-8.5360506E-7,-3.6245224E-4],"split_indices":[0,1,1,1,0,0,0,0,0,0,1,0,0,1,0,0,0,0,0,0,0,0,0,0,0,0,0,0,0,0,0],"split_type":[0,0,0,0,0,0,0,0,0,0,0,0,0,0,0,0,0,0,0,0,0,0,0,0,0,0,0,0,0,0,0],"sum_hessian":[7.9216E4,3.7633E4,4.1583E4,3.5007E4,2.626E3,2.7137E4,1.4446E4,3.0444E4,4.563E3,1.01E2,2.525E3,2.1217E4,5.92E3,5.11E2,1.3935E4,5.602E3,2.4842E4,1.18E2,4.445E3,2.4E1,7.7E1,2.503E3,2.2E1,1.0094E4,1.1123E4,4.61E3,1.31E3,2.45E2,2.66E2,3.011E3,1.0924E4],"tree_param":{"num_deleted":"0","num_feature":"3","num_nodes":"31","size_leaf_vector":"1"}},{"base_weights":[5.8032865E-6,-5.625756E-4,1.0864709E-3,-9.804969E-4,3.3819273E-3,2.0818373E-3,-1.8974537E-3,-2.980523E-3,-7.6820183E-4,1.8887173E-2,2.8019187E-3,1.1662375E-3,4.4733793E-3,-5.109161E-4,-3.9639166E-3,-8.1309554E-4,9.898475E-4,-2.2706974E-5,-2.1442199E-4,2.5298044E-3,7.705391E-3,3.6295684E-4,3.7918282E-3,5.6333444E-4,1.0001628E-4,6.0362957E-4,1.1149775E-3,-5.456315E-4,4.7048012E-4,1.678548E-4,-1.0676625E-3],"categories":[],"categories_nodes":[],"categories_segments":[],"categories_sizes":[],"default_left":[0,0,0,0,0,0,0,0,0,0,0,0,0,0,0,0,0,0,0,0,0,0,0,0,0,0,0,0,0,0,0],"id":39,"left_children":[1,3,5,7,9,11,13,15,17,19,21,23,25,27,29,-1,-1,-1,-1,-1,-1,-1,-1,-1,-1,-1,-1,-1,-1,-1,-1],"loss_changes":[4.8613127E-2,8.550398E-2,8.102526E-2,1.9910391E-2,4.4634175E-2,4.4787183E-2,1.9550294E-2,1.05223656E-1,1.7293952E-2,1.0889053E-2,4.1097496E-2,1.9130142E-2,7.499002E-3,4.6597634E-2,4.3932278E-2,0E0,0E0,0E0,0E0,0E0,0E0,0E0,0E0,0E0,0E0,0E0,0E0,0E0,0E0,0E0,0E0],"parents":[2147483647,0,0,1,1,2,2,3,3,4,4,5,5,6,6,7,7,8,8,9,9,10,10,11,11,12,12,13,13,14,14],"right_children":[2,4,6,8,10,12,14,16,18,20,22,24,26,28,30,-1,-1,-1,-1,-1,-1,-1,-1,-1,-1,-1,-1,-1,-1,-1,-1],"split_conditions":[6.97E1,6E0,6E0,3.64E1,4.4E1,8.4E1,8.3E1,4E0,3E0,7E0,8E0,1E0,9.81E1,7E0,7E0,-8.1309554E-4,9.898475E-4,-2.2706974E-5,-2.1442199E-4,2.5298044E-3,7.705391E-3,3.6295684E-4,3.7918282E-3,5.6333444E-4,1.0001628E-4,6.0362957E-4,1.1149775E-3,-5.456315E-4,4.7048012E-4,1.678548E-4,-1.0676625E-3],"split_indices":[0,1,1,0,0,0,0,1,1,1,1,1,0,1,1,0,0,0,0,0,0,0,0,0,0,0,0,0,0,0,0],"split_type":[0,0,0,0,0,0,0,0,0,0,0,0,0,0,0,0,0,0,0,0,0,0,0,0,0,0,0,0,0,0,0],"sum_hessian":[7.9143E4,5.1865E4,2.7278E4,4.6897E4,4.968E3,2.0455E4,6.823E3,4.499E3,4.2398E4,1.78E2,4.79E3,1.4793E4,5.662E3,4.084E3,2.739E3,3.586E3,9.13E2,2.1937E4,2.0461E4,1.69E2,9E0,4.711E3,7.9E1,2.391E3,1.2402E4,4.918E3,7.44E2,2.199E3,1.885E3,1.049E3,1.69E3],"tree_param":{"num_deleted":"0","num_feature":"3","num_nodes":"31","size_leaf_vector":"1"}},{"base_weights":[-8.082164E-5,-5.071999E-4,1.3303612E-3,-6.789327E-4,5.1400047E-3,2.617679E-3,-2.1049764E-3,-6.1032904E-4,-8.315863E-3,2.6999315E-2,3.3196884E-3,5.0403154E-3,2.1335687E-3,-2.3415592E-3,4.451608E-3,-1.8567813E-4,-1.543191E-5,-2.8929939E-3,-5.2654673E-4,3.780383E-3,8.553612E-3,2.8812588E-4,2.2882714E-3,7.564117E-5,9.758011E-4,1.9766242E-4,5.552396E-4,-4.858848E-4,1.3126836E-4,3.2035524E-3,-1.357371E-3],"categories":[],"categories_nodes":[],"categories_segments":[],"categories_sizes":[],"default_left":[0,0,0,0,0,0,0,0,0,0,0,0,0,0,0,0,0,0,0,0,0,0,0,0,0,0,0,0,0,0,0],"id":40,"left_children":[1,3,5,7,9,11,13,15,17,19,21,23,25,27,29,-1,-1,-1,-1,-1,-1,-1,-1,-1,-1,-1,-1,-1,-1,-1,-1],"loss_changes":[4.7703266E-2,5.9050385E-2,8.135946E-2,3.0952916E-2,7.141454E-2,1.5683971E-2,7.789567E-3,1.8648839E-2,2.7663313E-2,6.0075894E-3,2.7685894E-2,1.4802698E-2,1.4264915E-2,1.39813535E-2,4.0134497E-2,0E0,0E0,0E0,0E0,0E0,0E0,0E0,0E0,0E0,0E0,0E0,0E0,0E0,0E0,0E0,0E0],"parents":[2147483647,0,0,1,1,2,2,3,3,4,4,5,5,6,6,7,7,8,8,9,9,10,10,11,11,12,12,13,13,14,14],"right_children":[2,4,6,8,10,12,14,16,18,20,22,24,26,28,30,-1,-1,-1,-1,-1,-1,-1,-1,-1,-1,-1,-1,-1,-1,-1,-1],"split_conditions":[7.52E1,7E0,6E0,7.48E1,5.59E1,1E0,9E0,5.57E1,2E0,8E0,8E0,7.84E1,8.58E1,9.09E1,8.9E1,-1.8567813E-4,-1.543191E-5,-2.8929939E-3,-5.2654673E-4,3.780383E-3,8.553612E-3,2.8812588E-4,2.2882714E-3,7.564117E-5,9.758011E-4,1.9766242E-4,5.552396E-4,-4.858848E-4,1.3126836E-4,3.2035524E-3,-1.357371E-3],"split_indices":[0,1,1,0,0,1,1,0,1,1,1,0,0,0,0,0,0,0,0,0,0,0,0,0,0,0,0,0,0,0,0],"split_type":[0,0,0,0,0,0,0,0,0,0,0,0,0,0,0,0,0,0,0,0,0,0,0,0,0,0,0,0,0,0,0],"sum_hessian":[7.9279E4,6.0884E4,1.8395E4,5.9088E4,1.796E3,1.3381E4,5.014E3,5.8563E4,5.25E2,1.37E2,1.659E3,2.227E3,1.1154E4,4.84E3,1.74E2,2.6183E4,3.238E4,1.59E2,3.66E2,1.31E2,6E0,1.486E3,1.73E2,5.44E2,1.683E3,7.338E3,3.816E3,3.784E3,1.056E3,7.7E1,9.7E1],"tree_param":{"num_deleted":"0","num_feature":"3","num_nodes":"31","size_leaf_vector":"1"}},{"base_weights":[5.9238823E-6,-3.9619525E-5,3.1398018E-3,4.754179E-4,-2.5726281E-4,4.1369908E-4,7.877087E-4,5.057106E-4,-1.0169119E-2,-8.851113E-4,-8.701352E-5,4.8093014E-5,2.0175928E-4,-6.2113965E-4,-2.526234E-3,-2.2603456E-4,2.8514926E-4,4.212805E-5,-3.3133387E-5],"categories":[],"categories_nodes":[],"categories_segments":[],"categories_sizes":[],"default_left":[0,0,0,0,0,0,0,0,0,0,0,0,0,0,0,0,0,0,0],"id":41,"left_children":[1,3,5,7,9,-1,-1,11,13,15,17,-1,-1,-1,-1,-1,-1,-1,-1],"loss_changes":[1.1328975E-2,8.770167E-3,9.021908E-4,7.499248E-3,5.878701E-3,0E0,0E0,3.6000991E-3,2.5849594E-3,2.0326925E-2,2.130896E-3,0E0,0E0,0E0,0E0,0E0,0E0,0E0,0E0],"parents":[2147483647,0,0,1,1,2,2,3,3,4,4,7,7,8,8,9,9,10,10],"right_children":[2,4,6,8,10,-1,-1,12,14,16,18,-1,-1,-1,-1,-1,-1,-1,-1],"split_conditions":[8E0,2E0,9E0,4E0,3E0,4.1369908E-4,7.877087E-4,2E0,1E0,2E0,4E0,4.8093014E-5,2.0175928E-4,-6.2113965E-4,-2.526234E-3,-2.2603456E-4,2.8514926E-4,4.212805E-5,-3.3133387E-5],"split_indices":[1,1,1,2,1,0,0,2,1,2,1,0,0,0,0,0,0,0,0],"split_type":[0,0,0,0,0,0,0,0,0,0,0,0,0,0,0,0,0,0,0],"sum_hessian":[7.9373E4,7.8237E4,1.136E3,2.324E4,5.4997E4,9.64E2,1.72E2,2.3175E4,6.5E1,1.1731E4,4.3266E4,1.8989E4,4.186E3,3.5E1,3E1,9.591E3,2.14E3,1.1544E4,3.1722E4],"tree_param":{"num_deleted":"0","num_feature":"3","num_nodes":"19","size_leaf_vector":"1"}},{"base_weights":[6.243616E-5,-9.4549527E-4,6.5321685E-4,-5.4333704E-3,1.47998E-3,1.7571246E-3,-1.1006607E-3,-9.729895E-3,-4.644092E-3,1.102883E-3,3.6372673E-3,-1.0465793E-3,3.0015046E-3,-2.9274413E-5,-1.2526605E-2,-1.1764453E-3,-1.6866354E-3,-5.581769E-4,-8.5240515E-4,-6.5705535E-5,4.0283034E-4,1.1256281E-3,-6.1752816E-4,-3.4793993E-4,-8.388656E-5,1.0888638E-3,4.357552E-4,2.6773842E-4,-3.1935849E-4,-1.6635406E-3,-4.1111726E-3],"categories":[],"categories_nodes":[],"categories_segments":[],"categories_sizes":[],"default_left":[0,0,0,0,0,0,0,0,0,0,0,0,0,0,0,0,0,0,0,0,0,0,0,0,0,0,0,0,0,0,0],"id":42,"left_children":[1,3,5,7,9,11,13,15,17,19,21,23,25,27,29,-1,-1,-1,-1,-1,-1,-1,-1,-1,-1,-1,-1,-1,-1,-1,-1],"loss_changes":[4.7200855E-2,3.188582E-1,9.675947E-2,3.4805685E-2,1.5465628E-2,1.0701038E-1,2.3632373E-1,4.4665933E-3,8.302882E-3,3.9479516E-2,8.485724E-2,5.8483426E-3,8.704022E-3,6.724385E-2,3.5070688E-2,0E0,0E0,0E0,0E0,0E0,0E0,0E0,0E0,0E0,0E0,0E0,0E0,0E0,0E0,0E0,0E0],"parents":[2147483647,0,0,1,1,2,2,3,3,4,4,5,5,6,6,7,7,8,8,9,9,10,10,11,11,12,12,13,13,14,14],"right_children":[2,4,6,8,10,12,14,16,18,20,22,24,26,28,30,-1,-1,-1,-1,-1,-1,-1,-1,-1,-1,-1,-1,-1,-1,-1,-1],"split_conditions":[5.74E1,1E0,1E0,3.85E1,5.46E1,6.8E1,8.11E1,3.24E1,5.12E1,2E0,2E0,6.06E1,6.85E1,6.69E1,9.3E1,-1.1764453E-3,-1.6866354E-3,-5.581769E-4,-8.5240515E-4,-6.5705535E-5,4.0283034E-4,1.1256281E-3,-6.1752816E-4,-3.4793993E-4,-8.388656E-5,1.0888638E-3,4.357552E-4,2.6773842E-4,-3.1935849E-4,-1.6635406E-3,-4.1111726E-3],"split_indices":[0,2,2,0,0,0,0,0,0,2,2,0,0,0,0,0,0,0,0,0,0,0,0,0,0,0,0,0,0,0,0],"split_type":[0,0,0,0,0,0,0,0,0,0,0,0,0,0,0,0,0,0,0,0,0,0,0,0,0,0,0,0,0,0,0],"sum_hessian":[7.9265E4,2.9291E4,4.9974E4,1.0276E4,1.9015E4,3.067E4,1.9304E4,1.593E3,8.683E3,1.6187E4,2.828E3,9.428E3,2.1242E4,1.765E4,1.654E3,7.12E2,8.81E2,4.6E3,4.083E3,8.202E3,7.985E3,1.887E3,9.41E2,2.609E3,6.819E3,4.69E2,2.0773E4,9.469E3,8.181E3,1.51E3,1.44E2],"tree_param":{"num_deleted":"0","num_feature":"3","num_nodes":"31","size_leaf_vector":"1"}},{"base_weights":[7.216017E-5,-1.7429623E-3,2.483049E-4,-4.292794E-3,1.6775444E-3,1.9518808E-4,3.6584386E-3,-1.1482591E-2,-3.8651652E-3,1.2224194E-3,1.9141853E-2,1.7177535E-4,1.1200827E-2,6.1517814E-3,-1.65431E-2,-1.5757023E-3,-1.9786349E-3,-1.884948E-4,-7.692919E-4,9.6749084E-4,-3.3654705E-5,5.6641013E-3,1.552428E-3,8.261087E-5,-5.010271E-5,3.664805E-3,-8.027697E-5,-2.1920354E-5,1.0622989E-3,-2.2766185E-3,-2.9256088E-3],"categories":[],"categories_nodes":[],"categories_segments":[],"categories_sizes":[],"default_left":[0,0,0,0,0,0,0,0,0,0,0,0,0,0,0,0,0,0,0,0,0,0,0,0,0,0,0,0,0,0,0],"id":43,"left_children":[1,3,5,7,9,11,13,15,17,19,21,23,25,27,29,-1,-1,-1,-1,-1,-1,-1,-1,-1,-1,-1,-1,-1,-1,-1,-1],"loss_changes":[2.5340496E-2,6.1155155E-2,1.3085594E-2,1.2306146E-2,2.3782186E-2,1.832861E-2,5.5911012E-2,2.373103E-4,1.2494318E-2,2.2085678E-2,1.2050616E-2,1.360717E-2,2.3460584E-2,5.7832673E-3,1.9729882E-4,0E0,0E0,0E0,0E0,0E0,0E0,0E0,0E0,0E0,0E0,0E0,0E0,0E0,0E0,0E0,0E0],"parents":[2147483647,0,0,1,1,2,2,3,3,4,4,5,5,6,6,7,7,8,8,9,9,10,10,11,11,12,12,13,13,14,14],"right_children":[2,4,6,8,10,12,14,16,18,20,22,24,26,28,30,-1,-1,-1,-1,-1,-1,-1,-1,-1,-1,-1,-1,-1,-1,-1,-1],"split_conditions":[4.02E1,3E0,9.81E1,1.79E1,6E0,9E0,8E0,2E0,1E0,2.94E1,3.59E1,4E0,8.54E1,1E0,9E0,-1.5757023E-3,-1.9786349E-3,-1.884948E-4,-7.692919E-4,9.6749084E-4,-3.3654705E-5,5.6641013E-3,1.552428E-3,8.261087E-5,-5.010271E-5,3.664805E-3,-8.027697E-5,-2.1920354E-5,1.0622989E-3,-2.2766185E-3,-2.9256088E-3],"split_indices":[0,1,0,0,1,1,1,1,1,0,0,1,0,1,1,0,0,0,0,0,0,0,0,0,0,0,0,0,0,0,0],"split_type":[0,0,0,0,0,0,0,0,0,0,0,0,0,0,0,0,0,0,0,0,0,0,0,0,0,0,0,0,0,0,0],"sum_hessian":[7.9255E4,7.01E3,7.2245E4,4.016E3,2.994E3,7.1138E4,1.107E3,2.24E2,3.792E3,2.919E3,7.5E1,7.0988E4,1.5E2,9.86E2,1.21E2,1.47E2,7.7E1,1.238E3,2.554E3,6.32E2,2.287E3,2.3E1,5.2E1,4.0582E4,3.0406E4,7E1,8E1,1.27E2,8.59E2,8.7E1,3.4E1],"tree_param":{"num_deleted":"0","num_feature":"3","num_nodes":"31","size_leaf_vector":"1"}},{"base_weights":[-4.8727612E-5,-8.3778956E-4,3.0211953E-4,-4.3529463E-3,9.515234E-4,7.059378E-4,-4.5791757E-3,-5.3758146E-3,-2.821826E-3,-5.430174E-4,2.503695E-3,5.302479E-3,6.369552E-4,-3.0542198E-3,-1.5070061E-2,-1.3037672E-3,-7.4571295E-4,-1.06463594E-4,-6.0797797E-4,-8.7037304E-4,3.6224627E-4,9.860293E-4,-1.6992039E-4,-8.69376E-4,2.4098367E-3,1.5364408E-4,-1.15829025E-5,-3.5750208E-4,-2.7135864E-3,-2.0514033E-3,-4.4206185E-3],"categories":[],"categories_nodes":[],"categories_segments":[],"categories_sizes":[],"default_left":[0,0,0,0,0,0,0,0,0,0,0,0,0,0,0,0,0,0,0,0,0,0,0,0,0,0,0,0,0,0,0],"id":44,"left_children":[1,3,5,7,9,11,13,15,17,19,21,23,25,27,29,-1,-1,-1,-1,-1,-1,-1,-1,-1,-1,-1,-1,-1,-1,-1,-1],"loss_changes":[2.1909935E-2,1.5321532E-1,1.07991055E-1,1.2853757E-2,3.7449628E-2,1.6040614E-2,6.6922195E-2,6.561011E-3,8.561287E-3,1.2797421E-1,1.1720815E-1,8.944343E-2,1.3790505E-2,3.683672E-2,1.0256879E-2,0E0,0E0,0E0,0E0,0E0,0E0,0E0,0E0,0E0,0E0,0E0,0E0,0E0,0E0,0E0,0E0],"parents":[2147483647,0,0,1,1,2,2,3,3,4,4,5,5,6,6,7,7,8,8,9,9,10,10,11,11,12,12,13,13,14,14],"right_children":[2,4,6,8,10,12,14,16,18,20,22,24,26,28,30,-1,-1,-1,-1,-1,-1,-1,-1,-1,-1,-1,-1,-1,-1,-1,-1],"split_conditions":[5.46E1,1E0,2E0,4.88E1,2E0,5.52E1,6.99E1,3.05E1,5.12E1,4.34E1,4.27E1,1E0,1E0,3E0,8.11E1,-1.3037672E-3,-7.4571295E-4,-1.06463594E-4,-6.0797797E-4,-8.7037304E-4,3.6224627E-4,9.860293E-4,-1.6992039E-4,-8.69376E-4,2.4098367E-3,1.5364408E-4,-1.15829025E-5,-3.5750208E-4,-2.7135864E-3,-2.0514033E-3,-4.4206185E-3],"split_indices":[0,2,2,0,2,0,0,0,0,0,0,2,2,2,0,0,0,0,0,0,0,0,0,0,0,0,0,0,0,0,0],"split_type":[0,0,0,0,0,0,0,0,0,0,0,0,0,0,0,0,0,0,0,0,0,0,0,0,0,0,0,0,0,0,0],"sum_hessian":[7.9141E4,2.4358E4,5.4783E4,8.216E3,1.6142E4,5.0598E4,4.185E3,4.924E3,3.292E3,8.224E3,7.918E3,7.47E2,4.9851E4,3.655E3,5.3E2,5.33E2,4.391E3,1.213E3,2.079E3,2.96E3,5.264E3,3.736E3,4.182E3,3.68E2,3.79E2,3.2321E4,1.753E4,3.5E3,1.55E2,4.85E2,4.5E1],"tree_param":{"num_deleted":"0","num_feature":"3","num_nodes":"31","size_leaf_vector":"1"}},{"base_weights":[-5.054603E-5,-3.6501183E-4,8.182732E-4,-1.9404633E-3,8.2120416E-4,2.5099632E-3,-4.681079E-3,-3.849696E-3,2.2665299E-4,1.3434347E-3,-1.1201319E-3,1.99239E-3,2.3866743E-3,-1.495169E-3,-1.0950834E-2,-1.640004E-3,-5.3195824E-4,-1.5652864E-4,1.09549896E-4,1.8529737E-4,1.0722779E-3,-1.4544872E-4,-6.7564757E-3,3.392887E-4,6.166594E-4,-1.0958792E-4,-1.7840472E-3,-1.4192194E-3,-3.3741922E-3],"categories":[],"categories_nodes":[],"categories_segments":[],"categories_sizes":[],"default_left":[0,0,0,0,0,0,0,0,0,0,0,0,0,0,0,0,0,0,0,0,0,0,0,0,0,0,0,0,0],"id":45,"left_children":[1,3,5,7,9,11,13,15,17,19,21,-1,23,25,27,-1,-1,-1,-1,-1,-1,-1,-1,-1,-1,-1,-1,-1,-1],"loss_changes":[2.164786E-2,1.0872427E-1,1.959092E-1,1.03393584E-1,3.3649344E-2,2.1356769E-2,9.893916E-2,2.8504461E-2,7.4891807E-3,1.640648E-2,4.645913E-2,0E0,3.4159943E-3,2.611665E-2,2.8482243E-2,0E0,0E0,0E0,0E0,0E0,0E0,0E0,0E0,0E0,0E0,0E0,0E0,0E0,0E0],"parents":[2147483647,0,0,1,1,2,2,3,3,4,4,5,5,6,6,7,7,8,8,9,9,10,10,12,12,13,13,14,14],"right_children":[2,4,6,8,10,12,14,16,18,20,22,-1,24,26,28,-1,-1,-1,-1,-1,-1,-1,-1,-1,-1,-1,-1,-1,-1],"split_conditions":[7.34E1,1E0,1E0,6.09E1,6.45E1,7.36E1,8.11E1,3.05E1,6.47E1,6.4E1,3E0,1.99239E-3,9.81E1,2E0,9.14E1,-1.640004E-3,-5.3195824E-4,-1.5652864E-4,1.09549896E-4,1.8529737E-4,1.0722779E-3,-1.4544872E-4,-6.7564757E-3,3.392887E-4,6.166594E-4,-1.0958792E-4,-1.7840472E-3,-1.4192194E-3,-3.3741922E-3],"split_indices":[0,2,2,0,0,0,0,0,0,0,2,0,0,2,0,0,0,0,0,0,0,0,0,0,0,0,0,0,0],"split_type":[0,0,0,0,0,0,0,0,0,0,0,0,0,0,0,0,0,0,0,0,0,0,0,0,0,0,0,0,0],"sum_hessian":[7.9232E4,5.8176E4,2.1056E4,2.4988E4,3.3188E4,1.6103E4,4.953E3,1.3284E4,1.1704E4,2.6153E4,7.035E3,1.81E2,1.5922E4,3.285E3,1.668E3,5.44E2,1.274E4,3.323E3,8.381E3,2.5676E4,4.77E2,7.012E3,2.3E1,1.485E4,1.072E3,3.061E3,2.24E2,1.479E3,1.89E2],"tree_param":{"num_deleted":"0","num_feature":"3","num_nodes":"29","size_leaf_vector":"1"}},{"base_weights":[-4.530927E-5,-5.7088194E-4,2.6118287E-4,-3.5333207E-3,1.0395237E-3,5.417919E-4,-3.7816726E-3,-2.7157478E-3,-6.0452595E-3,1.048928E-3,-6.547248E-3,1.0144148E-3,-3.6429157E-4,1.0265396E-3,-7.038177E-3,-5.535062E-4,-6.864396E-5,-1.5343557E-3,-8.289872E-4,-7.091392E-5,1.849965E-4,-1.1760464E-4,2.6209734E-4,1.5105322E-4,-1.0507366E-3,2.607939E-3,3.4296107E-5,-9.6938835E-4,-4.4315024E-3],"categories":[],"categories_nodes":[],"categories_segments":[],"categories_sizes":[],"default_left":[0,0,0,0,0,0,0,0,0,0,0,0,0,0,0,0,0,0,0,0,0,0,0,0,0,0,0,0,0],"id":46,"left_children":[1,3,5,7,9,11,13,15,17,19,-1,21,23,25,27,-1,-1,-1,-1,-1,-1,-1,-1,-1,-1,-1,-1,-1,-1],"loss_changes":[1.2757672E-2,1.3918012E-1,5.6754634E-2,2.1083236E-2,7.988604E-3,2.0033242E-2,5.0848644E-2,1.705547E-2,5.4162964E-3,5.3025484E-3,0E0,4.0524483E-2,1.4604586E-1,1.712209E-2,2.4887465E-2,0E0,0E0,0E0,0E0,0E0,0E0,0E0,0E0,0E0,0E0,0E0,0E0,0E0,0E0],"parents":[2147483647,0,0,1,1,2,2,3,3,4,4,5,5,6,6,7,7,8,8,9,9,11,11,12,12,13,13,14,14],"right_children":[2,4,6,8,10,12,14,16,18,20,-1,22,24,26,28,-1,-1,-1,-1,-1,-1,-1,-1,-1,-1,-1,-1,-1,-1],"split_conditions":[5.74E1,1E0,2E0,5.38E1,5E0,1E0,6.16E1,4.98E1,5.42E1,3.24E1,-6.547248E-3,6.75E1,7.75E1,5.76E1,3E0,-5.535062E-4,-6.864396E-5,-1.5343557E-3,-8.289872E-4,-7.091392E-5,1.849965E-4,-1.1760464E-4,2.6209734E-4,1.5105322E-4,-1.0507366E-3,2.607939E-3,3.4296107E-5,-9.6938835E-4,-4.4315024E-3],"split_indices":[0,2,2,0,2,2,0,0,0,0,0,0,0,0,2,0,0,0,0,0,0,0,0,0,0,0,0,0,0],"split_type":[0,0,0,0,0,0,0,0,0,0,0,0,0,0,0,0,0,0,0,0,0,0,0,0,0,0,0,0,0],"sum_hessian":[7.9197E4,2.9172E4,5.0025E4,1.0273E4,1.8899E4,4.6779E4,3.246E3,7.752E3,2.521E3,1.8896E4,3E0,3.0743E4,1.6036E4,1.311E3,1.935E3,5.415E3,2.337E3,2.76E2,2.245E3,2.042E3,1.6854E4,8.901E3,2.1842E4,1.3292E4,2.744E3,6E1,1.251E3,1.888E3,4.7E1],"tree_param":{"num_deleted":"0","num_feature":"3","num_nodes":"29","size_leaf_vector":"1"}},{"base_weights":[3.644874E-5,-6.332228E-3,6.110902E-5,-1.4354656E-2,1.3081098E-2,4.07725E-6,1.7308709E-3,-1.7116558E-2,-1.4259114E-3,2.9395458E-3,6.586702E-4,-4.0797994E-4,4.2142006E-4,3.023163E-3,-1.9333826E-2,-2.0710842E-3,-3.1700118E-3,6.141586E-4,-5.0877132E-3,-4.623549E-4,1.3078487E-4,1.3743438E-4,-7.9969637E-4,7.022573E-4,3.792694E-4,-3.591222E-3,-2.532844E-3],"categories":[],"categories_nodes":[],"categories_segments":[],"categories_sizes":[],"default_left":[0,0,0,0,0,0,0,0,0,0,0,0,0,0,0,0,0,0,0,0,0,0,0,0,0,0,0],"id":47,"left_children":[1,3,5,7,9,11,13,15,-1,-1,17,19,21,23,25,-1,-1,-1,-1,-1,-1,-1,-1,-1,-1,-1,-1],"loss_changes":[1.245943E-2,4.7844835E-2,7.5255022E-3,2.7432032E-3,7.2719594E-3,1.3141364E-2,7.1107194E-2,1.5293583E-3,0E0,0E0,3.9403476E-3,1.3161966E-1,1.0807237E-1,2.0065587E-3,1.2990795E-3,0E0,0E0,0E0,0E0,0E0,0E0,0E0,0E0,0E0,0E0,0E0,0E0],"parents":[2147483647,0,0,1,1,2,2,3,3,4,4,5,5,6,6,7,7,10,10,11,11,12,12,13,13,14,14],"right_children":[2,4,6,8,10,12,14,16,-1,-1,18,20,22,24,26,-1,-1,-1,-1,-1,-1,-1,-1,-1,-1,-1,-1],"split_conditions":[1.79E1,3E0,9.3E1,2E0,4E0,1E0,1E0,1E0,-1.4259114E-3,2.9395458E-3,5E0,6.01E1,7.68E1,9.46E1,9.46E1,-2.0710842E-3,-3.1700118E-3,6.141586E-4,-5.0877132E-3,-4.623549E-4,1.3078487E-4,1.3743438E-4,-7.9969637E-4,7.022573E-4,3.792694E-4,-3.591222E-3,-2.532844E-3],"split_indices":[0,2,0,2,2,2,2,2,0,0,2,0,0,0,0,0,0,0,0,0,0,0,0,0,0,0,0],"split_type":[0,0,0,0,0,0,0,0,0,0,0,0,0,0,0,0,0,0,0,0,0,0,0,0,0,0,0],"sum_hessian":[7.9329E4,3.05E2,7.9024E4,2.16E2,8.9E1,7.6415E4,2.609E3,1.36E2,8E1,5.8E1,3.1E1,3.8451E4,3.7964E4,2.459E3,1.5E2,7.7E1,5.9E1,2.9E1,2E0,1.2445E4,2.6006E4,3.4958E4,3.006E3,5.63E2,1.896E3,4.9E1,1.01E2],"tree_param":{"num_deleted":"0","num_feature":"3","num_nodes":"27","size_leaf_vector":"1"}},{"base_weights":[-4.221365E-5,-3.323785E-5,-5.903952E-3,9.0076166E-5,-2.0777152E-4,-7.6858387E-3,3.6958436E-4,-1.18334305E-4,7.253012E-4,-3.1242576E-5,-1.5981559E-3,-5.098621E-4,-1.0044029E-2,-4.298776E-5,9.67698E-5,3.1625803E-4,-9.00568E-5,-6.575221E-5,1.01510974E-4,-8.900358E-5,-4.0915588E-4,-1.4080392E-3,-3.041418E-3],"categories":[],"categories_nodes":[],"categories_segments":[],"categories_sizes":[],"default_left":[0,0,0,0,0,0,0,0,0,0,0,0,0,0,0,0,0,0,0,0,0,0,0],"id":48,"left_children":[1,3,5,7,9,11,-1,13,15,17,19,-1,21,-1,-1,-1,-1,-1,-1,-1,-1,-1,-1],"loss_changes":[4.1639213E-3,1.7008301E-3,1.8231147E-3,6.130689E-3,8.030356E-3,9.76759E-4,0E0,4.4792397E-3,2.097683E-2,8.368288E-3,4.1818824E-3,0E0,2.3997482E-4,0E0,0E0,0E0,0E0,0E0,0E0,0E0,0E0,0E0,0E0],"parents":[2147483647,0,0,1,1,2,2,3,3,4,4,5,5,7,7,8,8,9,9,10,10,12,12],"right_children":[2,4,6,8,10,12,-1,14,16,18,20,-1,22,-1,-1,-1,-1,-1,-1,-1,-1,-1,-1],"split_conditions":[4E0,4E0,3E0,3E0,2E0,1E0,3.6958436E-4,2E0,1E0,1E0,5E0,-5.098621E-4,5E0,-4.298776E-5,9.67698E-5,3.1625803E-4,-9.00568E-5,-6.575221E-5,1.01510974E-4,-8.900358E-5,-4.0915588E-4,-1.4080392E-3,-3.041418E-3],"split_indices":[2,1,1,1,2,1,0,2,2,2,1,0,2,0,0,0,0,0,0,0,0,0,0],"split_type":[0,0,0,0,0,0,0,0,0,0,0,0,0,0,0,0,0,0,0,0,0,0,0],"sum_hessian":[7.9144E4,7.9024E4,1.2E2,4.6307E4,3.2717E4,9.9E1,2.1E1,3.4868E4,1.1439E4,2.9032E4,3.685E3,3.6E1,6.3E1,2.8572E4,6.296E3,5.598E3,5.841E3,1.8433E4,1.0599E4,1.951E3,1.734E3,6.1E1,2E0],"tree_param":{"num_deleted":"0","num_feature":"3","num_nodes":"23","size_leaf_vector":"1"}},{"base_weights":[-1.4698597E-4,-1.3452835E-4,-8.557282E-3,-3.485384E-4,9.546333E-5,-7.5913398E-3,-5.0920984E-3,1.4588838E-4,-5.5581256E-4,3.7140117E-4,-1.5273133E-4,-9.337155E-3,-1.9849576E-4,-2.710139E-4,-4.8144073E-5,-3.9982697E-5,1.0279191E-4,1.3781196E-5,-1.15406176E-4,-8.4623107E-4,-2.5183079E-3],"categories":[],"categories_nodes":[],"categories_segments":[],"categories_sizes":[],"default_left":[0,0,0,0,0,0,0,0,0,0,0,0,0,0,0,0,0,0,0,0,0],"id":49,"left_children":[1,3,5,7,9,11,-1,-1,13,15,17,19,-1,-1,-1,-1,-1,-1,-1,-1,-1],"loss_changes":[8.288009E-3,3.8884552E-3,2.6117563E-3,1.1206442E-2,2.6079467E-3,1.235127E-3,0E0,0E0,1.0391564E-2,3.6108985E-3,3.0240025E-3,2.3561777E-3,0E0,0E0,0E0,0E0,0E0,0E0,0E0,0E0,0E0],"parents":[2147483647,0,0,1,1,2,2,3,3,4,4,5,5,8,8,9,9,10,10,11,11],"right_children":[2,4,6,8,10,12,-1,-1,14,16,18,20,-1,-1,-1,-1,-1,-1,-1,-1,-1],"split_conditions":[4E0,1E0,5E0,1E0,3E0,3E0,-5.0920984E-3,1.4588838E-4,2E0,1E0,2E0,2E0,-1.9849576E-4,-2.710139E-4,-4.8144073E-5,-3.9982697E-5,1.0279191E-4,1.3781196E-5,-1.15406176E-4,-8.4623107E-4,-2.5183079E-3],"split_indices":[2,2,2,1,1,1,0,0,1,1,2,1,0,0,0,0,0,0,0,0,0],"split_type":[0,0,0,0,0,0,0,0,0,0,0,0,0,0,0,0,0,0,0,0,0],"sum_hessian":[7.9115E4,7.8999E4,1.16E2,4.0921E4,3.8078E4,1.13E2,3E0,5.549E3,3.5372E4,1.8031E4,2.0047E4,8.8E1,2.5E1,5.59E3,2.9782E4,5.946E3,1.2085E4,1.4354E4,5.693E3,6E1,2.8E1],"tree_param":{"num_deleted":"0","num_feature":"3","num_nodes":"21","size_leaf_vector":"1"}},{"base_weights":[2.0194137E-4,6.545614E-5,1.0855469E-3,-5.8378046E-4,6.3228E-4,2.4176477E-3,-6.511737E-3,-1.9059698E-3,8.513167E-4,1.2023287E-3,-1.6987739E-3,3.4037936E-3,1.5970711E-3,-2.4083904E-3,-1.061723E-2,-7.5806613E-4,-2.3600594E-4,9.45387E-4,1.0200551E-4,1.7097073E-4,1.102833E-3,-1.5729545E-4,-1.2014903E-3,3.7268104E-4,9.273918E-4,-4.2864383E-4,3.2352796E-4,-2.5595128E-4,-2.7755704E-3,-1.4081013E-3,-2.2672303E-3],"categories":[],"categories_nodes":[],"categories_segments":[],"categories_sizes":[],"default_left":[0,0,0,0,0,0,0,0,0,0,0,0,0,0,0,0,0,0,0,0,0,0,0,0,0,0,0,0,0,0,0],"id":50,"left_children":[1,3,5,7,9,11,13,15,17,19,21,23,25,27,29,-1,-1,-1,-1,-1,-1,-1,-1,-1,-1,-1,-1,-1,-1,-1,-1],"loss_changes":[9.550775E-3,2.5245361E-2,1.0725096E-1,6.0675126E-2,4.866987E-2,7.2903857E-3,2.6608363E-2,1.7416436E-2,1.4312952E-2,1.1307508E-2,2.952178E-2,1.044251E-2,1.2282443E-2,8.917837E-3,4.2280704E-3,0E0,0E0,0E0,0E0,0E0,0E0,0E0,0E0,0E0,0E0,0E0,0E0,0E0,0E0,0E0,0E0],"parents":[2147483647,0,0,1,1,2,2,3,3,4,4,5,5,6,6,7,7,8,8,9,9,10,10,11,11,12,12,13,13,14,14],"right_children":[2,4,6,8,10,12,14,16,18,20,22,24,26,28,30,-1,-1,-1,-1,-1,-1,-1,-1,-1,-1,-1,-1,-1,-1,-1,-1],"split_conditions":[8.14E1,1E0,1E0,6.48E1,6.82E1,8.76E1,8.51E1,3.85E1,6.53E1,6.78E1,2E0,8.58E1,8.86E1,2E0,9.22E1,-7.5806613E-4,-2.3600594E-4,9.45387E-4,1.0200551E-4,1.7097073E-4,1.102833E-3,-1.5729545E-4,-1.2014903E-3,3.7268104E-4,9.273918E-4,-4.2864383E-4,3.2352796E-4,-2.5595128E-4,-2.7755704E-3,-1.4081013E-3,-2.2672303E-3],"split_indices":[0,2,2,0,0,0,0,0,0,0,2,0,0,2,0,0,0,0,0,0,0,0,0,0,0,0,0,0,0,0,0],"split_type":[0,0,0,0,0,0,0,0,0,0,0,0,0,0,0,0,0,0,0,0,0,0,0,0,0,0,0,0,0,0,0],"sum_hessian":[7.9194E4,6.8599E4,1.0595E4,3.1975E4,3.6624E4,9.015E3,1.58E3,1.6642E4,1.5333E4,2.9428E4,7.196E3,4.093E3,4.922E3,7.91E2,7.89E2,1.589E3,1.5053E4,4.66E2,1.4867E4,2.9133E4,2.95E2,6.525E3,6.71E2,3.077E3,1.016E3,5.49E2,4.373E3,7.59E2,3.2E1,6.22E2,1.67E2],"tree_param":{"num_deleted":"0","num_feature":"3","num_nodes":"31","size_leaf_vector":"1"}},{"base_weights":[1.1440356E-4,-5.3861123E-3,1.357187E-4,-8.173451E-3,3.9405767E-3,4.0261215E-4,-2.3979934E-4,-9.996856E-3,-1.8903562E-4,-1.7128483E-3,1.0669418E-3,4.125825E-3,-7.244335E-4,-2.1236213E-3,-1.2061126E-3,-8.944221E-5,-4.2521794E-4,5.848457E-5,2.5657553E-4,4.808891E-4,2.2527832E-3,4.8115133E-5,-1.9556592E-4],"categories":[],"categories_nodes":[],"categories_segments":[],"categories_sizes":[],"default_left":[0,0,0,0,0,0,0,0,0,0,0,0,0,0,0,0,0,0,0,0,0,0,0],"id":51,"left_children":[1,3,5,7,-1,9,11,13,-1,15,17,19,21,-1,-1,-1,-1,-1,-1,-1,-1,-1,-1],"loss_changes":[9.294097E-3,2.721546E-2,7.913729E-3,3.5421774E-3,0E0,6.486776E-2,6.940954E-2,1.7010719E-3,0E0,1.381705E-2,1.5304435E-2,3.2798067E-2,1.7880391E-2,0E0,0E0,0E0,0E0,0E0,0E0,0E0,0E0,0E0,0E0],"parents":[2147483647,0,0,1,1,2,2,3,3,5,5,6,6,7,7,9,9,10,10,11,11,12,12],"right_children":[2,4,6,8,-1,10,12,14,-1,16,18,20,22,-1,-1,-1,-1,-1,-1,-1,-1,-1,-1],"split_conditions":[1.79E1,4E0,4E0,3E0,3.9405767E-3,4.88E1,4.58E1,1E0,-1.8903562E-4,2E0,6.55E1,6E0,6.29E1,-2.1236213E-3,-1.2061126E-3,-8.944221E-5,-4.2521794E-4,5.848457E-5,2.5657553E-4,4.808891E-4,2.2527832E-3,4.8115133E-5,-1.9556592E-4],"split_indices":[0,1,1,1,0,0,0,1,0,1,0,1,0,0,0,0,0,0,0,0,0,0,0],"split_type":[0,0,0,0,0,0,0,0,0,0,0,0,0,0,0,0,0,0,0,0,0,0,0],"sum_hessian":[7.9264E4,3.05E2,7.8959E4,2.81E2,2.4E1,4.6155E4,3.2804E4,2.22E2,5.9E1,1.103E4,3.5125E4,3.277E3,2.9527E4,6.9E1,1.53E2,5.529E3,5.501E3,1.7118E4,1.8007E4,3.023E3,2.54E2,1.053E4,1.8997E4],"tree_param":{"num_deleted":"0","num_feature":"3","num_nodes":"23","size_leaf_vector":"1"}},{"base_weights":[1.229572E-4,6.545986E-4,3.2829677E-5,2.1490434E-4,-6.0648526E-5,-8.911662E-5,2.9317898E-4,-4.566324E-5,3.9787547E-4,-2.264677E-4,5.323568E-4,4.7722802E-4,-1.8457171E-3,6.923795E-5,-5.177201E-4,-1.6274178E-5,-8.881999E-5,1.14305425E-4,-6.791331E-5,1.1999712E-4,-8.8864545E-5,-2.8855124E-4,-2.4090914E-4],"categories":[],"categories_nodes":[],"categories_segments":[],"categories_sizes":[],"default_left":[0,0,0,0,0,0,0,0,0,0,0,0,0,0,0,0,0,0,0,0,0,0,0],"id":52,"left_children":[1,3,5,-1,7,9,11,-1,13,15,17,19,21,-1,-1,-1,-1,-1,-1,-1,-1,-1,-1],"loss_changes":[3.802075E-3,6.401314E-3,2.1541393E-3,0E0,6.701053E-4,3.9443523E-3,8.520903E-3,0E0,5.1194767E-4,1.6324777E-3,1.8927832E-3,6.880665E-3,2.8952025E-5,0E0,0E0,0E0,0E0,0E0,0E0,0E0,0E0,0E0,0E0],"parents":[2147483647,0,0,1,1,2,2,4,4,5,5,6,6,8,8,9,9,10,10,11,11,12,12],"right_children":[2,4,6,-1,8,10,12,-1,14,16,18,20,22,-1,-1,-1,-1,-1,-1,-1,-1,-1,-1],"split_conditions":[1E0,1E0,5E0,2.1490434E-4,2E0,2E0,2E0,-4.566324E-5,4E0,4E0,3E0,7E0,6E0,6.923795E-5,-5.177201E-4,-1.6274178E-5,-8.881999E-5,1.14305425E-4,-6.791331E-5,1.1999712E-4,-8.8864545E-5,-2.8855124E-4,-2.4090914E-4],"split_indices":[1,2,1,0,2,2,2,0,2,1,2,1,1,0,0,0,0,0,0,0,0,0,0],"split_type":[0,0,0,0,0,0,0,0,0,0,0,0,0,0,0,0,0,0,0,0,0,0,0],"sum_hessian":[7.9349E4,1.1501E4,6.7848E4,5.508E3,5.993E3,4.6206E4,2.1642E4,3.913E3,2.08E3,3.7843E4,8.363E3,1.9928E4,1.714E3,2.047E3,3.3E1,2.8613E4,9.23E3,6.782E3,1.581E3,1.5309E4,4.619E3,1.288E3,4.26E2],"tree_param":{"num_deleted":"0","num_feature":"3","num_nodes":"23","size_leaf_vector":"1"}},{"base_weights":[-7.744797E-6,-4.1623055E-3,8.734759E-6,-6.450812E-3,3.2021087E-3,-4.1400253E-5,7.9217437E-4,-7.4471105E-3,-3.9317843E-4,