{"learner":{"attributes":{"scikit_learn":"{\"_estimator_type\": \"regressor\"}"},"feature_names":["reading_time","idle_time","total_scrolls","max_scroll_depth"],"feature_types":["int","int","int","float"],"gradient_booster":{"model":{"cats":{"enc":[],"feature_segments":[],"sorted_idx":[]},"gbtree_model_param":{"num_parallel_tree":"1","num_trees":"800"},"iteration_indptr":[0,1,2,3,4,5,6,7,8,9,10,11,12,13,14,15,16,17,18,19,20,21,22,23,24,25,26,27,28,29,30,31,32,33,34,35,36,37,38,39,40,41,42,43,44,45,46,47,48,49,50,51,52,53,54,55,56,57,58,59,60,61,62,63,64,65,66,67,68,69,70,71,72,73,74,75,76,77,78,79,80,81,82,83,84,85,86,87,88,89,90,91,92,93,94,95,96,97,98,99,100,101,102,103,104,105,106,107,108,109,110,111,112,113,114,115,116,117,118,119,120,121,122,123,124,125,126,127,128,129,130,131,132,133,134,135,136,137,138,139,140,141,142,143,144,145,146,147,148,149,150,151,152,153,154,155,156,157,158,159,160,161,162,163,164,165,166,167,168,169,170,171,172,173,174,175,176,177,178,179,180,181,182,183,184,185,186,187,188,189,190,191,192,193,194,195,196,197,198,199,200,201,202,203,204,205,206,207,208,209,210,211,212,213,214,215,216,217,218,219,220,221,222,223,224,225,226,227,228,229,230,231,232,233,234,235,236,237,238,239,240,241,242,243,244,245,246,247,248,249,250,251,252,253,254,255,256,257,258,259,260,261,262,263,264,265,266,267,268,269,270,271,272,273,274,275,276,277,278,279,280,281,282,283,284,285,286,287,288,289,290,291,292,293,294,295,296,297,298,299,300,301,302,303,304,305,306,307,308,309,310,311,312,313,314,315,316,317,318,319,320,321,322,323,324,325,326,327,328,329,330,331,332,333,334,335,336,337,338,339,340,341,342,343,344,345,346,347,348,349,350,351,352,353,354,355,356,357,358,359,360,361,362,363,364,365,366,367,368,369,370,371,372,373,374,375,376,377,378,379,380,381,382,383,384,385,386,387,388,389,390,391,392,393,394,395,396,397,398,399,400,401,402,403,404,405,406,407,408,409,410,411,412,413,414,415,416,417,418,419,420,421,422,423,424,425,426,427,428,429,430,431,432,433,434,435,436,437,438,439,440,441,442,443,444,445,446,447,448,449,450,451,452,453,454,455,456,457,458,459,460,461,462,463,464,465,466,467,468,469,470,471,472,473,474,475,476,477,478,479,480,481,482,483,484,485,486,487,488,489,490,491,492,493,494,495,496,497,498,499,500,501,502,503,504,505,506,507,508,509,510,511,512,513,514,515,516,517,518,519,520,521,522,523,524,525,526,527,528,529,530,531,532,533,534,535,536,537,538,539,540,541,542,543,544,545,546,547,548,549,550,551,552,553,554,555,556,557,558,559,560,561,562,563,564,565,566,567,568,569,570,571,572,573,574,575,576,577,578,579,580,581,582,583,584,585,586,587,588,589,590,591,592,593,594,595,596,597,598,599,600,601,602,603,604,605,606,607,608,609,610,611,612,613,614,615,616,617,618,619,620,621,622,623,624,625,626,627,628,629,630,631,632,633,634,635,636,637,638,639,640,641,642,643,644,645,646,647,648,649,650,651,652,653,654,655,656,657,658,659,660,661,662,663,664,665,666,667,668,669,670,671,672,673,674,675,676,677,678,679,680,681,682,683,684,685,686,687,688,689,690,691,692,693,694,695,696,697,698,699,700,701,702,703,704,705,706,707,708,709,710,711,712,713,714,715,716,717,718,719,720,721,722,723,724,725,726,727,728,729,730,731,732,733,734,735,736,737,738,739,740,741,742,743,744,745,746,747,748,749,750,751,752,753,754,755,756,757,758,759,760,761,762,763,764,765,766,767,768,769,770,771,772,773,774,775,776,777,778,779,780,781,782,783,784,785,786,787,788,789,790,791,792,793,794,795,796,797,798,799,800],"tree_info":[0,0,0,0,0,0,0,0,0,0,0,0,0,0,0,0,0,0,0,0,0,0,0,0,0,0,0,0,0,0,0,0,0,0,0,0,0,0,0,0,0,0,0,0,0,0,0,0,0,0,0,0,0,0,0,0,0,0,0,0,0,0,0,0,0,0,0,0,0,0,0,0,0,0,0,0,0,0,0,0,0,0,0,0,0,0,0,0,0,0,0,0,0,0,0,0,0,0,0,0,0,0,0,0,0,0,0,0,0,0,0,0,0,0,0,0,0,0,0,0,0,0,0,0,0,0,0,0,0,0,0,0,0,0,0,0,0,0,0,0,0,0,0,0,0,0,0,0,0,0,0,0,0,0,0,0,0,0,0,0,0,0,0,0,0,0,0,0,0,0,0,0,0,0,0,0,0,0,0,0,0,0,0,0,0,0,0,0,0,0,0,0,0,0,0,0,0,0,0,0,0,0,0,0,0,0,0,0,0,0,0,0,0,0,0,0,0,0,0,0,0,0,0,0,0,0,0,0,0,0,0,0,0,0,0,0,0,0,0,0,0,0,0,0,0,0,0,0,0,0,0,0,0,0,0,0,0,0,0,0,0,0,0,0,0,0,0,0,0,0,0,0,0,0,0,0,0,0,0,0,0,0,0,0,0,0,0,0,0,0,0,0,0,0,0,0,0,0,0,0,0,0,0,0,0,0,0,0,0,0,0,0,0,0,0,0,0,0,0,0,0,0,0,0,0,0,0,0,0,0,0,0,0,0,0,0,0,0,0,0,0,0,0,0,0,0,0,0,0,0,0,0,0,0,0,0,0,0,0,0,0,0,0,0,0,0,0,0,0,0,0,0,0,0,0,0,0,0,0,0,0,0,0,0,0,0,0,0,0,0,0,0,0,0,0,0,0,0,0,0,0,0,0,0,0,0,0,0,0,0,0,0,0,0,0,0,0,0,0,0,0,0,0,0,0,0,0,0,0,0,0,0,0,0,0,0,0,0,0,0,0,0,0,0,0,0,0,0,0,0,0,0,0,0,0,0,0,0,0,0,0,0,0,0,0,0,0,0,0,0,0,0,0,0,0,0,0,0,0,0,0,0,0,0,0,0,0,0,0,0,0,0,0,0,0,0,0,0,0,0,0,0,0,0,0,0,0,0,0,0,0,0,0,0,0,0,0,0,0,0,0,0,0,0,0,0,0,0,0,0,0,0,0,0,0,0,0,0,0,0,0,0,0,0,0,0,0,0,0,0,0,0,0,0,0,0,0,0,0,0,0,0,0,0,0,0,0,0,0,0,0,0,0,0,0,0,0,0,0,0,0,0,0,0,0,0,0,0,0,0,0,0,0,0,0,0,0,0,0,0,0,0,0,0,0,0,0,0,0,0,0,0,0,0,0,0,0,0,0,0,0,0,0,0,0,0,0,0,0,0,0,0,0,0,0,0,0,0,0,0,0,0,0,0,0,0,0,0,0,0,0,0,0,0,0,0,0,0,0,0,0,0,0,0,0,0,0,0,0,0,0,0,0,0,0,0,0,0,0,0,0,0,0,0,0,0,0,0,0,0,0,0,0,0,0,0,0,0,0,0,0,0,0,0,0,0,0,0,0,0,0,0,0,0,0,0,0,0,0,0,0,0,0,0,0,0,0,0,0,0,0,0,0,0,0,0,0,0,0,0,0,0,0,0,0,0,0,0,0,0,0,0,0,0,0,0,0,0,0,0,0,0,0,0,0,0,0,0,0,0,0,0,0,0,0,0,0,0,0,0,0,0,0,0,0,0,0,0,0,0,0,0,0,0,0,0,0,0,0,0],"trees":[{"base_weights":[1.0458861E-3,-1.5964745E-1,1.2908858E-1,-2.695207E-1,-8.425261E-2,6.916527E-2,2.55165E-1,-4.262914E-2,-2.6580716E-2,-1.6087474E-2,-6.824521E-3,2.0070437E-3,1.3313248E-2,2.7282273E-2,4.5341764E-2],"categories":[],"categories_nodes":[],"categories_segments":[],"categories_sizes":[],"default_left":[0,0,0,0,0,0,0,0,0,0,0,0,0,0,0],"id":0,"left_children":[1,3,5,7,9,11,13,-1,-1,-1,-1,-1,-1,-1,-1],"loss_changes":[7.4273834E2,1.3258554E2,1.5176065E2,2.467871E1,1.1902931E1,2.432331E1,2.7374634E1,0E0,0E0,0E0,0E0,0E0,0E0,0E0,0E0],"parents":[2147483647,0,0,1,1,2,2,3,3,4,4,5,5,6,6],"right_children":[2,4,6,8,10,12,14,-1,-1,-1,-1,-1,-1,-1,-1],"split_conditions":[8E0,6E0,1.1E1,5E0,7E0,9E0,1.3E1,-4.262914E-2,-2.6580716E-2,-1.6087474E-2,-6.824521E-3,2.0070437E-3,1.3313248E-2,2.7282273E-2,4.5341764E-2],"split_indices":[2,2,2,2,2,2,2,0,0,0,0,0,0,0,0],"split_type":[0,0,0,0,0,0,0,0,0,0,0,0,0,0,0],"sum_hessian":[3.6096E4,1.6007E4,2.0089E4,6.513E3,9.494E3,1.3618E4,6.471E3,3.43E3,3.083E3,4.23E3,5.264E3,5.206E3,8.412E3,4.363E3,2.108E3],"tree_param":{"num_deleted":"0","num_feature":"4","num_nodes":"15","size_leaf_vector":"1"}},{"base_weights":[-7.585093E-6,-1.3914356E-1,1.1219166E-1,-2.3299022E-1,-7.364369E-2,5.9481658E-2,2.2195709E-1,-3.679865E-2,-2.295536E-2,-1.4206781E-2,-5.8664377E-3,3.6143307E-3,1.3921197E-2,2.5462424E-2,4.5986984E-2],"categories":[],"categories_nodes":[],"categories_segments":[],"categories_sizes":[],"default_left":[0,0,0,0,0,0,0,0,0,0,0,0,0,0,0],"id":1,"left_children":[1,3,5,7,9,11,13,-1,-1,-1,-1,-1,-1,-1,-1],"loss_changes":[5.6399243E2,9.912076E1,1.1570151E2,1.8675812E1,9.65023E0,2.0375538E1,2.2240814E1,0E0,0E0,0E0,0E0,0E0,0E0,0E0,0E0],"parents":[2147483647,0,0,1,1,2,2,3,3,4,4,5,5,6,6],"right_children":[2,4,6,8,10,12,14,-1,-1,-1,-1,-1,-1,-1,-1],"split_conditions":[8E0,6E0,1.1E1,5E0,7E0,6.7E-1,1.4E1,-3.679865E-2,-2.295536E-2,-1.4206781E-2,-5.8664377E-3,3.6143307E-3,1.3921197E-2,2.5462424E-2,4.5986984E-2],"split_indices":[2,2,2,2,2,3,2,0,0,0,0,0,0,0,0],"split_type":[0,0,0,0,0,0,0,0,0,0,0,0,0,0,0],"sum_hessian":[3.6126E4,1.6127E4,1.9999E4,6.628E3,9.499E3,1.3512E4,6.487E3,3.509E3,3.119E3,4.221E3,5.278E3,8.114E3,5.398E3,5.417E3,1.07E3],"tree_param":{"num_deleted":"0","num_feature":"4","num_nodes":"15","size_leaf_vector":"1"}},{"base_weights":[3.5259957E-4,-1.21674E-1,9.757846E-2,-2.0318538E-1,-6.369286E-2,2.942646E-2,1.6282807E-1,-3.213977E-2,-2.0176297E-2,-1.2047208E-2,-5.185441E-3,-5.1972613E-4,7.5406954E-3,1.5700864E-2,3.027487E-2],"categories":[],"categories_nodes":[],"categories_segments":[],"categories_sizes":[],"default_left":[0,0,0,0,0,0,0,0,0,0,0,0,0,0,0],"id":2,"left_children":[1,3,5,7,9,11,13,-1,-1,-1,-1,-1,-1,-1,-1],"loss_changes":[4.2761923E2,7.552464E1,8.919986E1,1.400061E1,6.4398766E0,9.373913E0,3.0162354E1,0E0,0E0,0E0,0E0,0E0,0E0,0E0,0E0],"parents":[2147483647,0,0,1,1,2,2,3,3,4,4,5,5,6,6],"right_children":[2,4,6,8,10,12,14,-1,-1,-1,-1,-1,-1,-1,-1],"split_conditions":[8E0,6E0,1E1,5E0,7E0,6.2E-1,1.2E1,-3.213977E-2,-2.0176297E-2,-1.2047208E-2,-5.185441E-3,-5.1972613E-4,7.5406954E-3,1.5700864E-2,3.027487E-2],"split_indices":[2,2,2,2,2,3,2,0,0,0,0,0,0,0,0],"split_type":[0,0,0,0,0,0,0,0,0,0,0,0,0,0,0],"sum_hessian":[3.6041E4,1.5982E4,2.0059E4,6.642E3,9.34E3,9.812E3,1.0247E4,3.461E3,3.181E3,4.211E3,5.129E3,4.523E3,5.289E3,6.405E3,3.842E3],"tree_param":{"num_deleted":"0","num_feature":"4","num_nodes":"15","size_leaf_vector":"1"}},{"base_weights":[-9.362766E-4,-1.0592519E-1,8.456312E-2,-1.7802514E-1,-5.556443E-2,4.5277387E-2,1.6771924E-1,-2.794244E-2,-1.7633786E-2,-1.0742561E-2,-3.8417333E-3,4.1721202E-4,9.25085E-3,1.9002974E-2,3.5667982E-2],"categories":[],"categories_nodes":[],"categories_segments":[],"categories_sizes":[],"default_left":[0,0,0,0,0,0,0,0,0,0,0,0,0,0,0],"id":3,"left_children":[1,3,5,7,9,11,13,-1,-1,-1,-1,-1,-1,-1,-1],"loss_changes":[3.235665E2,5.873619E1,6.489491E1,1.03798065E1,6.706276E0,1.4692682E1,1.4604187E1,0E0,0E0,0E0,0E0,0E0,0E0,0E0,0E0],"parents":[2147483647,0,0,1,1,2,2,3,3,4,4,5,5,6,6],"right_children":[2,4,6,8,10,12,14,-1,-1,-1,-1,-1,-1,-1,-1],"split_conditions":[8E0,6E0,1.1E1,5E0,5.6E-1,9E0,1.4E1,-2.794244E-2,-1.7633786E-2,-1.0742561E-2,-3.8417333E-3,4.1721202E-4,9.25085E-3,1.9002974E-2,3.5667982E-2],"split_indices":[2,2,2,2,3,2,2,0,0,0,0,0,0,0,0],"split_type":[0,0,0,0,0,0,0,0,0,0,0,0,0,0,0],"sum_hessian":[3.6044E4,1.6178E4,1.9866E4,6.652E3,9.526E3,1.3493E4,6.373E3,3.553E3,3.099E3,4.667E3,4.859E3,5.14E3,8.353E3,5.304E3,1.069E3],"tree_param":{"num_deleted":"0","num_feature":"4","num_nodes":"15","size_leaf_vector":"1"}},{"base_weights":[2.9224672E-4,-9.168757E-2,7.441319E-2,-1.551406E-1,-4.776123E-2,2.2104694E-2,1.2415392E-1,-2.455989E-2,-1.5410565E-2,-9.475683E-3,-3.5631994E-3,-1.5452221E-3,5.811449E-3,1.2100694E-2,2.4357602E-2],"categories":[],"categories_nodes":[],"categories_segments":[],"categories_sizes":[],"default_left":[0,0,0,0,0,0,0,0,0,0,0,0,0,0,0],"id":4,"left_children":[1,3,5,7,9,11,13,-1,-1,-1,-1,-1,-1,-1,-1],"loss_changes":[2.4583691E2,4.4842377E1,5.1951256E1,8.115158E0,4.8615875E0,7.4777536E0,2.008522E1,0E0,0E0,0E0,0E0,0E0,0E0,0E0,0E0],"parents":[2147483647,0,0,1,1,2,2,3,3,4,4,5,5,6,6],"right_children":[2,4,6,8,10,12,14,-1,-1,-1,-1,-1,-1,-1,-1],"split_conditions":[8E0,6E0,1E1,5E0,7E0,6E-1,7.6E-1,-2.455989E-2,-1.5410565E-2,-9.475683E-3,-3.5631994E-3,-1.5452221E-3,5.811449E-3,1.2100694E-2,2.4357602E-2],"split_indices":[2,2,2,2,2,3,3,0,0,0,0,0,0,0,0],"split_type":[0,0,0,0,0,0,0,0,0,0,0,0,0,0,0],"sum_hessian":[3.6057E4,1.609E4,1.9967E4,6.581E3,9.509E3,9.733E3,1.0234E4,3.42E3,3.161E3,4.254E3,5.255E3,3.887E3,5.846E3,6.863E3,3.371E3],"tree_param":{"num_deleted":"0","num_feature":"4","num_nodes":"15","size_leaf_vector":"1"}},{"base_weights":[5.316712E-4,-6.0141515E-2,8.760486E-2,-1.3554929E-1,-2.645564E-2,6.161095E-2,1.6175424E-1,-2.6638921E-2,-1.570731E-2,-6.6485973E-3,1.6842346E-4,5.2981908E-3,1.3707588E-2,1.8719815E-2,3.570866E-2],"categories":[],"categories_nodes":[],"categories_segments":[],"categories_sizes":[],"default_left":[0,0,0,0,0,0,0,0,0,0,0,0,0,0,0],"id":5,"left_children":[1,3,5,7,9,11,13,-1,-1,-1,-1,-1,-1,-1,-1],"loss_changes":[1.8975505E2,5.376687E1,2.8419655E1,6.6506424E0,1.0025216E1,9.980904E0,7.635994E0,0E0,0E0,0E0,0E0,0E0,0E0,0E0,0E0],"parents":[2147483647,0,0,1,1,2,2,3,3,4,4,5,5,6,6],"right_children":[2,4,6,8,10,12,14,-1,-1,-1,-1,-1,-1,-1,-1],"split_conditions":[9E0,6E0,1.2E1,4E0,5.9E-1,7.2E-1,1.5E1,-2.6638921E-2,-1.570731E-2,-6.6485973E-3,1.6842346E-4,5.2981908E-3,1.3707588E-2,1.8719815E-2,3.570866E-2],"split_indices":[2,2,2,2,3,3,2,0,0,0,0,0,0,0,0],"split_type":[0,0,0,0,0,0,0,0,0,0,0,0,0,0,0],"sum_hessian":[3.5916E4,2.1167E4,1.4749E4,6.535E3,1.4632E4,1.0922E4,3.827E3,1.142E3,5.393E3,7.743E3,6.889E3,7.402E3,3.52E3,3.309E3,5.18E2],"tree_param":{"num_deleted":"0","num_feature":"4","num_nodes":"15","size_leaf_vector":"1"}},{"base_weights":[6.9587975E-4,-7.036249E-2,5.8045015E-2,-1.1690281E-1,-3.7826467E-2,3.8125187E-2,1.4242226E-1,-1.8775748E-2,-1.1238798E-2,-8.735512E-3,-2.9032812E-3,2.3090641E-3,9.709017E-3,1.6551506E-2,3.0627025E-2],"categories":[],"categories_nodes":[],"categories_segments":[],"categories_sizes":[],"default_left":[0,0,0,0,0,0,0,0,0,0,0,0,0,0,0],"id":6,"left_children":[1,3,5,7,9,11,13,-1,-1,-1,-1,-1,-1,-1,-1],"loss_changes":[1.4683939E2,2.4364197E1,3.3509323E1,5.537117E0,4.3091097E0,1.2009174E1,5.3284225E0,0E0,0E0,0E0,0E0,0E0,0E0,0E0,0E0],"parents":[2147483647,0,0,1,1,2,2,3,3,4,4,5,5,6,6],"right_children":[2,4,6,8,10,12,14,-1,-1,-1,-1,-1,-1,-1,-1],"split_conditions":[8E0,6E0,1.2E1,5E0,5.2E-1,6.9E-1,1.5E1,-1.8775748E-2,-1.1238798E-2,-8.735512E-3,-2.9032812E-3,2.3090641E-3,9.709017E-3,1.6551506E-2,3.0627025E-2],"split_indices":[2,2,2,2,3,3,2,0,0,0,0,0,0,0,0],"split_type":[0,0,0,0,0,0,0,0,0,0,0,0,0,0,0],"sum_hessian":[3.6031E4,1.6092E4,1.9939E4,6.62E3,9.472E3,1.6132E4,3.807E3,3.475E3,3.145E3,3.27E3,6.202E3,1.0362E4,5.77E3,3.278E3,5.29E2],"tree_param":{"num_deleted":"0","num_feature":"4","num_nodes":"15","size_leaf_vector":"1"}},{"base_weights":[5.0359505E-4,-4.5827333E-2,6.690748E-2,-8.313906E-2,-7.293613E-3,5.033187E-2,1.3354014E-1,-1.6410207E-2,-8.220788E-3,-2.7821658E-3,1.9701365E-3,5.527709E-3,1.6181307E-2,2.26197E-2,1.23015735E-2],"categories":[],"categories_nodes":[],"categories_segments":[],"categories_sizes":[],"default_left":[0,0,0,0,0,0,0,0,0,0,0,0,0,0,0],"id":7,"left_children":[1,3,5,7,9,11,13,-1,-1,-1,-1,-1,-1,-1,-1],"loss_changes":[1.112574E2,3.0625122E1,1.6408028E1,9.273529E0,3.3192987E0,6.887825E0,4.6434937E0,0E0,0E0,0E0,0E0,0E0,0E0,0E0,0E0],"parents":[2147483647,0,0,1,1,2,2,3,3,4,4,5,5,6,6],"right_children":[2,4,6,8,10,12,14,-1,-1,-1,-1,-1,-1,-1,-1],"split_conditions":[9E0,7E0,7.9E-1,5E0,6.3E-1,1.3E1,2.2E1,-1.6410207E-2,-8.220788E-3,-2.7821658E-3,1.9701365E-3,5.527709E-3,1.6181307E-2,2.26197E-2,1.23015735E-2],"split_indices":[2,2,3,2,3,2,1,0,0,0,0,0,0,0,0],"split_type":[0,0,0,0,0,0,0,0,0,0,0,0,0,0,0],"sum_hessian":[3.6161E4,2.13E4,1.4861E4,1.0821E4,1.0479E4,1.1902E4,2.959E3,3.417E3,7.404E3,6.435E3,4.044E3,1.0769E4,1.133E3,1.449E3,1.51E3],"tree_param":{"num_deleted":"0","num_feature":"4","num_nodes":"15","size_leaf_vector":"1"}},{"base_weights":[8.869883E-5,-4.0230747E-2,5.8352225E-2,-7.229301E-2,-7.1362965E-3,4.448996E-2,1.2217661E-1,-1.4181054E-2,-7.1260114E-3,-4.1098534E-3,6.598397E-4,7.364004E-3,1.0611609E-3,2.7537316E-2,1.393093E-2],"categories":[],"categories_nodes":[],"categories_segments":[],"categories_sizes":[],"default_left":[0,0,0,0,0,0,0,0,0,0,0,0,0,0,0],"id":8,"left_children":[1,3,5,7,9,11,13,-1,-1,-1,-1,-1,-1,-1,-1],"loss_changes":[8.461179E1,2.2586761E1,1.3027824E1,6.9465027E0,3.1316943E0,5.344681E0,3.5149384E0,0E0,0E0,0E0,0E0,0E0,0E0,0E0,0E0],"parents":[2147483647,0,0,1,1,2,2,3,3,4,4,5,5,6,6],"right_children":[2,4,6,8,10,12,14,-1,-1,-1,-1,-1,-1,-1,-1],"split_conditions":[9E0,7E0,8E-1,5E0,5.5E-1,6E1,5E0,-1.4181054E-2,-7.1260114E-3,-4.1098534E-3,6.598397E-4,7.364004E-3,1.0611609E-3,2.7537316E-2,1.393093E-2],"split_indices":[2,2,3,2,3,1,1,0,0,0,0,0,0,0,0],"split_type":[0,0,0,0,0,0,0,0,0,0,0,0,0,0,0],"sum_hessian":[3.6016E4,2.1286E4,1.473E4,1.0811E4,1.0475E4,1.2103E4,2.627E3,3.48E3,7.331E3,3.486E3,6.989E3,9.068E3,3.035E3,3.75E2,2.252E3],"tree_param":{"num_deleted":"0","num_feature":"4","num_nodes":"15","size_leaf_vector":"1"}},{"base_weights":[-3.435516E-5,-3.5618365E-2,5.1063824E-2,-7.84403E-2,-1.6510198E-2,3.4502264E-2,9.817057E-2,-1.6711839E-2,-8.838459E-3,-6.0166866E-3,-9.939729E-4,1.004521E-3,6.5737134E-3,3.8672052E-2,1.2092497E-2],"categories":[],"categories_nodes":[],"categories_segments":[],"categories_sizes":[],"default_left":[0,0,0,0,0,0,0,0,0,0,0,0,0,0,0],"id":9,"left_children":[1,3,5,7,9,11,13,-1,-1,-1,-1,-1,-1,-1,-1],"loss_changes":[6.5872574E1,1.7473219E1,1.1599171E1,3.4424553E0,3.897019E0,4.733265E0,3.9436073E0,0E0,0E0,0E0,0E0,0E0,0E0,0E0,0E0],"parents":[2147483647,0,0,1,1,2,2,3,3,4,4,5,5,6,6],"right_children":[2,4,6,8,10,12,14,-1,-1,-1,-1,-1,-1,-1,-1],"split_conditions":[9E0,6E0,1.2E1,4E0,5E-1,6.3E-1,1E0,-1.6711839E-2,-8.838459E-3,-6.0166866E-3,-9.939729E-4,1.004521E-3,6.5737134E-3,3.8672052E-2,1.2092497E-2],"split_indices":[2,2,2,2,3,3,1,0,0,0,0,0,0,0,0],"split_type":[0,0,0,0,0,0,0,0,0,0,0,0,0,0,0],"sum_hessian":[3.6226E4,2.1355E4,1.4871E4,6.588E3,1.4767E4,1.1004E4,3.867E3,1.135E3,5.453E3,3.387E3,1.138E4,4.127E3,6.877E3,9.6E1,3.771E3],"tree_param":{"num_deleted":"0","num_feature":"4","num_nodes":"15","size_leaf_vector":"1"}},{"base_weights":[-1.1006721E-3,-2.443892E-2,5.791049E-2,-5.6860108E-2,-8.4363634E-4,4.819447E-2,1.1823934E-1,-1.0729279E-2,-5.39188E-3,6.6465157E-4,-5.183046E-3,8.686626E-3,3.648264E-3,3.0844891E-2,1.3952565E-2],"categories":[],"categories_nodes":[],"categories_segments":[],"categories_sizes":[],"default_left":[0,0,0,0,0,0,0,0,0,0,0,0,0,0,0],"id":10,"left_children":[1,3,5,7,9,11,13,-1,-1,-1,-1,-1,-1,-1,-1],"loss_changes":[4.959638E1,1.974121E1,5.976612E0,4.2897224E0,3.4723372E0,3.294712E0,1.8123875E0,0E0,0E0,0E0,0E0,0E0,0E0,0E0,0E0],"parents":[2147483647,0,0,1,1,2,2,3,3,4,4,5,5,6,6],"right_children":[2,4,6,8,10,12,14,-1,-1,-1,-1,-1,-1,-1,-1],"split_conditions":[1E1,7E0,8.4E-1,4.6E-1,1.03E2,3.2E1,2E0,-1.0729279E-2,-5.39188E-3,6.6465157E-4,-5.183046E-3,8.686626E-3,3.648264E-3,3.0844891E-2,1.3952565E-2],"split_indices":[2,2,3,3,1,1,1,0,0,0,0,0,0,0,0],"split_type":[0,0,0,0,0,0,0,0,0,0,0,0,0,0,0],"sum_hessian":[3.601E4,2.5805E4,1.0205E4,1.0869E4,1.4936E4,8.791E3,1.414E3,4.071E3,6.798E3,1.2959E4,1.977E3,4.565E3,4.226E3,1.17E2,1.297E3],"tree_param":{"num_deleted":"0","num_feature":"4","num_nodes":"15","size_leaf_vector":"1"}},{"base_weights":[5.22327E-4,-3.5389233E-2,2.9392872E-2,-7.469991E-2,-2.4538113E-2,1.0311472E-2,5.850959E-2,-1.3302678E-2,-7.952531E-3,-6.5224124E-3,-2.1297531E-3,-1.8033268E-3,2.4990384E-3,1.070506E-2,3.9744107E-3],"categories":[],"categories_nodes":[],"categories_segments":[],"categories_sizes":[],"default_left":[0,0,0,0,0,0,0,0,0,0,0,0,0,0,0],"id":11,"left_children":[1,3,5,7,9,11,13,-1,-1,-1,-1,-1,-1,-1,-1],"loss_changes":[3.7355415E1,6.847519E0,1.1096149E1,1.2916641E0,2.6301703E0,2.6009276E0,5.2630672E0,0E0,0E0,0E0,0E0,0E0,0E0,0E0,0E0],"parents":[2147483647,0,0,1,1,2,2,3,3,4,4,5,5,6,6],"right_children":[2,4,6,8,10,12,14,-1,-1,-1,-1,-1,-1,-1,-1],"split_conditions":[8E0,5E0,7E-1,4E0,4.7E-1,5.5E-1,3.1E1,-1.3302678E-2,-7.952531E-3,-6.5224124E-3,-2.1297531E-3,-1.8033268E-3,2.4990384E-3,1.070506E-2,3.9744107E-3],"split_indices":[2,2,3,2,3,3,1,0,0,0,0,0,0,0,0],"split_type":[0,0,0,0,0,0,0,0,0,0,0,0,0,0,0],"sum_hessian":[3.6028E4,1.6056E4,1.9972E4,3.472E3,1.2584E4,1.2066E4,7.906E3,1.139E3,2.333E3,3.036E3,9.548E3,3.249E3,8.817E3,4.265E3,3.641E3],"tree_param":{"num_deleted":"0","num_feature":"4","num_nodes":"15","size_leaf_vector":"1"}},{"base_weights":[-3.896009E-4,-1.8854557E-2,4.6894822E-2,-4.3388408E-2,-9.749176E-4,3.587883E-2,8.886115E-2,-8.805154E-3,-4.2292257E-3,6.373971E-4,-3.7056094E-3,5.9872707E-3,1.1685294E-3,2.9351588E-2,1.0694792E-2],"categories":[],"categories_nodes":[],"categories_segments":[],"categories_sizes":[],"default_left":[0,0,0,0,0,0,0,0,0,0,0,0,0,0,0],"id":12,"left_children":[1,3,5,7,9,11,13,-1,-1,-1,-1,-1,-1,-1,-1],"loss_changes":[3.1440514E1,1.1359841E1,4.67206E0,2.882845E0,2.4243538E0,2.1921806E0,1.8790855E0,0E0,0E0,0E0,0E0,0E0,0E0,0E0,0E0],"parents":[2147483647,0,0,1,1,2,2,3,3,4,4,5,5,6,6],"right_children":[2,4,6,8,10,12,14,-1,-1,-1,-1,-1,-1,-1,-1],"split_conditions":[1E1,7E0,1.3E1,4.4E-1,9.2E1,5.2E1,1E0,-8.805154E-3,-4.2292257E-3,6.373971E-4,-3.7056094E-3,5.9872707E-3,1.1685294E-3,2.9351588E-2,1.0694792E-2],"split_indices":[2,2,2,3,1,1,1,0,0,0,0,0,0,0,0],"split_type":[0,0,0,0,0,0,0,0,0,0,0,0,0,0,0],"sum_hessian":[3.6008E4,2.5896E4,1.0112E4,1.0916E4,1.498E4,8.011E3,2.101E3,3.365E3,7.551E3,1.2345E4,2.635E3,5.811E3,2.2E3,9.5E1,2.006E3],"tree_param":{"num_deleted":"0","num_feature":"4","num_nodes":"15","size_leaf_vector":"1"}},{"base_weights":[3.627366E-5,-2.6762033E-2,2.544193E-2,-5.166487E-2,-1.4271866E-2,6.7559783E-3,4.7672536E-2,-1.0909625E-2,-5.791013E-3,-4.0464974E-3,-1.024954E-3,2.488637E-3,-9.788725E-4,1.3103867E-2,5.123382E-3],"categories":[],"categories_nodes":[],"categories_segments":[],"categories_sizes":[],"default_left":[0,0,0,0,0,0,0,0,0,0,0,0,0,0,0],"id":13,"left_children":[1,3,5,7,9,11,13,-1,-1,-1,-1,-1,-1,-1,-1],"loss_changes":[2.4398172E1,5.423811E0,7.6413765E0,1.3337593E0,1.2503715E0,1.7690692E0,3.6834412E0,0E0,0E0,0E0,0E0,0E0,0E0,0E0,0E0],"parents":[2147483647,0,0,1,1,2,2,3,3,4,4,5,5,6,6],"right_children":[2,4,6,8,10,12,14,-1,-1,-1,-1,-1,-1,-1,-1],"split_conditions":[6E-1,6E0,1E1,4E0,4.8E-1,4.9E1,7E0,-1.0909625E-2,-5.791013E-3,-4.0464974E-3,-1.024954E-3,2.488637E-3,-9.788725E-4,1.3103867E-2,5.123382E-3],"split_indices":[3,2,2,2,3,1,1,0,0,0,0,0,0,0,0],"split_type":[0,0,0,0,0,0,0,0,0,0,0,0,0,0,0],"sum_hessian":[3.5834E4,1.7439E4,1.8395E4,5.824E3,1.1615E4,9.995E3,8.4E3,1.051E3,4.773E3,3.191E3,8.424E3,5.353E3,4.642E3,1.129E3,7.271E3],"tree_param":{"num_deleted":"0","num_feature":"4","num_nodes":"15","size_leaf_vector":"1"}},{"base_weights":[-5.354555E-4,-1.4796931E-2,3.5680853E-2,-3.3744715E-2,-6.866981E-4,3.1492572E-2,1.1716213E-1,-7.2155665E-3,-3.3917115E-3,4.7716135E-4,-4.6028E-3,3.3530677E-3,8.719086E-3,1.1491096E-2,1.9986669E-2],"categories":[],"categories_nodes":[],"categories_segments":[],"categories_sizes":[],"default_left":[0,0,0,0,0,0,0,0,0,0,0,0,0,0,0],"id":14,"left_children":[1,3,5,7,9,11,13,-1,-1,-1,-1,-1,-1,-1,-1],"loss_changes":[1.8560883E1,6.893259E0,3.4611874E0,1.8315659E0,2.235876E0,1.9567356E0,5.0840807E-1,0E0,0E0,0E0,0E0,0E0,0E0,0E0,0E0],"parents":[2147483647,0,0,1,1,2,2,3,3,4,4,5,5,6,6],"right_children":[2,4,6,8,10,12,14,-1,-1,-1,-1,-1,-1,-1,-1],"split_conditions":[1E1,5.4E-1,1.5E1,5E0,1.15E2,8.3E-1,1.6E1,-7.2155665E-3,-3.3917115E-3,4.7716135E-4,-4.6028E-3,3.3530677E-3,8.719086E-3,1.1491096E-2,1.9986669E-2],"split_indices":[2,3,2,2,1,3,2,0,0,0,0,0,0,0,0],"split_type":[0,0,0,0,0,0,0,0,0,0,0,0,0,0,0],"sum_hessian":[3.5934E4,2.5782E4,1.0152E4,1.1004E4,1.4778E4,9.657E3,4.95E2,2.862E3,8.142E3,1.3131E4,1.647E3,8.325E3,1.332E3,2.79E2,2.16E2],"tree_param":{"num_deleted":"0","num_feature":"4","num_nodes":"15","size_leaf_vector":"1"}},{"base_weights":[-6.1799615E-4,-1.7304206E-2,2.4466095E-2,-3.260008E-2,-4.6185288E-3,3.7668027E-2,2.7301814E-3,-8.584396E-3,-3.6733306E-3,-3.710658E-4,-6.165203E-3,2.6525266E-3,7.4059702E-3,1.4474558E-3,-2.1210862E-3],"categories":[],"categories_nodes":[],"categories_segments":[],"categories_sizes":[],"default_left":[0,0,0,0,0,0,0,0,0,0,0,0,0,0,0],"id":15,"left_children":[1,3,5,7,9,11,13,-1,-1,-1,-1,-1,-1,-1,-1],"loss_changes":[1.5172748E1,4.223874E0,4.155308E0,1.4313669E0,8.9859873E-1,3.00074E0,8.7622464E-1,0E0,0E0,0E0,0E0,0E0,0E0,0E0,0E0],"parents":[2147483647,0,0,1,1,2,2,3,3,4,4,5,5,6,6],"right_children":[2,4,6,8,10,12,14,-1,-1,-1,-1,-1,-1,-1,-1],"split_conditions":[6.4E-1,7E0,4.5E1,4E0,1.4E2,2.14E2,8.8E1,-8.584396E-3,-3.6733306E-3,-3.710658E-4,-6.165203E-3,2.6525266E-3,7.4059702E-3,1.4474558E-3,-2.1210862E-3],"split_indices":[3,2,1,2,1,0,1,0,0,0,0,0,0,0,0],"split_type":[0,0,0,0,0,0,0,0,0,0,0,0,0,0,0],"sum_hessian":[3.6248E4,2.1768E4,1.448E4,9.868E3,1.19E4,9.008E3,5.472E3,1.133E3,8.735E3,1.143E4,4.7E2,4.756E3,4.252E3,3.797E3,1.675E3],"tree_param":{"num_deleted":"0","num_feature":"4","num_nodes":"15","size_leaf_vector":"1"}},{"base_weights":[2.2401326E-4,-1.2922516E-2,2.4552535E-2,-3.9844338E-2,-6.807274E-3,6.634346E-2,1.8063271E-2,-6.383642E-3,-3.942617E-3,-2.6135708E-3,3.9184255E-5,5.655854E-3,2.0659236E-2,3.4583393E-3,-4.1125165E-4],"categories":[],"categories_nodes":[],"categories_segments":[],"categories_sizes":[],"default_left":[0,0,0,0,0,0,0,0,0,0,0,0,0,0,0],"id":16,"left_children":[1,3,5,7,9,11,13,-1,-1,-1,-1,-1,-1,-1,-1],"loss_changes":[1.1567813E1,3.8653214E0,3.4396887E0,3.8151836E-1,1.808744E0,3.5976195E0,1.9910703E0,0E0,0E0,0E0,0E0,0E0,0E0,0E0,0E0],"parents":[2147483647,0,0,1,1,2,2,3,3,4,4,5,5,6,6],"right_children":[2,4,6,8,10,12,14,-1,-1,-1,-1,-1,-1,-1,-1],"split_conditions":[6.6E-1,4.4E-1,9E0,3.9E-1,7E0,1.56E2,5.9E1,-6.383642E-3,-3.942617E-3,-2.6135708E-3,3.9184255E-5,5.655854E-3,2.0659236E-2,3.4583393E-3,-4.1125165E-4],"split_indices":[3,3,1,3,2,0,1,0,0,0,0,0,0,0,0],"split_type":[0,0,0,0,0,0,0,0,0,0,0,0,0,0,0],"sum_hessian":[3.6166E4,2.3479E4,1.2687E4,4.345E3,1.9134E4,1.704E3,1.0983E4,2.2E3,2.145E3,6.665E3,1.2469E4,1.368E3,3.36E2,7.832E3,3.151E3],"tree_param":{"num_deleted":"0","num_feature":"4","num_nodes":"15","size_leaf_vector":"1"}},{"base_weights":[-1.4407227E-4,-1.3699527E-2,1.915408E-2,-3.0131519E-2,-6.266492E-3,1.3406642E-2,5.4355174E-2,-6.9864104E-3,-3.2854723E-3,-1.1245636E-3,3.455876E-3,2.3937162E-3,-1.5851468E-3,6.083974E-3,1.4996154E-2],"categories":[],"categories_nodes":[],"categories_segments":[],"categories_sizes":[],"default_left":[0,0,0,0,0,0,0,0,0,0,0,0,0,0,0],"id":17,"left_children":[1,3,5,7,9,11,13,-1,-1,-1,-1,-1,-1,-1,-1],"loss_changes":[9.374527E0,2.5708494E0,2.990717E0,7.507024E-1,1.1354017E0,1.6295004E0,9.509206E-1,0E0,0E0,0E0,0E0,0E0,0E0,0E0,0E0],"parents":[2147483647,0,0,1,1,2,2,3,3,4,4,5,5,6,6],"right_children":[2,4,6,8,10,12,14,-1,-1,-1,-1,-1,-1,-1,-1],"split_conditions":[9E0,6E0,1.3E1,4E0,7.5E-1,7.5E1,1.6E1,-6.9864104E-3,-3.2854723E-3,-1.1245636E-3,3.455876E-3,2.3937162E-3,-1.5851468E-3,6.083974E-3,1.4996154E-2],"split_indices":[2,2,2,2,3,1,2,0,0,0,0,0,0,0,0],"split_type":[0,0,0,0,0,0,0,0,0,0,0,0,0,0,0],"sum_hessian":[3.5834E4,2.1049E4,1.4785E4,6.555E3,1.4494E4,1.2711E4,2.074E3,1.117E3,5.438E3,1.3514E4,9.8E2,1.0632E4,2.079E3,1.847E3,2.27E2],"tree_param":{"num_deleted":"0","num_feature":"4","num_nodes":"15","size_leaf_vector":"1"}},{"base_weights":[1.0112531E-4,-1.3589916E-2,1.4665027E-2,-3.28813E-2,-8.649252E-3,3.0814074E-2,4.320107E-3,-5.499556E-3,-3.5762056E-3,-7.9899025E-4,-4.287963E-3,2.8467113E-3,1.12420935E-2,-1.6440052E-3,1.5940766E-3],"categories":[],"categories_nodes":[],"categories_segments":[],"categories_sizes":[],"default_left":[0,0,0,0,0,0,0,0,0,0,0,0,0,0,0],"id":18,"left_children":[1,3,5,7,9,11,13,-1,-1,-1,-1,-1,-1,-1,-1],"loss_changes":[7.216104E0,1.7776701E0,2.9294417E0,1.9134617E-1,9.045057E-1,3.3963609E0,1.4405977E0,0E0,0E0,0E0,0E0,0E0,0E0,0E0,0E0],"parents":[2147483647,0,0,1,1,2,2,3,3,4,4,5,5,6,6],"right_children":[2,4,6,8,10,12,14,-1,-1,-1,-1,-1,-1,-1,-1],"split_conditions":[6.1E-1,4.3E-1,2.7E1,3.6E-1,1.33E2,3.35E2,3.26E2,-5.499556E-3,-3.5762056E-3,-7.9899025E-4,-4.287963E-3,2.8467113E-3,1.12420935E-2,-1.6440052E-3,1.5940766E-3],"split_indices":[3,3,1,3,1,0,0,0,0,0,0,0,0,0,0],"split_type":[0,0,0,0,0,0,0,0,0,0,0,0,0,0,0],"sum_hessian":[3.6188E4,1.8653E4,1.7535E4,3.802E3,1.4851E4,6.846E3,1.0689E4,1.378E3,2.424E3,1.3467E4,1.384E3,5.902E3,9.44E2,3.408E3,7.281E3],"tree_param":{"num_deleted":"0","num_feature":"4","num_nodes":"15","size_leaf_vector":"1"}},{"base_weights":[5.4938737E-6,-1.4227784E-2,1.1644433E-2,-3.3961695E-2,-1.075239E-2,6.244403E-3,3.910069E-2,-3.8183727E-3,-5.5054543E-3,-6.0984525E-3,-1.1512282E-3,1.3058056E-3,-1.7586902E-3,1.0462135E-2,3.997064E-3],"categories":[],"categories_nodes":[],"categories_segments":[],"categories_sizes":[],"default_left":[0,0,0,0,0,0,0,0,0,0,0,0,0,0,0],"id":19,"left_children":[1,3,5,7,9,11,13,-1,-1,-1,-1,-1,-1,-1,-1],"loss_changes":[5.9622784E0,1.110064E0,2.9353955E0,9.207368E-2,9.4387054E-1,1.2435051E0,1.1223278E0,0E0,0E0,0E0,0E0,0E0,0E0,0E0,0E0],"parents":[2147483647,0,0,1,1,2,2,3,3,4,4,5,5,6,6],"right_children":[2,4,6,8,10,12,14,-1,-1,-1,-1,-1,-1,-1,-1],"split_conditions":[8E0,4E-1,7.9E-1,9.4E1,4E0,8.1E1,7E0,-3.8183727E-3,-5.5054543E-3,-6.0984525E-3,-1.1512282E-3,1.3058056E-3,-1.7586902E-3,1.0462135E-2,3.997064E-3],"split_indices":[2,3,3,1,2,1,1,0,0,0,0,0,0,0,0],"split_type":[0,0,0,0,0,0,0,0,0,0,0,0,0,0,0],"sum_hessian":[3.5989E4,1.619E4,1.9799E4,2.423E3,1.3767E4,1.6546E4,3.253E3,1.569E3,8.54E2,6.85E2,1.3082E4,1.3879E4,2.667E3,5.45E2,2.708E3],"tree_param":{"num_deleted":"0","num_feature":"4","num_nodes":"15","size_leaf_vector":"1"}},{"base_weights":[4.5048218E-4,-6.1531183E-3,2.2926664E-2,-1.953746E-2,2.3734648E-4,1.9195523E-2,6.5639995E-2,-3.5194065E-3,-1.8230834E-3,2.970152E-4,-3.4364115E-3,4.6169525E-3,1.6307975E-3,1.1210302E-2,6.2746275E-3],"categories":[],"categories_nodes":[],"categories_segments":[],"categories_sizes":[],"default_left":[0,0,0,0,0,0,0,0,0,0,0,0,0,0,0],"id":20,"left_children":[1,3,5,7,9,11,13,-1,-1,-1,-1,-1,-1,-1,-1],"loss_changes":[5.3242483E0,2.3714695E0,1.2969642E0,3.7186813E-1,1.0248588E0,8.1284285E-1,2.2982383E-1,0E0,0E0,0E0,0E0,0E0,0E0,0E0,0E0],"parents":[2147483647,0,0,1,1,2,2,3,3,4,4,5,5,6,6],"right_children":[2,4,6,8,10,12,14,-1,-1,-1,-1,-1,-1,-1,-1],"split_conditions":[7.1E-1,5.1E-1,9E-1,4.3E-1,1.27E2,1.7E1,1.4E1,-3.5194065E-3,-1.8230834E-3,2.970152E-4,-3.4364115E-3,4.6169525E-3,1.6307975E-3,1.1210302E-2,6.2746275E-3],"split_indices":[3,3,3,3,1,1,1,0,0,0,0,0,0,0,0],"split_type":[0,0,0,0,0,0,0,0,0,0,0,0,0,0,0],"sum_hessian":[3.587E4,2.7725E4,8.145E3,8.959E3,1.8766E4,7.492E3,6.53E2,3.784E3,5.175E3,1.7429E4,1.337E3,2.168E3,5.324E3,2.97E2,3.56E2],"tree_param":{"num_deleted":"0","num_feature":"4","num_nodes":"15","size_leaf_vector":"1"}},{"base_weights":[-1.3679882E-4,-8.322288E-3,1.343546E-2,-1.7535662E-2,-3.0473757E-3,2.8381405E-2,5.6695486E-3,-2.0512743E-3,-5.214015E-3,2.5348086E-4,-1.3864465E-3,1.7140356E-3,8.670554E-3,-2.242758E-3,1.485012E-3],"categories":[],"categories_nodes":[],"categories_segments":[],"categories_sizes":[],"default_left":[0,0,0,0,0,0,0,0,0,0,0,0,0,0,0],"id":21,"left_children":[1,3,5,7,9,11,13,-1,-1,-1,-1,-1,-1,-1,-1],"loss_changes":[4.0152173E0,1.0956281E0,1.5780275E0,3.2482147E-1,5.458237E-1,2.706034E0,1.1804075E0,0E0,0E0,0E0,0E0,0E0,0E0,0E0,0E0],"parents":[2147483647,0,0,1,1,2,2,3,3,4,4,5,5,6,6],"right_children":[2,4,6,8,10,12,14,-1,-1,-1,-1,-1,-1,-1,-1],"split_conditions":[6.5E-1,5E-1,2.2E1,1.62E2,6E1,2.14E2,2.53E2,-2.0512743E-3,-5.214015E-3,2.5348086E-4,-1.3864465E-3,1.7140356E-3,8.670554E-3,-2.242758E-3,1.485012E-3],"split_indices":[3,3,1,1,1,0,0,0,0,0,0,0,0,0,0],"split_type":[0,0,0,0,0,0,0,0,0,0,0,0,0,0,0],"sum_hessian":[3.614E4,2.2544E4,1.3596E4,8.207E3,1.4337E4,4.648E3,8.948E3,7.616E3,5.91E2,8.658E3,5.679E3,3.329E3,1.319E3,1.795E3,7.153E3],"tree_param":{"num_deleted":"0","num_feature":"4","num_nodes":"15","size_leaf_vector":"1"}},{"base_weights":[-2.0805172E-4,-6.21081E-3,1.51601285E-2,-4.5095063E-3,-3.1424537E-2,8.773593E-2,1.3521207E-2,-1.1236698E-3,7.220601E-4,-3.5212308E-3,-6.8350136E-3,3.7695116E-3,1.5681187E-2,-1.5824264E-3,2.2025788E-3],"categories":[],"categories_nodes":[],"categories_segments":[],"categories_sizes":[],"default_left":[0,0,0,0,0,0,0,0,0,0,0,0,0,0,0],"id":22,"left_children":[1,3,5,7,9,11,13,-1,-1,-1,-1,-1,-1,-1,-1],"loss_changes":[3.3043573E0,1.1047789E0,1.1955299E0,1.0040157E0,1.4796543E-1,4.253763E-1,8.653035E-1,0E0,0E0,0E0,0E0,0E0,0E0,0E0,0E0],"parents":[2147483647,0,0,1,1,2,2,3,3,4,4,5,5,6,6],"right_children":[2,4,6,8,10,12,14,-1,-1,-1,-1,-1,-1,-1,-1],"split_conditions":[1E1,1.48E2,2E0,4.08E2,2.02E2,3.6E1,9.3E1,-1.1236698E-3,7.220601E-4,-3.5212308E-3,-6.8350136E-3,3.7695116E-3,1.5681187E-2,-1.5824264E-3,2.2025788E-3],"split_indices":[2,1,1,0,1,0,0,0,0,0,0,0,0,0,0],"split_type":[0,0,0,0,0,0,0,0,0,0,0,0,0,0,0],"sum_hessian":[3.5817E4,2.5757E4,1.006E4,2.413E4,1.627E3,2.21E2,9.839E3,1.7104E4,7.026E3,1.352E3,2.75E2,8E1,1.41E2,1.156E3,8.683E3],"tree_param":{"num_deleted":"0","num_feature":"4","num_nodes":"15","size_leaf_vector":"1"}},{"base_weights":[1.4629377E-5,-3.91497E-3,1.8020231E-2,-1.5972076E-2,-5.289802E-4,5.3221058E-2,1.3939388E-2,-4.27825E-3,-1.6291741E-3,4.7301696E-4,-1.3011238E-3,2.5249333E-3,1.298632E-2,7.354747E-5,2.7912485E-3],"categories":[],"categories_nodes":[],"categories_segments":[],"categories_sizes":[],"default_left":[0,0,0,0,0,0,0,0,0,0,0,0,0,0,0],"id":23,"left_children":[1,3,5,7,9,11,13,-1,-1,-1,-1,-1,-1,-1,-1],"loss_changes":[2.5561588E0,1.2106639E0,9.289551E-1,3.7842345E-1,9.147858E-1,1.0581408E0,5.843048E-1,0E0,0E0,0E0,0E0,0E0,0E0,0E0,0E0],"parents":[2147483647,0,0,1,1,2,2,3,3,4,4,5,5,6,6],"right_children":[2,4,6,8,10,12,14,-1,-1,-1,-1,-1,-1,-1,-1],"split_conditions":[1.1E1,6E0,5E0,4E0,7E1,8.1E1,2.51E2,-4.27825E-3,-1.6291741E-3,4.7301696E-4,-1.3011238E-3,2.5249333E-3,1.298632E-2,7.354747E-5,2.7912485E-3],"split_indices":[2,2,1,2,1,0,0,0,0,0,0,0,0,0,0],"split_type":[0,0,0,0,0,0,0,0,0,0,0,0,0,0,0],"sum_hessian":[3.6125E4,2.9654E4,6.471E3,6.501E3,2.3153E4,6.71E2,5.8E3,1.096E3,5.405E3,1.6083E4,7.07E3,3.9E2,2.81E2,2.09E3,3.71E3],"tree_param":{"num_deleted":"0","num_feature":"4","num_nodes":"15","size_leaf_vector":"1"}},{"base_weights":[-5.4213544E-4,-5.1644174E-3,1.49171725E-2,1.7615224E-3,-1.0383628E-2,6.409065E-2,1.2693048E-2,-1.0716026E-3,1.7994649E-3,-3.0465755E-3,-7.7613554E-4,3.0723007E-3,1.2384328E-2,-5.936288E-4,2.5041369E-3],"categories":[],"categories_nodes":[],"categories_segments":[],"categories_sizes":[],"default_left":[0,0,0,0,0,0,0,0,0,0,0,0,0,0,0],"id":24,"left_children":[1,3,5,7,9,11,13,-1,-1,-1,-1,-1,-1,-1,-1],"loss_changes":[2.5844722E0,1.0064852E0,9.0967405E-1,1.4463365E0,9.1445196E-1,4.5178092E-1,9.033251E-1,0E0,0E0,0E0,0E0,0E0,0E0,0E0,0E0],"parents":[2147483647,0,0,1,1,2,2,3,3,4,4,5,5,6,6],"right_children":[2,4,6,8,10,12,14,-1,-1,-1,-1,-1,-1,-1,-1],"split_conditions":[7.1E-1,4.2E1,3E0,1.67E2,3.12E2,4.5E1,1.94E2,-1.0716026E-3,1.7994649E-3,-3.0465755E-3,-7.7613554E-4,3.0723007E-3,1.2384328E-2,-5.936288E-4,2.5041369E-3],"split_indices":[3,1,1,0,0,0,0,0,0,0,0,0,0,0,0],"split_type":[0,0,0,0,0,0,0,0,0,0,0,0,0,0,0],"sum_hessian":[3.6166E4,2.7842E4,8.324E3,1.1965E4,1.5877E4,3.59E2,7.965E3,6.545E3,5.42E3,4.011E3,1.1866E4,1.57E2,2.02E2,2.196E3,5.769E3],"tree_param":{"num_deleted":"0","num_feature":"4","num_nodes":"15","size_leaf_vector":"1"}},{"base_weights":[2.9430943E-4,-2.6257962E-3,1.8515991E-2,-6.2968815E-5,-1.658002E-2,2.4719415E-2,9.699179E-4,-6.3429686E-4,1.3581793E-3,-4.1259485E-3,-1.4565714E-3,1.2786681E-3,5.2559385E-3,-1.7503911E-3,1.6878835E-3],"categories":[],"categories_nodes":[],"categories_segments":[],"categories_sizes":[],"default_left":[0,0,0,0,0,0,0,0,0,0,0,0,0,0,0],"id":25,"left_children":[1,3,5,7,9,11,13,-1,-1,-1,-1,-1,-1,-1,-1],"loss_changes":[1.915794E0,1.1097736E0,5.4126585E-1,1.3272343E0,3.9198947E-1,8.5870457E-1,2.2561146E-1,0E0,0E0,0E0,0E0,0E0,0E0,0E0,0E0],"parents":[2147483647,0,0,1,1,2,2,3,3,4,4,5,5,6,6],"right_children":[2,4,6,8,10,12,14,-1,-1,-1,-1,-1,-1,-1,-1],"split_conditions":[7.6E-1,1.06E2,4.7E1,3.67E2,4.33E2,2.42E2,4.53E2,-6.3429686E-4,1.3581793E-3,-4.1259485E-3,-1.4565714E-3,1.2786681E-3,5.2559385E-3,-1.7503911E-3,1.6878835E-3],"split_indices":[3,1,1,0,0,0,0,0,0,0,0,0,0,0,0],"split_type":[0,0,0,0,0,0,0,0,0,0,0,0,0,0,0],"sum_hessian":[3.6003E4,3.1031E4,4.972E3,2.6217E4,4.814E3,3.673E3,1.299E3,1.7979E4,8.238E3,1.259E3,3.555E3,1.887E3,1.786E3,5.9E2,7.09E2],"tree_param":{"num_deleted":"0","num_feature":"4","num_nodes":"15","size_leaf_vector":"1"}},{"base_weights":[-1.1468742E-4,-8.561872E-3,5.0106184E-3,-1.6585933E-2,-6.287021E-3,1.940215E-2,1.0800795E-3,-3.0494647E-3,-1.7142387E-3,-7.1659585E-4,-4.1148667E-3,1.091014E-3,7.7724415E-3,-1.5561648E-3,7.8361074E-4],"categories":[],"categories_nodes":[],"categories_segments":[],"categories_sizes":[],"default_left":[0,0,0,0,0,0,0,0,0,0,0,0,0,0,0],"id":26,"left_children":[1,3,5,7,9,11,13,-1,-1,-1,-1,-1,-1,-1,-1],"loss_changes":[1.5548748E0,2.4745029E-1,1.2643529E0,6.965226E-2,2.0750812E-1,2.1315355E0,1.1337973E0,0E0,0E0,0E0,0E0,0E0,0E0,0E0,0E0],"parents":[2147483647,0,0,1,1,2,2,3,3,4,4,5,5,6,6],"right_children":[2,4,6,8,10,12,14,-1,-1,-1,-1,-1,-1,-1,-1],"split_conditions":[5.6E-1,5E0,1.6E1,4E0,1.71E2,1.77E2,2.55E2,-3.0494647E-3,-1.7142387E-3,-7.1659585E-4,-4.1148667E-3,1.091014E-3,7.7724415E-3,-1.5561648E-3,7.8361074E-4],"split_indices":[3,2,1,2,1,0,0,0,0,0,0,0,0,0,0],"split_type":[0,0,0,0,0,0,0,0,0,0,0,0,0,0,0],"sum_hessian":[3.5912E4,1.3561E4,2.2351E4,2.994E3,1.0567E4,4.794E3,1.7557E4,9.89E2,2.005E3,1.0255E4,3.12E2,3.768E3,1.026E3,4.826E3,1.2731E4],"tree_param":{"num_deleted":"0","num_feature":"4","num_nodes":"15","size_leaf_vector":"1"}},{"base_weights":[-4.9331045E-4,6.8576066E-3,-6.298571E-3,-1.1266293E-4,2.3242041E-2,-1.9371169E-2,-2.6104255E-3,2.342407E-3,-7.2245003E-4,9.889082E-3,2.4444028E-3,-1.8781172E-3,-3.7049102E-3,6.7987404E-4,-1.262781E-3],"categories":[],"categories_nodes":[],"categories_segments":[],"categories_sizes":[],"default_left":[0,0,0,0,0,0,0,0,0,0,0,0,0,0,0],"id":27,"left_children":[1,3,5,7,9,11,13,-1,-1,-1,-1,-1,-1,-1,-1],"loss_changes":[1.5313993E0,1.8084216E0,9.666812E-1,1.0968552E0,1.1068146E0,1.9789886E-1,8.710624E-1,0E0,0E0,0E0,0E0,0E0,0E0,0E0,0E0],"parents":[2147483647,0,0,1,1,2,2,3,3,4,4,5,5,6,6],"right_children":[2,4,6,8,10,12,14,-1,-1,-1,-1,-1,-1,-1,-1],"split_conditions":[3.8E1,2.4E2,2.92E2,8E0,1.3E1,8E0,8E1,2.342407E-3,-7.2245003E-4,9.889082E-3,2.4444028E-3,-1.8781172E-3,-3.7049102E-3,6.7987404E-4,-1.262781E-3],"split_indices":[1,0,0,1,1,2,1,0,0,0,0,0,0,0,0],"split_type":[0,0,0,0,0,0,0,0,0,0,0,0,0,0,0],"sum_hessian":[3.5884E4,1.5834E4,2.005E4,1.1109E4,4.725E3,4.411E3,1.5639E4,2.565E3,8.544E3,3.65E2,4.36E3,2.867E3,1.544E3,7.434E3,8.205E3],"tree_param":{"num_deleted":"0","num_feature":"4","num_nodes":"15","size_leaf_vector":"1"}},{"base_weights":[3.7358925E-4,-8.342659E-3,4.1547297E-3,-2.1386892E-2,-6.863745E-3,1.0095948E-2,-1.7731276E-3,-2.4172526E-3,-6.7711705E-3,-8.0914504E-4,-4.7021974E-3,8.359297E-4,5.7273186E-3,-2.2679758E-3,3.5656674E-4],"categories":[],"categories_nodes":[],"categories_segments":[],"categories_sizes":[],"default_left":[0,0,0,0,0,0,0,0,0,0,0,0,0,0,0],"id":28,"left_children":[1,3,5,7,9,11,13,-1,-1,-1,-1,-1,-1,-1,-1],"loss_changes":[1.1878837E0,2.102248E-1,8.8534564E-1,9.419328E-2,1.8338487E-1,1.5626779E0,8.9071494E-1,0E0,0E0,0E0,0E0,0E0,0E0,0E0,0E0],"parents":[2147483647,0,0,1,1,2,2,3,3,4,4,5,5,6,6],"right_children":[2,4,6,8,10,12,14,-1,-1,-1,-1,-1,-1,-1,-1],"split_conditions":[7E0,4E0,3.8E1,5.7E-1,2.02E2,4.31E2,3.12E2,-2.4172526E-3,-6.7711705E-3,-8.0914504E-4,-4.7021974E-3,8.359297E-4,5.7273186E-3,-2.2679758E-3,3.5656674E-4],"split_indices":[2,2,1,3,1,0,0,0,0,0,0,0,0,0,0],"split_type":[0,0,0,0,0,0,0,0,0,0,0,0,0,0,0],"sum_hessian":[3.6041E4,1.0904E4,2.5137E4,1.109E3,9.795E3,1.2554E4,1.2583E4,1.018E3,9.1E1,9.587E3,2.08E2,1.1332E4,1.222E3,2.814E3,9.769E3],"tree_param":{"num_deleted":"0","num_feature":"4","num_nodes":"15","size_leaf_vector":"1"}},{"base_weights":[-3.034349E-4,2.4540994E-2,-1.653166E-3,8.948909E-3,7.404855E-2,-1.8054534E-2,7.913352E-5,5.839354E-3,4.3622043E-4,1.2633711E-2,7.2228056E-3,-1.6265361E-3,-4.562829E-3,1.7242016E-3,-5.112917E-4],"categories":[],"categories_nodes":[],"categories_segments":[],"categories_sizes":[],"default_left":[0,0,0,0,0,0,0,0,0,0,0,0,0,0,0],"id":29,"left_children":[1,3,5,7,9,11,13,-1,-1,-1,-1,-1,-1,-1,-1],"loss_changes":[1.2013375E0,1.4243127E0,9.6541536E-1,2.8251976E-1,1.8364835E-1,3.062135E-1,1.6257569E0,0E0,0E0,0E0,0E0,0E0,0E0,0E0,0E0],"parents":[2147483647,0,0,1,1,2,2,3,3,4,4,5,5,6,6],"right_children":[2,4,6,8,10,12,14,-1,-1,-1,-1,-1,-1,-1,-1],"split_conditions":[6E0,8.1E1,9.7E1,2E0,1.3E1,1.7E1,2.9E1,5.839354E-3,4.3622043E-4,1.2633711E-2,7.2228056E-3,-1.6265361E-3,-4.562829E-3,1.7242016E-3,-5.112917E-4],"split_indices":[1,0,0,1,2,1,1,0,0,0,0,0,0,0,0],"split_type":[0,0,0,0,0,0,0,0,0,0,0,0,0,0,0],"sum_hessian":[3.5823E4,1.845E3,3.3978E4,1.404E3,4.41E2,3.245E3,3.0733E4,1.88E2,1.216E3,1.94E2,2.47E2,2.45E3,7.95E2,7.17E3,2.3563E4],"tree_param":{"num_deleted":"0","num_feature":"4","num_nodes":"15","size_leaf_vector":"1"}},{"base_weights":[2.2529995E-4,3.8300613E-3,-6.925801E-3,-1.8597756E-3,1.260045E-2,-1.602233E-2,-4.5852963E-4,1.3294892E-3,-8.3498936E-4,6.9297696E-3,1.2280133E-3,-1.3488644E-3,-2.8949755E-3,7.3453924E-4,-1.2814859E-3],"categories":[],"categories_nodes":[],"categories_segments":[],"categories_sizes":[],"default_left":[0,0,0,0,0,0,0,0,0,0,0,0,0,0,0],"id":30,"left_children":[1,3,5,7,9,11,13,-1,-1,-1,-1,-1,-1,-1,-1],"loss_changes":[9.2514783E-1,1.190737E0,7.0759666E-1,7.983078E-1,1.2049776E0,1.760571E-1,4.0375632E-1,0E0,0E0,0E0,0E0,0E0,0E0,0E0,0E0],"parents":[2147483647,0,0,1,1,2,2,3,3,4,4,5,5,6,6],"right_children":[2,4,6,8,10,12,14,-1,-1,-1,-1,-1,-1,-1,-1],"split_conditions":[6.4E1,2.66E2,4.31E2,1.1E1,1.8E1,8.7E1,1.21E2,1.3294892E-3,-8.3498936E-4,6.9297696E-3,1.2280133E-3,-1.3488644E-3,-2.8949755E-3,7.3453924E-4,-1.2814859E-3],"split_indices":[1,0,0,1,1,1,1,0,0,0,0,0,0,0,0],"split_type":[0,0,0,0,0,0,0,0,0,0,0,0,0,0,0],"sum_hessian":[3.5887E4,2.386E4,1.2027E4,1.4472E4,9.388E3,4.997E3,7.03E3,3.966E3,1.0506E4,6.74E2,8.714E3,2.626E3,2.371E3,4.261E3,2.769E3],"tree_param":{"num_deleted":"0","num_feature":"4","num_nodes":"15","size_leaf_vector":"1"}},{"base_weights":[4.4578622E-4,3.60363E-3,-6.3981456E-3,-3.5699375E-3,1.0396643E-2,-2.156367E-2,-2.6546973E-3,1.8976516E-3,-8.672036E-4,6.177044E-3,1.0350315E-3,-2.1079192E-3,-5.1971334E-3,2.3195013E-5,-2.1124305E-3],"categories":[],"categories_nodes":[],"categories_segments":[],"categories_sizes":[],"default_left":[0,0,0,0,0,0,0,0,0,0,0,0,0,0,0],"id":31,"left_children":[1,3,5,7,9,11,13,-1,-1,-1,-1,-1,-1,-1,-1],"loss_changes":[7.7836007E-1,1.2009425E0,6.454898E-1,6.7537427E-1,1.1436497E0,2.2106683E-1,3.5130388E-1,0E0,0E0,0E0,0E0,0E0,0E0,0E0,0E0],"parents":[2147483647,0,0,1,1,2,2,3,3,4,4,5,5,6,6],"right_children":[2,4,6,8,10,12,14,-1,-1,-1,-1,-1,-1,-1,-1],"split_conditions":[6.7E1,2.14E2,3.48E2,6E0,1.6E1,8E0,1.51E2,1.8976516E-3,-8.672036E-4,6.177044E-3,1.0350315E-3,-2.1079192E-3,-5.1971334E-3,2.3195013E-5,-2.1124305E-3],"split_indices":[1,0,0,1,1,2,1,0,0,0,0,0,0,0,0],"split_type":[0,0,0,0,0,0,0,0,0,0,0,0,0,0,0],"sum_hessian":[3.6013E4,2.4643E4,1.137E4,1.1986E4,1.2657E4,2.25E3,9.12E3,1.747E3,1.0239E4,7.78E2,1.1879E4,1.745E3,5.05E2,7.548E3,1.572E3],"tree_param":{"num_deleted":"0","num_feature":"4","num_nodes":"15","size_leaf_vector":"1"}},{"base_weights":[3.586892E-4,3.8913242E-3,-5.003662E-3,-4.2625843E-3,1.03183845E-2,-1.2892982E-2,-4.9468287E-4,2.0361058E-3,-9.470866E-4,7.1036243E-3,1.07717E-3,-1.3373928E-3,-3.1148747E-3,6.852232E-4,-7.898832E-4],"categories":[],"categories_nodes":[],"categories_segments":[],"categories_sizes":[],"default_left":[0,0,0,0,0,0,0,0,0,0,0,0,0,0,0],"id":32,"left_children":[1,3,5,7,9,11,13,-1,-1,-1,-1,-1,-1,-1,-1],"loss_changes":[6.833207E-1,1.1396575E0,5.096091E-1,5.7745075E-1,1.0951144E0,1.4998335E-1,2.934167E-1,0E0,0E0,0E0,0E0,0E0,0E0,0E0,0E0],"parents":[2147483647,0,0,1,1,2,2,3,3,4,4,5,5,6,6],"right_children":[2,4,6,8,10,12,14,-1,-1,-1,-1,-1,-1,-1,-1],"split_conditions":[5.6E1,1.77E2,3.99E2,5E0,1.2E1,9E0,1.01E2,2.0361058E-3,-9.470866E-4,7.1036243E-3,1.07717E-3,-1.3373928E-3,-3.1148747E-3,6.852232E-4,-7.898832E-4],"split_indices":[1,0,0,1,1,2,1,0,0,0,0,0,0,0,0],"split_type":[0,0,0,0,0,0,0,0,0,0,0,0,0,0,0],"sum_hessian":[3.607E4,2.1745E4,1.4325E4,9.585E3,1.216E4,5.209E3,9.116E3,1.262E3,8.323E3,5.32E2,1.1628E4,4.218E3,9.91E2,4.484E3,4.632E3],"tree_param":{"num_deleted":"0","num_feature":"4","num_nodes":"15","size_leaf_vector":"1"}},{"base_weights":[-2.4885504E-4,7.890379E-3,-2.0098854E-3,-3.691857E-3,2.4719318E-2,-1.6266093E-2,-4.8091143E-4,-1.7707552E-3,2.5901166E-4,6.9255424E-3,2.135361E-3,-1.5385596E-3,-3.8814156E-3,9.572329E-4,-3.2410581E-4],"categories":[],"categories_nodes":[],"categories_segments":[],"categories_sizes":[],"default_left":[0,0,0,0,0,0,0,0,0,0,0,0,0,0,0],"id":33,"left_children":[1,3,5,7,9,11,13,-1,-1,-1,-1,-1,-1,-1,-1],"loss_changes":[5.1587635E-1,1.2479483E0,6.4495456E-1,2.1410738E-1,6.172049E-1,1.7224228E-1,4.21837E-1,0E0,0E0,0E0,0E0,0E0,0E0,0E0,0E0],"parents":[2147483647,0,0,1,1,2,2,3,3,4,4,5,5,6,6],"right_children":[2,4,6,8,10,12,14,-1,-1,-1,-1,-1,-1,-1,-1],"split_conditions":[1.6E1,9.7E1,1.45E2,4.3E1,8E0,9E0,3.4E1,-1.7707552E-3,2.5901166E-4,6.9255424E-3,2.135361E-3,-1.5385596E-3,-3.8814156E-3,9.572329E-4,-3.2410581E-4],"split_indices":[1,0,0,0,1,2,1,0,0,0,0,0,0,0,0],"split_type":[0,0,0,0,0,0,0,0,0,0,0,0,0,0,0],"sum_hessian":[3.5989E4,6.401E3,2.9588E4,3.792E3,2.609E3,2.865E3,2.6723E4,1.38E3,2.412E3,5.86E2,2.023E3,2.162E3,7.03E2,5.455E3,2.1268E4],"tree_param":{"num_deleted":"0","num_feature":"4","num_nodes":"15","size_leaf_vector":"1"}},{"base_weights":[-1.4291373E-4,6.263808E-3,-2.3511366E-3,-1.8153227E-3,1.8336942E-2,-5.547351E-3,5.9080366E-3,1.8710854E-3,-5.872703E-4,5.940548E-3,1.6396977E-3,-4.6082816E-4,-1.9853723E-3,1.0493428E-3,-1.8994247E-3],"categories":[],"categories_nodes":[],"categories_segments":[],"categories_sizes":[],"default_left":[0,0,0,0,0,0,0,0,0,0,0,0,0,0,0],"id":34,"left_children":[1,3,5,7,9,11,13,-1,-1,-1,-1,-1,-1,-1,-1],"loss_changes":[5.071732E-1,8.963323E-1,7.0380586E-1,2.4121174E-1,5.7634914E-1,3.742748E-1,3.304068E-1,0E0,0E0,0E0,0E0,0E0,0E0,0E0,0E0],"parents":[2147483647,0,0,1,1,2,2,3,3,4,4,5,5,6,6],"right_children":[2,4,6,8,10,12,14,-1,-1,-1,-1,-1,-1,-1,-1],"split_conditions":[2.2E1,1.27E2,4.77E2,4E0,1E1,9E1,1.71E2,1.8710854E-3,-5.872703E-4,5.940548E-3,1.6396977E-3,-4.6082816E-4,-1.9853723E-3,1.0493428E-3,-1.8994247E-3],"split_indices":[1,0,0,1,1,1,1,0,0,0,0,0,0,0,0],"split_type":[0,0,0,0,0,0,0,0,0,0,0,0,0,0,0],"sum_hessian":[3.5847E4,9.188E3,2.6659E4,5.505E3,3.683E3,1.9221E4,7.438E3,7.86E2,4.719E3,6.36E2,3.047E3,1.594E4,3.281E3,6.729E3,7.09E2],"tree_param":{"num_deleted":"0","num_feature":"4","num_nodes":"15","size_leaf_vector":"1"}},{"base_weights":[2.5216478E-4,-6.3432236E-3,1.98127E-3,-2.1373415E-2,-4.799352E-3,1.0274614E-3,1.4139749E-2,-1.3417436E-3,-3.300174E-3,-8.3395164E-4,9.2592396E-5,3.17539E-4,-1.2913471E-3,6.1331987E-3,1.3008715E-3],"categories":[],"categories_nodes":[],"categories_segments":[],"categories_sizes":[],"default_left":[0,0,0,0,0,0,0,0,0,0,0,0,0,0,0],"id":35,"left_children":[1,3,5,7,9,11,13,-1,-1,-1,-1,-1,-1,-1,-1],"loss_changes":[4.0804055E-1,1.7235464E-1,3.2873327E-1,3.0426651E-2,6.0032338E-2,4.0776923E-1,2.8109488E-1,0E0,0E0,0E0,0E0,0E0,0E0,0E0,0E0],"parents":[2147483647,0,0,1,1,2,2,3,3,4,4,5,5,6,6],"right_children":[2,4,6,8,10,12,14,-1,-1,-1,-1,-1,-1,-1,-1],"split_conditions":[4.9E-1,3.2E-1,5.58E2,4E0,4.71E2,9.6E1,3.8E1,-1.3417436E-3,-3.300174E-3,-8.3395164E-4,9.2592396E-5,3.17539E-4,-1.2913471E-3,6.1331987E-3,1.3008715E-3],"split_indices":[3,3,0,2,0,1,1,0,0,0,0,0,0,0,0],"split_type":[0,0,0,0,0,0,0,0,0,0,0,0,0,0,0],"sum_hessian":[3.5778E4,7.431E3,2.8347E4,6.91E2,6.74E3,2.6286E4,2.061E3,1.85E2,5.06E2,5.212E3,1.528E3,2.3281E4,3.005E3,2.28E2,1.833E3],"tree_param":{"num_deleted":"0","num_feature":"4","num_nodes":"15","size_leaf_vector":"1"}},{"base_weights":[-1.6929109E-4,1.9991888E-2,-7.1292627E-4,1.5826481E-3,4.4413038E-2,-1.3719337E-2,4.177905E-4,7.913144E-3,-1.8301187E-4,7.5517674E-3,3.3493114E-3,-1.2427855E-3,-3.7849345E-3,1.0011891E-3,-2.8141288E-4],"categories":[],"categories_nodes":[],"categories_segments":[],"categories_sizes":[],"default_left":[0,0,0,0,0,0,0,0,0,0,0,0,0,0,0],"id":36,"left_children":[1,3,5,7,9,11,13,-1,-1,-1,-1,-1,-1,-1,-1],"loss_changes":[3.953094E-1,4.256771E-1,5.1650035E-1,9.6002735E-2,1.0231793E-1,1.7960149E-1,6.0780865E-1,0E0,0E0,0E0,0E0,0E0,0E0,0E0,0E0],"parents":[2147483647,0,0,1,1,2,2,3,3,4,4,5,5,6,6],"right_children":[2,4,6,8,10,12,14,-1,-1,-1,-1,-1,-1,-1,-1],"split_conditions":[4E0,4.5E1,7.7E1,1E0,1.4E1,1.4E1,2.9E1,7.913144E-3,-1.8301187E-4,7.5517674E-3,3.3493114E-3,-1.2427855E-3,-3.7849345E-3,1.0011891E-3,-2.8141288E-4],"split_indices":[1,0,0,1,2,1,1,0,0,0,0,0,0,0,0],"split_type":[0,0,0,0,0,0,0,0,0,0,0,0,0,0,0],"sum_hessian":[3.6065E4,9.46E2,3.5119E4,5.4E2,4.06E2,2.808E3,3.2311E4,2.5E1,5.15E2,2.33E2,1.73E2,2.212E3,5.96E2,8.457E3,2.3854E4],"tree_param":{"num_deleted":"0","num_feature":"4","num_nodes":"15","size_leaf_vector":"1"}},{"base_weights":[-1.3173417E-4,-2.5487517E-3,4.292295E-3,5.3215767E-3,-5.168615E-3,2.4110036E-2,1.4286392E-3,-2.2419779E-4,2.5586637E-3,-1.8184396E-3,-3.9923785E-4,5.537063E-3,2.3751494E-3,5.855319E-4,-7.7096233E-4],"categories":[],"categories_nodes":[],"categories_segments":[],"categories_sizes":[],"default_left":[0,0,0,0,0,0,0,0,0,0,0,0,0,0,0],"id":37,"left_children":[1,3,5,7,9,11,13,-1,-1,-1,-1,-1,-1,-1,-1],"loss_changes":[3.8714942E-1,4.8280507E-1,7.2592676E-1,5.9177125E-1,3.2493132E-1,1.735335E-1,2.5301412E-1,0E0,0E0,0E0,0E0,0E0,0E0,0E0,0E0],"parents":[2147483647,0,0,1,1,2,2,3,3,4,4,5,5,6,6],"right_children":[2,4,6,8,10,12,14,-1,-1,-1,-1,-1,-1,-1,-1],"split_conditions":[3.97E2,1.5E1,3.8E1,1.07E2,1.52E2,2.2E1,1.18E2,-2.2419779E-4,2.5586637E-3,-1.8184396E-3,-3.9923785E-4,5.537063E-3,2.3751494E-3,5.855319E-4,-7.7096233E-4],"split_indices":[0,1,1,0,0,1,1,0,0,0,0,0,0,0,0],"split_type":[0,0,0,0,0,0,0,0,0,0,0,0,0,0,0],"sum_hessian":[3.6204E4,2.3413E4,1.2791E4,5.847E3,1.7566E4,1.614E3,1.1177E4,3.923E3,1.924E3,3.374E3,1.4192E4,3.86E2,1.228E3,7.883E3,3.294E3],"tree_param":{"num_deleted":"0","num_feature":"4","num_nodes":"15","size_leaf_vector":"1"}},{"base_weights":[9.06621E-5,-2.1943687E-3,3.7056687E-3,-2.9579236E-5,-9.370632E-3,2.2200078E-2,1.358416E-3,4.3557286E-3,-6.969729E-5,-2.7149632E-3,-8.84795E-4,6.218146E-3,2.3148356E-3,5.798831E-4,-8.2724035E-4],"categories":[],"categories_nodes":[],"categories_segments":[],"categories_sizes":[],"default_left":[0,0,0,0,0,0,0,0,0,0,0,0,0,0,0],"id":38,"left_children":[1,3,5,7,9,11,13,-1,-1,-1,-1,-1,-1,-1,-1],"loss_changes":[2.971513E-1,3.424088E-1,6.047726E-1,2.876822E-1,1.5068218E-1,1.7584473E-1,2.9620504E-1,0E0,0E0,0E0,0E0,0E0,0E0,0E0,0E0],"parents":[2147483647,0,0,1,1,2,2,3,3,4,4,5,5,6,6],"right_children":[2,4,6,8,10,12,14,-1,-1,-1,-1,-1,-1,-1,-1],"split_conditions":[3.77E2,5.2E1,3.5E1,2E0,2.3E2,1.7E1,1.16E2,4.3557286E-3,-6.969729E-5,-2.7149632E-3,-8.84795E-4,6.218146E-3,2.3148356E-3,5.798831E-4,-8.2724035E-4],"split_indices":[0,1,1,1,0,1,1,0,0,0,0,0,0,0,0],"split_type":[0,0,0,0,0,0,0,0,0,0,0,0,0,0,0],"sum_hessian":[3.5971E4,2.204E4,1.3931E4,1.6933E4,5.107E3,1.568E3,1.2363E4,2.51E2,1.6682E4,9.29E2,4.178E3,2.28E2,1.34E3,8.82E3,3.543E3],"tree_param":{"num_deleted":"0","num_feature":"4","num_nodes":"15","size_leaf_vector":"1"}},{"base_weights":[-8.542416E-5,-1.29862735E-2,6.3746586E-4,-1.632402E-2,-9.133135E-3,-1.0137833E-3,5.728151E-3,-4.2989813E-3,-2.0179907E-3,-1.8926226E-3,-6.5391866E-4,7.338024E-4,-3.8159947E-4,5.203831E-3,5.8318704E-4],"categories":[],"categories_nodes":[],"categories_segments":[],"categories_sizes":[],"default_left":[0,0,0,0,0,0,0,0,0,0,0,0,0,0,0],"id":39,"left_children":[1,3,5,7,9,11,13,-1,-1,-1,-1,-1,-1,-1,-1],"loss_changes":[3.3727926E-1,2.4530798E-2,2.8788576E-1,1.3261914E-2,1.9805647E-2,3.3089003E-1,3.5719582E-1,0E0,0E0,0E0,0E0,0E0,0E0,0E0,0E0],"parents":[2147483647,0,0,1,1,2,2,3,3,4,4,5,5,6,6],"right_children":[2,4,6,8,10,12,14,-1,-1,-1,-1,-1,-1,-1,-1],"split_conditions":[3.8E-1,3.4E-1,4.6E2,2E-1,6.1E1,1.5E1,2.5E1,-4.2989813E-3,-2.0179907E-3,-1.8926226E-3,-6.5391866E-4,7.338024E-4,-3.8159947E-4,5.203831E-3,5.8318704E-4],"split_indices":[3,3,0,3,1,1,1,0,0,0,0,0,0,0,0],"split_type":[0,0,0,0,0,0,0,0,0,0,0,0,0,0,0],"sum_hessian":[3.6164E4,1.918E3,3.4246E4,1.026E3,8.92E2,2.5859E4,8.387E3,4.5E1,9.81E2,3.83E2,5.09E2,5.791E3,2.0068E4,2.92E2,8.095E3],"tree_param":{"num_deleted":"0","num_feature":"4","num_nodes":"15","size_leaf_vector":"1"}},{"base_weights":[5.077511E-4,-8.921803E-3,1.2512779E-3,6.1904866E-2,-1.00071775E-2,2.4251688E-2,2.516572E-4,1.1138359E-2,2.1538644E-3,-7.573753E-4,-2.8959224E-3,1.9892054E-3,5.0024264E-3,-3.027918E-4,4.0565114E-4],"categories":[],"categories_nodes":[],"categories_segments":[],"categories_sizes":[],"default_left":[0,0,0,0,0,0,0,0,0,0,0,0,0,0,0],"id":40,"left_children":[1,3,5,7,9,11,13,-1,-1,-1,-1,-1,-1,-1,-1],"loss_changes":[2.5334418E-1,2.0364237E-1,7.7005434E-1,4.1695297E-2,1.3335261E-1,1.7705995E-1,2.3765883E-1,0E0,0E0,0E0,0E0,0E0,0E0,0E0,0E0],"parents":[2147483647,0,0,1,1,2,2,3,3,4,4,5,5,6,6],"right_children":[2,4,6,8,10,12,14,-1,-1,-1,-1,-1,-1,-1,-1],"split_conditions":[6.3E1,1E0,9E0,1.5E1,1E1,1.22E2,3.56E2,1.1138359E-2,2.1538644E-3,-7.573753E-4,-2.8959224E-3,1.9892054E-3,5.0024264E-3,-3.027918E-4,4.0565114E-4],"split_indices":[0,1,1,2,1,0,0,0,0,0,0,0,0,0,0],"split_type":[0,0,0,0,0,0,0,0,0,0,0,0,0,0,0],"sum_hessian":[3.6132E4,2.64E3,3.3492E4,3.9E1,2.601E3,1.394E3,3.2098E4,2.5E1,1.4E1,1.941E3,6.6E2,8.57E2,5.37E2,1.6897E4,1.5201E4],"tree_param":{"num_deleted":"0","num_feature":"4","num_nodes":"15","size_leaf_vector":"1"}},{"base_weights":[-1.0800731E-4,1.3585265E-3,-5.363521E-3,-2.88389E-3,4.9532796E-3,-1.1008102E-2,-1.8813662E-4,2.7035524E-3,-5.005572E-4,2.40715E-3,5.265948E-4,-8.740005E-4,-3.0613905E-3,2.4602737E-4,-2.7880436E-3],"categories":[],"categories_nodes":[],"categories_segments":[],"categories_sizes":[],"default_left":[0,0,0,0,0,0,0,0,0,0,0,0,0,0,0],"id":41,"left_children":[1,3,5,7,9,11,13,-1,-1,-1,-1,-1,-1,-1,-1],"loss_changes":[2.7940786E-1,4.322575E-1,2.310426E-1,2.9765138E-1,1.8774673E-1,2.031351E-1,1.8258315E-1,0E0,0E0,0E0,0E0,0E0,0E0,0E0,0E0],"parents":[2147483647,0,0,1,1,2,2,3,3,4,4,5,5,6,6],"right_children":[2,4,6,8,10,12,14,-1,-1,-1,-1,-1,-1,-1,-1],"split_conditions":[8.5E1,2.28E2,4.75E2,3E0,1.8E1,8E0,1.9E2,2.7035524E-3,-5.005572E-4,2.40715E-3,5.265948E-4,-8.740005E-4,-3.0613905E-3,2.4602737E-4,-2.7880436E-3],"split_indices":[1,0,0,1,1,2,1,0,0,0,0,0,0,0,0],"split_type":[0,0,0,0,0,0,0,0,0,0,0,0,0,0,0],"sum_hessian":[3.625E4,2.8342E4,7.908E3,1.3E4,1.5342E4,3.782E3,4.126E3,5.09E2,1.2491E4,9.56E2,1.4386E4,2.82E3,9.62E2,3.759E3,3.67E2],"tree_param":{"num_deleted":"0","num_feature":"4","num_nodes":"15","size_leaf_vector":"1"}},{"base_weights":[3.4686405E-4,-1.519472E-2,7.891812E-4,-1.2216716E-2,-4.196359E-2,1.4366645E-2,-1.6189425E-4,8.790227E-4,-2.364765E-3,3.998339E-3,-6.80517E-3,1.1079462E-3,3.8604655E-3,-8.374965E-4,2.3113556E-4],"categories":[],"categories_nodes":[],"categories_segments":[],"categories_sizes":[],"default_left":[0,0,0,0,0,0,0,0,0,0,0,0,0,0,0],"id":42,"left_children":[1,3,5,7,9,11,13,-1,-1,-1,-1,-1,-1,-1,-1],"loss_changes":[2.4667594E-1,7.864709E-2,4.5054364E-1,1.0159184E-1,7.6366484E-2,2.0435634E-1,3.972649E-1,0E0,0E0,0E0,0E0,0E0,0E0,0E0,0E0],"parents":[2147483647,0,0,1,1,2,2,3,3,4,4,5,5,6,6],"right_children":[2,4,6,8,10,12,14,-1,-1,-1,-1,-1,-1,-1,-1],"split_conditions":[3.6E1,7.8E-1,9E0,3E0,1E0,1.11E2,1.94E2,8.790227E-4,-2.364765E-3,3.998339E-3,-6.80517E-3,1.1079462E-3,3.8604655E-3,-8.374965E-4,2.3113556E-4],"split_indices":[0,3,1,1,1,0,0,0,0,0,0,0,0,0,0],"split_type":[0,0,0,0,0,0,0,0,0,0,0,0,0,0,0],"sum_hessian":[3.5881E4,9.92E2,3.4889E4,8.94E2,9.8E1,2.283E3,3.2606E4,2.14E2,6.8E2,1.2E1,8.6E1,1.654E3,6.29E2,7.694E3,2.4912E4],"tree_param":{"num_deleted":"0","num_feature":"4","num_nodes":"15","size_leaf_vector":"1"}},{"base_weights":[7.458497E-5,3.9979033E-3,-1.8450307E-3,-2.1583803E-3,9.393977E-3,-1.6915202E-2,-9.657258E-4,-2.9223969E-3,-1.2071662E-4,2.788115E-3,8.8981795E-4,-1.3940439E-3,-4.3212594E-3,-2.9448656E-5,-1.1402168E-3],"categories":[],"categories_nodes":[],"categories_segments":[],"categories_sizes":[],"default_left":[0,0,0,0,0,0,0,0,0,0,0,0,0,0,0],"id":43,"left_children":[1,3,5,7,9,11,13,-1,-1,-1,-1,-1,-1,-1,-1],"loss_changes":[2.7263156E-1,3.951028E-1,3.2208246E-1,1.3883087E-1,1.9459426E-1,1.350941E-1,1.325134E-1,0E0,0E0,0E0,0E0,0E0,0E0,0E0,0E0],"parents":[2147483647,0,0,1,1,2,2,3,3,4,4,5,5,6,6],"right_children":[2,4,6,8,10,12,14,-1,-1,-1,-1,-1,-1,-1,-1],"split_conditions":[2.8E1,1.14E2,1.61E2,2.5E1,1.2E1,8E0,1.43E2,-2.9223969E-3,-1.2071662E-4,2.788115E-3,8.8981795E-4,-1.3940439E-3,-4.3212594E-3,-2.9448656E-5,-1.1402168E-3],"split_indices":[1,0,0,0,1,2,1,0,0,0,0,0,0,0,0],"split_type":[0,0,0,0,0,0,0,0,0,0,0,0,0,0,0],"sum_hessian":[3.6198E4,1.1892E4,2.4306E4,5.555E3,6.337E3,1.339E3,2.2967E4,3.16E2,5.239E3,1.105E3,5.232E3,9.72E2,3.67E2,2.0981E4,1.986E3],"tree_param":{"num_deleted":"0","num_feature":"4","num_nodes":"15","size_leaf_vector":"1"}},{"base_weights":[-1.484391E-4,-2.3989873E-3,2.32941E-3,-1.069515E-3,-1.3997668E-2,1.6597982E-2,9.923809E-4,2.8415234E-3,-1.7908173E-4,-1.026385E-3,-4.612426E-3,3.6173274E-3,1.1581811E-3,4.755892E-4,-2.3996341E-4],"categories":[],"categories_nodes":[],"categories_segments":[],"categories_sizes":[],"default_left":[0,0,0,0,0,0,0,0,0,0,0,0,0,0,0],"id":44,"left_children":[1,3,5,7,9,11,13,-1,-1,-1,-1,-1,-1,-1,-1],"loss_changes":[2.0034762E-1,2.9029974E-1,3.262087E-1,1.193295E-1,2.5351974E-1,1.2622255E-1,1.18320875E-1,0E0,0E0,0E0,0E0,0E0,0E0,0E0,0E0],"parents":[2147483647,0,0,1,1,2,2,3,3,4,4,5,5,6,6],"right_children":[2,4,6,8,10,12,14,-1,-1,-1,-1,-1,-1,-1,-1],"split_conditions":[3.26E2,6.5E1,2.9E1,2E0,8E0,1.1E1,8.2E1,2.8415234E-3,-1.7908173E-4,-1.026385E-3,-4.612426E-3,3.6173274E-3,1.1581811E-3,4.755892E-4,-2.3996341E-4],"split_indices":[0,1,1,1,2,2,1,0,0,0,0,0,0,0,0],"split_type":[0,0,0,0,0,0,0,0,0,0,0,0,0,0,0],"sum_hessian":[3.5925E4,1.8826E4,1.7099E4,1.6891E4,1.935E3,1.464E3,1.5635E4,2.23E2,1.6668E4,1.508E3,4.27E2,5.94E2,8.7E2,8.062E3,7.573E3],"tree_param":{"num_deleted":"0","num_feature":"4","num_nodes":"15","size_leaf_vector":"1"}},{"base_weights":[-8.818144E-5,1.2767405E-3,-3.8535914E-3,-1.0635155E-2,2.0142624E-3,-1.9799551E-2,-2.3839972E-3,-2.6715512E-4,-2.0442156E-3,2.0824703E-3,1.690184E-4,-1.254744E-3,-6.436251E-3,3.575323E-5,-1.4375007E-3],"categories":[],"categories_nodes":[],"categories_segments":[],"categories_sizes":[],"default_left":[0,0,0,0,0,0,0,0,0,0,0,0,0,0,0],"id":45,"left_children":[1,3,5,7,9,11,13,-1,-1,-1,-1,-1,-1,-1,-1],"loss_changes":[1.8637827E-1,2.338505E-1,2.260449E-1,6.774227E-2,2.506562E-1,2.4493346E-1,2.0376962E-1,0E0,0E0,0E0,0E0,0E0,0E0,0E0,0E0],"parents":[2147483647,0,0,1,1,2,2,3,3,4,4,5,5,6,6],"right_children":[2,4,6,8,10,12,14,-1,-1,-1,-1,-1,-1,-1,-1],"split_conditions":[7.6E1,4.5E1,3.03E2,4E0,7E0,7E0,9E0,-2.6715512E-4,-2.0442156E-3,2.0824703E-3,1.690184E-4,-1.254744E-3,-6.436251E-3,3.575323E-5,-1.4375007E-3],"split_indices":[1,0,0,1,1,2,2,0,0,0,0,0,0,0,0],"split_type":[0,0,0,0,0,0,0,0,0,0,0,0,0,0,0],"sum_hessian":[3.6262E4,2.6615E4,9.647E3,1.551E3,2.5064E4,8.13E2,8.834E3,5.78E2,9.73E2,1.215E3,2.3849E4,6.07E2,2.06E2,6.762E3,2.072E3],"tree_param":{"num_deleted":"0","num_feature":"4","num_nodes":"15","size_leaf_vector":"1"}},{"base_weights":[-4.918058E-4,-1.0237128E-3,7.198722E-3,-2.9878548E-4,-7.3362915E-3,2.421323E-2,4.493093E-3,-5.8644114E-4,1.1116045E-4,-3.4728754E-4,-3.2543284E-3,2.3858086E-3,6.343609E-3,6.914004E-4,-2.2005646E-3],"categories":[],"categories_nodes":[],"categories_segments":[],"categories_sizes":[],"default_left":[0,0,0,0,0,0,0,0,0,0,0,0,0,0,0],"id":46,"left_children":[1,3,5,7,9,11,13,-1,-1,-1,-1,-1,-1,-1,-1],"loss_changes":[1.4758965E-1,1.5442035E-1,1.0733676E-1,1.4712907E-1,2.868903E-1,4.5210674E-2,3.571498E-2,0E0,0E0,0E0,0E0,0E0,0E0,0E0,0E0],"parents":[2147483647,0,0,1,1,2,2,3,3,4,4,5,5,6,6],"right_children":[2,4,6,8,10,12,14,-1,-1,-1,-1,-1,-1,-1,-1],"split_conditions":[5.63E2,1.11E2,4.7E1,1.25E2,8E0,8.3E-1,2.19E2,-5.8644114E-4,1.1116045E-4,-3.4728754E-4,-3.2543284E-3,2.3858086E-3,6.343609E-3,6.914004E-4,-2.2005646E-3],"split_indices":[0,1,1,0,2,3,1,0,0,0,0,0,0,0,0],"split_type":[0,0,0,0,0,0,0,0,0,0,0,0,0,0,0],"sum_hessian":[3.6077E4,3.3744E4,2.333E3,3.0269E4,3.475E3,3.19E2,2.014E3,6.508E3,2.3761E4,2.751E3,7.24E2,2.59E2,6E1,1.94E3,7.4E1],"tree_param":{"num_deleted":"0","num_feature":"4","num_nodes":"15","size_leaf_vector":"1"}},{"base_weights":[3.215261E-4,3.6380626E-3,-1.0581324E-3,-5.919304E-3,6.783069E-3,-9.0388125E-3,3.5425997E-4,2.251273E-4,-1.9979717E-3,6.629767E-4,2.18329E-3,-6.1934534E-4,-2.9213775E-3,-1.5087875E-4,5.11468E-4],"categories":[],"categories_nodes":[],"categories_segments":[],"categories_sizes":[],"default_left":[0,0,0,0,0,0,0,0,0,0,0,0,0,0,0],"id":47,"left_children":[1,3,5,7,9,11,13,-1,-1,-1,-1,-1,-1,-1,-1],"loss_changes":[1.6515872E-1,3.1877497E-1,2.8733397E-1,1.89887E-1,1.343748E-1,2.199927E-1,1.1746967E-1,0E0,0E0,0E0,0E0,0E0,0E0,0E0,0E0],"parents":[2147483647,0,0,1,1,2,2,3,3,4,4,5,5,6,6],"right_children":[2,4,6,8,10,12,14,-1,-1,-1,-1,-1,-1,-1,-1],"split_conditions":[2.5E1,6.3E1,2.12E2,7E0,3.1E2,9E0,4.93E2,2.251273E-4,-1.9979717E-3,6.629767E-4,2.18329E-3,-6.1934534E-4,-2.9213775E-3,-1.5087875E-4,5.11468E-4],"split_indices":[1,0,0,1,0,2,0,0,0,0,0,0,0,0,0],"split_type":[0,0,0,0,0,0,0,0,0,0,0,0,0,0,0],"sum_hessian":[3.6093E4,1.0603E4,2.549E4,2.625E3,7.978E3,3.832E3,2.1658E4,1.451E3,1.174E3,6.831E3,1.147E3,2.908E3,9.24E2,1.5219E4,6.439E3],"tree_param":{"num_deleted":"0","num_feature":"4","num_nodes":"15","size_leaf_vector":"1"}},{"base_weights":[-1.3827272E-4,3.8824484E-4,-8.539651E-3,-9.5778826E-4,4.7331676E-3,-1.6822678E-3,-2.5063017E-2,4.1386378E-5,-7.7252433E-4,2.6415964E-3,4.319737E-4,4.9397626E-5,-2.8650083E-3,-2.3715212E-3,-6.628403E-3],"categories":[],"categories_nodes":[],"categories_segments":[],"categories_sizes":[],"default_left":[0,0,0,0,0,0,0,0,0,0,0,0,0,0,0],"id":48,"left_children":[1,3,5,7,9,11,13,-1,-1,-1,-1,-1,-1,-1,-1],"loss_changes":[1.5908909E-1,1.9793813E-1,2.402821E-1,1.6437551E-1,1.7589808E-1,6.297791E-2,1.0905224E-1,0E0,0E0,0E0,0E0,0E0,0E0,0E0,0E0],"parents":[2147483647,0,0,1,1,2,2,3,3,4,4,5,5,6,6],"right_children":[2,4,6,8,10,12,14,-1,-1,-1,-1,-1,-1,-1,-1],"split_conditions":[1.4E2,4.44E2,7E0,6.4E1,3.2E1,2.19E2,6.6E-1,4.1386378E-5,-7.7252433E-4,2.6415964E-3,4.319737E-4,4.9397626E-5,-2.8650083E-3,-2.3715212E-3,-6.628403E-3],"split_indices":[1,0,2,1,1,1,3,0,0,0,0,0,0,0,0],"split_type":[0,0,0,0,0,0,0,0,0,0,0,0,0,0,0],"sum_hessian":[3.5963E4,3.3843E4,2.12E3,2.5839E4,8.004E3,1.499E3,6.21E2,2.0573E4,5.266E3,6.63E2,7.341E3,1.362E3,1.37E2,4.93E2,1.28E2],"tree_param":{"num_deleted":"0","num_feature":"4","num_nodes":"15","size_leaf_vector":"1"}},{"base_weights":[3.7166453E-4,1.2296647E-2,5.0707877E-5,-2.4319475E-4,2.7545193E-2,-4.9283234E-3,8.7671075E-4,1.5942375E-3,-1.4036768E-3,5.657043E-3,1.1615654E-3,-1.8950831E-4,-2.0112062E-3,2.5240069E-3,5.083642E-5],"categories":[],"categories_nodes":[],"categories_segments":[],"categories_sizes":[],"default_left":[0,0,0,0,0,0,0,0,0,0,0,0,0,0,0],"id":49,"left_children":[1,3,5,7,9,11,13,-1,-1,-1,-1,-1,-1,-1,-1],"loss_changes":[1.3785474E-1,1.8051308E-1,1.4425707E-1,6.86395E-2,1.2622371E-1,1.825903E-1,2.70864E-1,0E0,0E0,0E0,0E0,0E0,0E0,0E0,0E0],"parents":[2147483647,0,0,1,1,2,2,3,3,4,4,5,5,6,6],"right_children":[2,4,6,8,10,12,14,-1,-1,-1,-1,-1,-1,-1,-1],"split_conditions":[4E0,4.3E1,1.14E2,6.6E-1,8E-1,1E1,1.1E1,1.5942375E-3,-1.4036768E-3,5.657043E-3,1.1615654E-3,-1.8950831E-4,-2.0112062E-3,2.5240069E-3,5.083642E-5],"split_indices":[1,0,0,3,3,2,1,0,0,0,0,0,0,0,0],"split_type":[0,0,0,0,0,0,0,0,0,0,0,0,0,0,0],"sum_hessian":[3.6017E4,9.43E2,3.5074E4,5.18E2,4.25E2,4.99E3,3.0084E4,2.37E2,2.81E2,2.28E2,1.97E2,3.755E3,1.235E3,7.67E2,2.9317E4],"tree_param":{"num_deleted":"0","num_feature":"4","num_nodes":"15","size_leaf_vector":"1"}},{"base_weights":[3.8084076E-4,6.424163E-4,-1.50711555E-2,-5.738272E-4,4.042619E-3,-7.225329E-3,-3.73978E-2,4.4268803E-5,-1.0372014E-3,3.0119712E-3,4.0100497E-4,-3.3659143E-3,-2.6718076E-4,-3.5406924E-3,-8.220172E-3],"categories":[],"categories_nodes":[],"categories_segments":[],"categories_sizes":[],"default_left":[0,0,0,0,0,0,0,0,0,0,0,0,0,0,0],"id":50,"left_children":[1,3,5,7,9,11,13,-1,-1,-1,-1,-1,-1,-1,-1],"loss_changes":[1.4495496E-1,1.4583981E-1,1.0430686E-1,1.7586608E-1,1.7016213E-1,4.269921E-2,3.896849E-2,0E0,0E0,0E0,0E0,0E0,0E0,0E0,0E0],"parents":[2147483647,0,0,1,1,2,2,3,3,4,4,5,5,6,6],"right_children":[2,4,6,8,10,12,14,-1,-1,-1,-1,-1,-1,-1,-1],"split_conditions":[1.82E2,4.42E2,6E0,8.5E1,2.7E1,4.84E2,5.9E-1,4.4268803E-5,-1.0372014E-3,3.0119712E-3,4.0100497E-4,-3.3659143E-3,-2.6718076E-4,-3.5406924E-3,-8.220172E-3],"split_indices":[1,0,2,1,1,0,3,0,0,0,0,0,0,0,0],"split_type":[0,0,0,0,0,0,0,0,0,0,0,0,0,0,0],"sum_hessian":[3.586E4,3.5264E4,5.96E2,2.5974E4,9.29E3,4.42E2,1.54E2,2.312E4,2.854E3,4.42E2,8.848E3,9.5E1,3.47E2,1.12E2,4.2E1],"tree_param":{"num_deleted":"0","num_feature":"4","num_nodes":"15","size_leaf_vector":"1"}},{"base_weights":[2.2940675E-4,-5.910467E-4,4.946086E-3,-2.923281E-5,-8.660979E-3,1.340343E-2,2.7380432E-3,-1.5548903E-3,3.7219885E-5,8.3916064E-5,-2.4265016E-3,1.562758E-3,5.932378E-3,5.390628E-4,-9.7377953E-4],"categories":[],"categories_nodes":[],"categories_segments":[],"categories_sizes":[],"default_left":[0,0,0,0,0,0,0,0,0,0,0,0,0,0,0],"id":51,"left_children":[1,3,5,7,9,11,13,-1,-1,-1,-1,-1,-1,-1,-1],"loss_changes":[1.3917698E-1,1.3889726E-1,9.947799E-2,1.0784001E-1,1.8566544E-1,4.858908E-2,6.0933754E-2,0E0,0E0,0E0,0E0,0E0,0E0,0E0,0E0],"parents":[2147483647,0,0,1,1,2,2,3,3,4,4,5,5,6,6],"right_children":[2,4,6,8,10,12,14,-1,-1,-1,-1,-1,-1,-1,-1],"split_conditions":[5.15E2,1.18E2,5.2E1,4E0,6E0,9.4E-1,1.1E1,-1.5548903E-3,3.7219885E-5,8.3916064E-5,-2.4265016E-3,1.562758E-3,5.932378E-3,5.390628E-4,-9.7377953E-4],"split_indices":[0,1,1,2,2,3,2,0,0,0,0,0,0,0,0],"split_type":[0,0,0,0,0,0,0,0,0,0,0,0,0,0,0],"sum_hessian":[3.5963E4,3.0635E4,5.328E3,2.8642E4,1.993E3,1.102E3,4.226E3,7.37E2,2.7905E4,1.033E3,9.6E2,1.058E3,4.4E1,3.715E3,5.11E2],"tree_param":{"num_deleted":"0","num_feature":"4","num_nodes":"15","size_leaf_vector":"1"}},{"base_weights":[1.8459982E-4,-3.5805057E-3,1.0619446E-3,-1.5080818E-2,-3.1338737E-3,-2.010165E-2,1.2896698E-3,-3.3664124E-3,-1.6432102E-3,-2.8821343E-4,-1.0285422E-3,-1.9014463E-3,-4.4615646E-3,-1.7755509E-3,2.0669171E-4],"categories":[],"categories_nodes":[],"categories_segments":[],"categories_sizes":[],"default_left":[0,0,0,0,0,0,0,0,0,0,0,0,0,0,0],"id":52,"left_children":[1,3,5,7,9,11,13,-1,-1,-1,-1,-1,-1,-1,-1],"loss_changes":[1.1934857E-1,3.5024144E-2,1.412464E-1,6.403595E-3,2.8781094E-2,2.3785964E-2,1.3014235E-1,0E0,0E0,0E0,0E0,0E0,0E0,0E0,0E0],"parents":[2147483647,0,0,1,1,2,2,3,3,4,4,5,5,6,6],"right_children":[2,4,6,8,10,12,14,-1,-1,-1,-1,-1,-1,-1,-1],"split_conditions":[4.8E-1,2.7E-1,4E0,2.5E1,8E0,5.7E-1,3.1E1,-3.3664124E-3,-1.6432102E-3,-2.8821343E-4,-1.0285422E-3,-1.9014463E-3,-4.4615646E-3,-1.7755509E-3,2.0669171E-4],"split_indices":[3,3,2,1,2,3,0,0,0,0,0,0,0,0,0],"split_type":[0,0,0,0,0,0,0,0,0,0,0,0,0,0,0],"sum_hessian":[3.6128E4,6.827E3,2.9301E4,2.54E2,6.573E3,3.11E2,2.899E4,4.5E1,2.09E2,5.516E3,1.057E3,2.26E2,8.5E1,5.7E2,2.842E4],"tree_param":{"num_deleted":"0","num_feature":"4","num_nodes":"15","size_leaf_vector":"1"}},{"base_weights":[-3.3044486E-4,-5.304093E-4,1.4755331E-2,5.7083536E-3,-1.0209958E-3,3.767167E-2,-7.1843658E-3,2.1996221E-4,2.9693693E-3,-1.9816523E-3,-9.922524E-5,5.623627E-3,1.5741494E-3,7.628694E-4,-1.6670967E-3],"categories":[],"categories_nodes":[],"categories_segments":[],"categories_sizes":[],"default_left":[0,0,0,0,0,0,0,0,0,0,0,0,0,0,0],"id":53,"left_children":[1,3,5,7,9,11,13,-1,-1,-1,-1,-1,-1,-1,-1],"loss_changes":[1.0930292E-1,1.0944864E-1,2.3858723E-1,1.7935343E-1,1.2150651E-1,3.2610297E-2,1.7962366E-2,0E0,0E0,0E0,0E0,0E0,0E0,0E0,0E0],"parents":[2147483647,0,0,1,1,2,2,3,3,4,4,5,5,6,6],"right_children":[2,4,6,8,10,12,14,-1,-1,-1,-1,-1,-1,-1,-1],"split_conditions":[9.2E-1,8E0,1.3E1,9.5E1,5.2E1,5.2E1,1.4E1,2.1996221E-4,2.9693693E-3,-1.9816523E-3,-9.922524E-5,5.623627E-3,1.5741494E-3,7.628694E-4,-1.6670967E-3],"split_indices":[3,1,2,0,0,1,2,0,0,0,0,0,0,0,0],"split_type":[0,0,0,0,0,0,0,0,0,0,0,0,0,0,0],"sum_hessian":[3.623E4,3.5757E4,4.73E2,2.606E3,3.3151E4,2.31E2,2.42E2,2.112E3,4.94E2,5.89E2,3.2562E4,1.89E2,4.2E1,7.3E1,1.69E2],"tree_param":{"num_deleted":"0","num_feature":"4","num_nodes":"15","size_leaf_vector":"1"}},{"base_weights":[-5.316685E-4,2.8416445E-3,-1.4053027E-3,-4.9917847E-3,7.0258155E-3,-1.4220847E-2,-9.311188E-4,8.749177E-5,-1.6170142E-3,1.1921134E-3,-1.2901006E-3,-1.5468837E-4,-3.850734E-3,-1.3994916E-4,2.6156344E-3],"categories":[],"categories_nodes":[],"categories_segments":[],"categories_sizes":[],"default_left":[0,0,0,0,0,0,0,0,0,0,0,0,0,0,0],"id":54,"left_children":[1,3,5,7,9,11,13,-1,-1,-1,-1,-1,-1,-1,-1],"loss_changes":[1.05970755E-1,2.4248216E-1,1.735498E-1,1.0867574E-1,1.7534636E-1,2.0445651E-1,8.433494E-2,0E0,0E0,0E0,0E0,0E0,0E0,0E0,0E0],"parents":[2147483647,0,0,1,1,2,2,3,3,4,4,5,5,6,6],"right_children":[2,4,6,8,10,12,14,-1,-1,-1,-1,-1,-1,-1,-1],"split_conditions":[1.8E1,6.3E1,1.09E2,9E0,1.4E1,7E0,9.3E-1,8.749177E-5,-1.6170142E-3,1.1921134E-3,-1.2901006E-3,-1.5468837E-4,-3.850734E-3,-1.3994916E-4,2.6156344E-3],"split_indices":[1,0,0,2,2,2,3,0,0,0,0,0,0,0,0],"split_type":[0,0,0,0,0,0,0,0,0,0,0,0,0,0,0],"sum_hessian":[3.5956E4,7.396E3,2.856E4,2.575E3,4.821E3,1.018E3,2.7542E4,1.463E3,1.112E3,4.28E3,5.41E2,5.52E2,4.66E2,2.7354E4,1.88E2],"tree_param":{"num_deleted":"0","num_feature":"4","num_nodes":"15","size_leaf_vector":"1"}},{"base_weights":[-1.5279264E-4,4.7992487E-3,-7.972252E-4,-9.221479E-3,7.6378062E-3,-5.7442994E-3,5.2039966E-4,2.088731E-4,-2.3175005E-3,1.4238537E-3,-1.424682E-4,-4.6019844E-4,-1.8960881E-3,2.831291E-4,-3.3194746E-4],"categories":[],"categories_nodes":[],"categories_segments":[],"categories_sizes":[],"default_left":[0,0,0,0,0,0,0,0,0,0,0,0,0,0,0],"id":55,"left_children":[1,3,5,7,9,11,13,-1,-1,-1,-1,-1,-1,-1,-1],"loss_changes":[1.1481886E-1,1.649562E-1,2.0752238E-1,6.506931E-2,9.977895E-2,1.3044208E-1,1.2809755E-1,0E0,0E0,0E0,0E0,0E0,0E0,0E0,0E0],"parents":[2147483647,0,0,1,1,2,2,3,3,4,4,5,5,6,6],"right_children":[2,4,6,8,10,12,14,-1,-1,-1,-1,-1,-1,-1,-1],"split_conditions":[1.1E1,3.1E1,1.88E2,5.8E-1,7.7E-1,1E1,8E1,2.088731E-4,-2.3175005E-3,1.4238537E-3,-1.424682E-4,-4.6019844E-4,-1.8960881E-3,2.831291E-4,-3.3194746E-4],"split_indices":[1,0,0,3,3,2,1,0,0,0,0,0,0,0,0],"split_type":[0,0,0,0,0,0,0,0,0,0,0,0,0,0,0],"sum_hessian":[3.5977E4,4.142E3,3.1835E4,6.97E2,3.445E3,6.695E3,2.514E4,3.09E2,3.88E2,2.497E3,9.48E2,5.36E3,1.335E3,1.6333E4,8.807E3],"tree_param":{"num_deleted":"0","num_feature":"4","num_nodes":"15","size_leaf_vector":"1"}},{"base_weights":[-3.407249E-4,-1.3577109E-2,-8.290773E-5,-5.580897E-3,-1.7380983E-2,1.3638317E-3,-2.0997194E-3,-4.1871742E-4,-4.3824767E-3,-8.3430874E-4,-2.78726E-3,9.8478384E-5,2.444489E-3,-1.7162345E-4,-2.441408E-3],"categories":[],"categories_nodes":[],"categories_segments":[],"categories_sizes":[],"default_left":[0,0,0,0,0,0,0,0,0,0,0,0,0,0,0],"id":56,"left_children":[1,3,5,7,9,11,13,-1,-1,-1,-1,-1,-1,-1,-1],"loss_changes":[1.21636406E-1,2.061668E-2,1.0202085E-1,1.4563103E-2,2.03792E-2,2.1527094E-1,1.8988368E-1,0E0,0E0,0E0,0E0,0E0,0E0,0E0,0E0],"parents":[2147483647,0,0,1,1,2,2,3,3,4,4,5,5,6,6],"right_children":[2,4,6,8,10,12,14,-1,-1,-1,-1,-1,-1,-1,-1],"split_conditions":[3.2E-1,4.5E1,9E0,8E0,4E0,7.7E-1,1.06E2,-4.1871742E-4,-4.3824767E-3,-8.3430874E-4,-2.78726E-3,9.8478384E-5,2.444489E-3,-1.7162345E-4,-2.441408E-3],"split_indices":[3,1,2,2,2,3,1,0,0,0,0,0,0,0,0],"split_type":[0,0,0,0,0,0,0,0,0,0,0,0,0,0,0],"sum_hessian":[3.5643E4,6.8E2,3.4963E4,2.2E2,4.6E2,2.0359E4,1.4604E4,2.04E2,1.6E1,1.25E2,3.35E2,1.9676E4,6.83E2,1.3953E4,6.51E2],"tree_param":{"num_deleted":"0","num_feature":"4","num_nodes":"15","size_leaf_vector":"1"}},{"base_weights":[1.0227626E-4,3.5273193E-4,-8.292181E-3,-9.123593E-3,6.213809E-4,2.1565465E-4,-2.450045E-2,-5.2736315E-4,-2.334469E-3,1.764607E-4,-3.3312003E-4,-3.164992E-3,4.1533995E-4,-6.509877E-3,-2.1736633E-3],"categories":[],"categories_nodes":[],"categories_segments":[],"categories_sizes":[],"default_left":[0,0,0,0,0,0,0,0,0,0,0,0,0,0,0],"id":57,"left_children":[1,3,5,7,9,11,13,-1,-1,-1,-1,-1,-1,-1,-1],"loss_changes":[7.5472094E-2,8.8744804E-2,1.4341849E-1,4.294225E-2,7.943559E-2,5.0057013E-2,7.0396304E-2,0E0,0E0,0E0,0E0,0E0,0E0,0E0,0E0],"parents":[2147483647,0,0,1,1,2,2,3,3,4,4,5,5,6,6],"right_children":[2,4,6,8,10,12,14,-1,-1,-1,-1,-1,-1,-1,-1],"split_conditions":[1.66E2,4E0,6E0,4.6E-1,1.1E1,4.33E2,5.27E2,-5.2736315E-4,-2.334469E-3,1.764607E-4,-3.3312003E-4,-3.164992E-3,4.1533995E-4,-6.509877E-3,-2.1736633E-3],"split_indices":[1,2,2,3,2,0,0,0,0,0,0,0,0,0,0],"split_type":[0,0,0,0,0,0,0,0,0,0,0,0,0,0,0],"sum_hessian":[3.5895E4,3.4856E4,1.039E3,9.6E2,3.3896E4,6.82E2,3.57E2,6.11E2,3.49E2,2.7532E4,6.364E3,7.3E1,6.09E2,8.2E1,2.75E2],"tree_param":{"num_deleted":"0","num_feature":"4","num_nodes":"15","size_leaf_vector":"1"}},{"base_weights":[1.806412E-4,-1.7824506E-3,1.7155014E-3,1.04652216E-4,-7.816802E-3,2.33296E-3,-9.846972E-3,3.2331967E-3,-4.7359044E-5,-3.8792702E-4,-3.5404079E-3,-1.7592057E-3,3.5623487E-4,-2.126098E-4,-3.2209584E-3],"categories":[],"categories_nodes":[],"categories_segments":[],"categories_sizes":[],"default_left":[0,0,0,0,0,0,0,0,0,0,0,0,0,0,0],"id":58,"left_children":[1,3,5,7,9,11,13,-1,-1,-1,-1,-1,-1,-1,-1],"loss_changes":[1.08639345E-1,1.8016154E-1,1.4448774E-1,1.3999407E-1,3.5359406E-1,1.2417348E-1,1.2574178E-1,0E0,0E0,0E0,0E0,0E0,0E0,0E0,0E0],"parents":[2147483647,0,0,1,1,2,2,3,3,4,4,5,5,6,6],"right_children":[2,4,6,8,10,12,14,-1,-1,-1,-1,-1,-1,-1,-1],"split_conditions":[2.76E2,3.8E1,1.66E2,2E0,9E0,4E0,6E0,3.2331967E-3,-4.7359044E-5,-3.8792702E-4,-3.5404079E-3,-1.7592057E-3,3.5623487E-4,-2.126098E-4,-3.2209584E-3],"split_indices":[0,1,1,1,2,2,2,0,0,0,0,0,0,0,0],"split_type":[0,0,0,0,0,0,0,0,0,0,0,0,0,0,0],"sum_hessian":[3.6054E4,1.582E4,2.0234E4,1.2052E4,3.768E3,1.9209E4,1.025E3,2.23E2,1.1829E4,3.018E3,7.5E2,4.8E2,1.8729E4,6.62E2,3.63E2],"tree_param":{"num_deleted":"0","num_feature":"4","num_nodes":"15","size_leaf_vector":"1"}},{"base_weights":[5.2600796E-4,3.028621E-4,1.31517425E-2,1.40965E-2,8.2404484E-5,7.06821E-3,2.1791726E-2,2.5893815E-3,-1.9876186E-3,3.240938E-5,-1.9491087E-3,-1.0184015E-3,1.7965311E-3,4.6377913E-3,1.4693455E-3],"categories":[],"categories_nodes":[],"categories_segments":[],"categories_sizes":[],"default_left":[0,0,0,0,0,0,0,0,0,0,0,0,0,0,0],"id":59,"left_children":[1,3,5,7,9,11,13,-1,-1,-1,-1,-1,-1,-1,-1],"loss_changes":[1.0187812E-1,1.0805768E-1,3.2854676E-2,9.593783E-2,8.800888E-2,3.733313E-2,3.7313886E-2,0E0,0E0,0E0,0E0,0E0,0E0,0E0,0E0],"parents":[2147483647,0,0,1,1,2,2,3,3,4,4,5,5,6,6],"right_children":[2,4,6,8,10,12,14,-1,-1,-1,-1,-1,-1,-1,-1],"split_conditions":[5.9E2,3E0,6.4E-1,1.5E1,1.9E2,8.9E1,6.8E1,2.5893815E-3,-1.9876186E-3,3.240938E-5,-1.9491087E-3,-1.0184015E-3,1.7965311E-3,4.6377913E-3,1.4693455E-3],"split_indices":[0,1,3,2,1,1,1,0,0,0,0,0,0,0,0],"split_type":[0,0,0,0,0,0,0,0,0,0,0,0,0,0,0],"sum_hessian":[3.6161E4,3.5534E4,6.27E2,5.58E2,3.4976E4,3.69E2,2.58E2,4.66E2,9.2E1,3.4594E4,3.82E2,1.15E2,2.54E2,1.1E2,1.48E2],"tree_param":{"num_deleted":"0","num_feature":"4","num_nodes":"15","size_leaf_vector":"1"}},{"base_weights":[-3.165642E-4,1.2911302E-3,-2.051813E-3,-3.5242587E-3,3.8830726E-3,-1.2223958E-2,-1.1618211E-3,-1.2913479E-4,-1.7666246E-3,2.3843637E-3,4.451132E-4,-1.6646438E-4,-3.7653896E-3,-1.4134403E-3,-1.0615495E-4],"categories":[],"categories_nodes":[],"categories_segments":[],"categories_sizes":[],"default_left":[0,0,0,0,0,0,0,0,0,0,0,0,0,0,0],"id":60,"left_children":[1,3,5,7,9,11,13,-1,-1,-1,-1,-1,-1,-1,-1],"loss_changes":[1.0051733E-1,2.3344977E-1,1.5685838E-1,1.6671422E-1,8.065002E-2,2.5534356E-1,5.34148E-2,0E0,0E0,0E0,0E0,0E0,0E0,0E0,0E0],"parents":[2147483647,0,0,1,1,2,2,3,3,4,4,5,5,6,6],"right_children":[2,4,6,8,10,12,14,-1,-1,-1,-1,-1,-1,-1,-1],"split_conditions":[4.6E1,1.27E2,2.3E2,2E1,8E0,7E0,3.4E-1,-1.2913479E-4,-1.7666246E-3,2.3843637E-3,4.451132E-4,-1.6646438E-4,-3.7653896E-3,-1.4134403E-3,-1.0615495E-4],"split_indices":[1,0,0,1,1,2,3,0,0,0,0,0,0,0,0],"split_type":[0,0,0,0,0,0,0,0,0,0,0,0,0,0,0],"sum_hessian":[3.6029E4,1.8702E4,1.7327E4,6.544E3,1.2158E4,1.393E3,1.5934E4,5.23E3,1.314E3,3.73E2,1.1785E4,8.43E2,5.5E2,5.46E2,1.5388E4],"tree_param":{"num_deleted":"0","num_feature":"4","num_nodes":"15","size_leaf_vector":"1"}},{"base_weights":[-5.374693E-4,-1.2306328E-2,-3.1051188E-4,3.6792353E-2,-1.3701129E-2,8.031629E-3,-7.269993E-4,9.656788E-3,3.6054675E-4,1.358274E-3,-2.1263915E-3,1.7105604E-3,-8.086558E-4,1.8039736E-5,-4.0394787E-4],"categories":[],"categories_nodes":[],"categories_segments":[],"categories_sizes":[],"default_left":[0,0,0,0,0,0,0,0,0,0,0,0,0,0,0],"id":61,"left_children":[1,3,5,7,9,11,13,-1,-1,-1,-1,-1,-1,-1,-1],"loss_changes":[9.571788E-2,4.693549E-2,1.2216565E-1,2.4026407E-2,4.2499483E-2,1.2224415E-1,6.90138E-2,0E0,0E0,0E0,0E0,0E0,0E0,0E0,0E0],"parents":[2147483647,0,0,1,1,2,2,3,3,4,4,5,5,6,6],"right_children":[2,4,6,8,10,12,14,-1,-1,-1,-1,-1,-1,-1,-1],"split_conditions":[3.1E1,1E0,7E0,1.3E1,5E0,1.3E1,1E1,9.656788E-3,3.6054675E-4,1.358274E-3,-2.1263915E-3,1.7105604E-3,-8.086558E-4,1.8039736E-5,-4.0394787E-4],"split_indices":[0,1,1,2,2,2,2,0,0,0,0,0,0,0,0],"split_type":[0,0,0,0,0,0,0,0,0,0,0,0,0,0,0],"sum_hessian":[3.5836E4,6.77E2,3.5159E4,1.8E1,6.59E2,1.671E3,3.3488E4,8E0,1E1,6.5E1,5.94E2,1.229E3,4.42E2,2.4557E4,8.931E3],"tree_param":{"num_deleted":"0","num_feature":"4","num_nodes":"15","size_leaf_vector":"1"}},{"base_weights":[1.03076636E-4,-8.282384E-4,2.6185578E-3,-2.1127729E-4,-8.760157E-3,3.1423992E-3,-1.4085765E-2,1.1914436E-3,-7.493929E-5,2.8463837E-5,-2.2672652E-3,-7.189454E-3,4.2141898E-4,8.2256115E-4,-2.5846874E-3],"categories":[],"categories_nodes":[],"categories_segments":[],"categories_sizes":[],"default_left":[0,0,0,0,0,0,0,0,0,0,0,0,0,0,0],"id":62,"left_children":[1,3,5,7,9,11,13,-1,-1,-1,-1,-1,-1,-1,-1],"loss_changes":[8.406781E-2,1.2815885E-1,8.488829E-2,8.3208494E-2,1.4731376E-1,5.473742E-2,3.5031322E-2,0E0,0E0,0E0,0E0,0E0,0E0,0E0,0E0],"parents":[2147483647,0,0,1,1,2,2,3,3,4,4,5,5,6,6],"right_children":[2,4,6,8,10,12,14,-1,-1,-1,-1,-1,-1,-1,-1],"split_conditions":[4.44E2,9.8E1,2.02E2,4E0,6E0,2E0,4E0,1.1914436E-3,-7.493929E-5,2.8463837E-5,-2.2672652E-3,-7.189454E-3,4.2141898E-4,8.2256115E-4,-2.5846874E-3],"split_indices":[0,1,1,1,2,1,2,0,0,0,0,0,0,0,0],"split_type":[0,0,0,0,0,0,0,0,0,0,0,0,0,0,0],"sum_hessian":[3.5883E4,2.6188E4,9.695E3,2.4299E4,1.889E3,9.401E3,2.94E2,9.1E2,2.3389E4,9.29E2,9.6E2,1.5E1,9.386E3,6.5E1,2.29E2],"tree_param":{"num_deleted":"0","num_feature":"4","num_nodes":"15","size_leaf_vector":"1"}},{"base_weights":[-2.526772E-4,1.3575313E-3,-1.6336357E-3,-4.108611E-3,2.6454646E-3,-1.5193281E-2,-6.8243715E-4,2.3406341E-5,-1.3832585E-3,2.7440573E-4,1.788805E-3,-2.5156283E-4,-3.3094576E-3,-6.3496685E-5,-1.6992462E-3],"categories":[],"categories_nodes":[],"categories_segments":[],"categories_sizes":[],"default_left":[0,0,0,0,0,0,0,0,0,0,0,0,0,0,0],"id":63,"left_children":[1,3,5,7,9,11,13,-1,-1,-1,-1,-1,-1,-1,-1],"loss_changes":[8.028419E-2,1.17361076E-1,2.5067353E-1,8.905473E-2,8.014017E-2,1.7332062E-1,4.3646917E-2,0E0,0E0,0E0,0E0,0E0,0E0,0E0,0E0],"parents":[2147483647,0,0,1,1,2,2,3,3,4,4,5,5,6,6],"right_children":[2,4,6,8,10,12,14,-1,-1,-1,-1,-1,-1,-1,-1],"split_conditions":[4E1,7.1E1,2.03E2,6.4E-1,5.06E2,6E0,2.02E2,2.3406341E-5,-1.3832585E-3,2.7440573E-4,1.788805E-3,-2.5156283E-4,-3.3094576E-3,-6.3496685E-5,-1.6992462E-3],"split_indices":[1,0,0,3,0,2,1,0,0,0,0,0,0,0,0],"split_type":[0,0,0,0,0,0,0,0,0,0,0,0,0,0,0],"sum_hessian":[3.6103E4,1.6668E4,1.9435E4,3.178E3,1.349E4,1.273E3,1.8162E4,1.919E3,1.259E3,1.2872E4,6.18E2,5.56E2,7.17E2,1.7883E4,2.79E2],"tree_param":{"num_deleted":"0","num_feature":"4","num_nodes":"15","size_leaf_vector":"1"}},{"base_weights":[-3.2000356E-5,-1.2835592E-3,1.588243E-3,1.3472465E-2,-1.6958521E-3,1.5560885E-2,1.2314225E-3,2.845557E-4,3.1205248E-3,-1.1592081E-4,-1.0321805E-3,4.9655135E-3,-2.091149E-3,1.2869149E-4,4.268574E-3],"categories":[],"categories_nodes":[],"categories_segments":[],"categories_sizes":[],"default_left":[0,0,0,0,0,0,0,0,0,0,0,0,0,0,0],"id":64,"left_children":[1,3,5,7,9,11,13,-1,-1,-1,-1,-1,-1,-1,-1],"loss_changes":[7.3638625E-2,1.2466782E-1,7.88849E-2,6.6137865E-2,1.0007416E-1,2.8284988E-1,1.17751054E-1,0E0,0E0,0E0,0E0,0E0,0E0,0E0,0E0],"parents":[2147483647,0,0,1,1,2,2,3,3,4,4,5,5,6,6],"right_children":[2,4,6,8,10,12,14,-1,-1,-1,-1,-1,-1,-1,-1],"split_conditions":[3.48E2,3E0,1.9E1,3.4E1,6.7E1,1.4E1,9.3E-1,2.845557E-4,3.1205248E-3,-1.1592081E-4,-1.0321805E-3,4.9655135E-3,-2.091149E-3,1.2869149E-4,4.268574E-3],"split_indices":[0,1,1,0,1,2,3,0,0,0,0,0,0,0,0],"split_type":[0,0,0,0,0,0,0,0,0,0,0,0,0,0,0],"sum_hessian":[3.6312E4,2.0487E4,1.5825E4,5.56E2,1.9931E4,3.93E2,1.5432E4,2.69E2,2.87E2,1.7658E4,2.273E3,2.29E2,1.64E2,1.5316E4,1.16E2],"tree_param":{"num_deleted":"0","num_feature":"4","num_nodes":"15","size_leaf_vector":"1"}},{"base_weights":[5.649002E-4,-3.6566034E-3,9.690887E-4,4.9495783E-2,-4.3236846E-3,9.858085E-3,4.7493825E-4,1.150267E-2,2.7875376E-3,-3.5972914E-4,-3.087249E-3,2.1577817E-3,-8.1944466E-4,1.8222095E-4,-2.8001948E-4],"categories":[],"categories_nodes":[],"categories_segments":[],"categories_sizes":[],"default_left":[0,0,0,0,0,0,0,0,0,0,0,0,0,0,0],"id":65,"left_children":[1,3,5,7,9,11,13,-1,-1,-1,-1,-1,-1,-1,-1],"loss_changes":[6.131541E-2,1.1154889E-1,1.4404301E-1,4.0756613E-2,9.372258E-2,1.8823083E-1,7.569694E-2,0E0,0E0,0E0,0E0,0E0,0E0,0E0,0E0],"parents":[2147483647,0,0,1,1,2,2,3,3,4,4,5,5,6,6],"right_children":[2,4,6,8,10,12,14,-1,-1,-1,-1,-1,-1,-1,-1],"split_conditions":[7.1E1,1E0,1.1E1,8.2E-1,1.7E1,1.3E1,1E1,1.150267E-2,2.7875376E-3,-3.5972914E-4,-3.087249E-3,2.1577817E-3,-8.1944466E-4,1.8222095E-4,-2.8001948E-4],"split_indices":[0,1,1,3,1,2,2,0,0,0,0,0,0,0,0],"split_type":[0,0,0,0,0,0,0,0,0,0,0,0,0,0,0],"sum_hessian":[3.5932E4,3.139E3,3.2793E4,3.8E1,3.101E3,1.726E3,3.1067E4,1.5E1,2.3E1,2.872E3,2.29E2,1.218E3,5.08E2,2.297E4,8.097E3],"tree_param":{"num_deleted":"0","num_feature":"4","num_nodes":"15","size_leaf_vector":"1"}},{"base_weights":[3.1752134E-4,-2.0156644E-2,4.4086116E-4,-1.1852433E-2,-3.1012189E-2,8.173856E-3,6.686074E-5,-5.083844E-4,-3.6962135E-3,-2.6941297E-3,-5.3983335E-3,1.508142E-3,-1.2369601E-3,6.2777704E-5,-5.2840076E-4],"categories":[],"categories_nodes":[],"categories_segments":[],"categories_sizes":[],"default_left":[0,0,0,0,0,0,0,0,0,0,0,0,0,0,0],"id":66,"left_children":[1,3,5,7,9,11,13,-1,-1,-1,-1,-1,-1,-1,-1],"loss_changes":[9.109068E-2,1.9104123E-2,1.03691466E-1,1.621646E-2,9.198636E-3,1.0038274E-1,5.87877E-2,0E0,0E0,0E0,0E0,0E0,0E0,0E0,0E0],"parents":[2147483647,0,0,1,1,2,2,3,3,4,4,5,5,6,6],"right_children":[2,4,6,8,10,12,14,-1,-1,-1,-1,-1,-1,-1,-1],"split_conditions":[2.3E1,4E0,6E0,7E-1,5.7E-1,1.4E1,1.2E1,-5.083844E-4,-3.6962135E-3,-2.6941297E-3,-5.3983335E-3,1.508142E-3,-1.2369601E-3,6.2777704E-5,-5.2840076E-4],"split_indices":[0,1,1,3,3,2,2,0,0,0,0,0,0,0,0],"split_type":[0,0,0,0,0,0,0,0,0,0,0,0,0,0,0],"sum_hessian":[3.6067E4,2.15E2,3.5852E4,1.23E2,9.2E1,1.653E3,3.4199E4,8.4E1,3.9E1,4.8E1,4.4E1,1.385E3,2.68E2,3.1071E4,3.128E3],"tree_param":{"num_deleted":"0","num_feature":"4","num_nodes":"15","size_leaf_vector":"1"}},{"base_weights":[-4.384796E-4,-6.098038E-5,-4.7937124E-3,-2.294852E-3,9.6812914E-4,-1.2499299E-3,-1.9834686E-2,-1.6167332E-4,-2.1185207E-3,1.3226458E-3,7.04318E-5,-3.0103556E-3,1.916764E-4,-1.4150557E-3,-6.751139E-3],"categories":[],"categories_nodes":[],"categories_segments":[],"categories_sizes":[],"default_left":[0,0,0,0,0,0,0,0,0,0,0,0,0,0,0],"id":67,"left_children":[1,3,5,7,9,11,13,-1,-1,-1,-1,-1,-1,-1,-1],"loss_changes":[5.9136227E-2,7.609806E-2,1.5289846E-1,1.5364076E-1,8.894219E-2,1.3867472E-1,1.5656485E-1,0E0,0E0,0E0,0E0,0E0,0E0,0E0,0E0],"parents":[2147483647,0,0,1,1,2,2,3,3,4,4,5,5,6,6],"right_children":[2,4,6,8,10,12,14,-1,-1,-1,-1,-1,-1,-1,-1],"split_conditions":[1.28E2,1.88E2,8E0,4.3E1,1.6E1,3.9E2,6.9E-1,-1.6167332E-4,-2.1185207E-3,1.3226458E-3,7.04318E-5,-3.0103556E-3,1.916764E-4,-1.4150557E-3,-6.751139E-3],"split_indices":[1,0,2,1,1,0,3,0,0,0,0,0,0,0,0],"split_type":[0,0,0,0,0,0,0,0,0,0,0,0,0,0,0],"sum_hessian":[3.5968E4,3.31E4,2.868E3,1.0439E4,2.2661E4,2.322E3,5.46E2,9.711E3,7.28E2,1.002E3,2.1659E4,2.56E2,2.066E3,4.28E2,1.18E2],"tree_param":{"num_deleted":"0","num_feature":"4","num_nodes":"15","size_leaf_vector":"1"}},{"base_weights":[-6.753133E-5,6.193265E-4,-2.4228985E-3,4.2946246E-3,-3.9169035E-4,5.244682E-3,-4.7098068E-3,3.7075876E-4,4.2189127E-3,-2.318843E-3,-1.1984431E-5,1.6469302E-4,2.210895E-3,-3.4136165E-4,-3.0903358E-3],"categories":[],"categories_nodes":[],"categories_segments":[],"categories_sizes":[],"default_left":[0,0,0,0,0,0,0,0,0,0,0,0,0,0,0],"id":68,"left_children":[1,3,5,7,9,11,13,-1,-1,-1,-1,-1,-1,-1,-1],"loss_changes":[5.8248855E-2,1.0358299E-1,1.4256714E-1,2.4421105E-1,1.1423228E-1,8.7378144E-2,2.486907E-1,0E0,0E0,0E0,0E0,0E0,0E0,0E0,0E0],"parents":[2147483647,0,0,1,1,2,2,3,3,4,4,5,5,6,6],"right_children":[2,4,6,8,10,12,14,-1,-1,-1,-1,-1,-1,-1,-1],"split_conditions":[7.1E-1,2.2E1,9E0,2.96E2,9.7E1,7.9E-1,7.4E1,3.7075876E-4,4.2189127E-3,-2.318843E-3,-1.1984431E-5,1.6469302E-4,2.210895E-3,-3.4136165E-4,-3.0903358E-3],"split_indices":[3,1,2,0,0,3,1,0,0,0,0,0,0,0,0],"split_type":[0,0,0,0,0,0,0,0,0,0,0,0,0,0,0],"sum_hessian":[3.6003E4,2.7875E4,8.128E3,6.013E3,2.1862E4,1.867E3,6.261E3,5.721E3,2.92E2,3.68E2,2.1494E4,1.396E3,4.71E2,5.645E3,6.16E2],"tree_param":{"num_deleted":"0","num_feature":"4","num_nodes":"15","size_leaf_vector":"1"}},{"base_weights":[1.7913005E-4,2.307653E-5,1.28005715E-2,-4.5132512E-4,3.5565337E-3,2.9966416E-2,-4.898893E-3,-1.4922414E-5,-1.3844965E-3,5.5168144E-4,-1.2736315E-3,1.8777902E-3,5.491511E-3,-1.3972448E-4,-4.130014E-3],"categories":[],"categories_nodes":[],"categories_segments":[],"categories_sizes":[],"default_left":[0,0,0,0,0,0,0,0,0,0,0,0,0,0,0],"id":69,"left_children":[1,3,5,7,9,11,13,-1,-1,-1,-1,-1,-1,-1,-1],"loss_changes":[7.079771E-2,5.9521206E-2,1.3352653E-1,1.0744461E-1,3.86094E-2,4.1881636E-2,2.226369E-2,0E0,0E0,0E0,0E0,0E0,0E0,0E0,0E0],"parents":[2147483647,0,0,1,1,2,2,3,3,4,4,5,5,6,6],"right_children":[2,4,6,8,10,12,14,-1,-1,-1,-1,-1,-1,-1,-1],"split_conditions":[9.2E-1,5.31E2,1.3E1,1.45E2,2.02E2,2.76E2,3.8E1,-1.4922414E-5,-1.3844965E-3,5.5168144E-4,-1.2736315E-3,1.8777902E-3,5.491511E-3,-1.3972448E-4,-4.130014E-3],"split_indices":[3,0,2,1,1,0,1,0,0,0,0,0,0,0,0],"split_type":[0,0,0,0,0,0,0,0,0,0,0,0,0,0,0],"sum_hessian":[3.5944E4,3.5506E4,4.38E2,3.1304E4,4.202E3,2.22E2,2.16E2,3.0305E4,9.99E2,3.997E3,2.05E2,9.9E1,1.23E2,1.9E2,2.6E1],"tree_param":{"num_deleted":"0","num_feature":"4","num_nodes":"15","size_leaf_vector":"1"}},{"base_weights":[-3.4919835E-4,2.95186E-3,-9.4401307E-4,-3.7501522E-3,6.454115E-3,-5.6636184E-3,-2.4151473E-4,6.0253038E-5,-1.7647966E-3,1.0870367E-3,-7.902968E-4,-3.9633288E-4,-2.5370915E-3,-1.3362328E-4,3.6476416E-4],"categories":[],"categories_nodes":[],"categories_segments":[],"categories_sizes":[],"default_left":[0,0,0,0,0,0,0,0,0,0,0,0,0,0,0],"id":70,"left_children":[1,3,5,7,9,11,13,-1,-1,-1,-1,-1,-1,-1,-1],"loss_changes":[7.075816E-2,1.29168E-1,1.0123457E-1,7.821061E-2,8.646117E-2,1.4323823E-1,6.369515E-2,0E0,0E0,0E0,0E0,0E0,0E0,0E0,0E0],"parents":[2147483647,0,0,1,1,2,2,3,3,4,4,5,5,6,6],"right_children":[2,4,6,8,10,12,14,-1,-1,-1,-1,-1,-1,-1,-1],"split_conditions":[1.4E1,5.2E1,1.59E2,1E1,1.4E1,1E1,5.11E2,6.0253038E-5,-1.7647966E-3,1.0870367E-3,-7.902968E-4,-3.9633288E-4,-2.5370915E-3,-1.3362328E-4,3.6476416E-4],"split_indices":[1,0,0,2,2,2,0,0,0,0,0,0,0,0,0],"split_type":[0,0,0,0,0,0,0,0,0,0,0,0,0,0,0],"sum_hessian":[3.6034E4,5.501E3,3.0533E4,1.888E3,3.613E3,3.955E3,2.6578E4,1.322E3,5.66E2,3.136E3,4.77E2,3.328E3,6.27E2,2.1127E4,5.451E3],"tree_param":{"num_deleted":"0","num_feature":"4","num_nodes":"15","size_leaf_vector":"1"}},{"base_weights":[-2.0711448E-4,7.8025367E-3,-4.2486345E-4,9.762284E-3,-2.7241647E-2,-4.846085E-3,1.8702274E-4,4.774955E-4,4.123671E-3,2.7455376E-3,-5.338964E-3,-4.444538E-4,-2.0689876E-3,9.357127E-5,-5.984832E-4],"categories":[],"categories_nodes":[],"categories_segments":[],"categories_sizes":[],"default_left":[0,0,0,0,0,0,0,0,0,0,0,0,0,0,0],"id":71,"left_children":[1,3,5,7,9,11,13,-1,-1,-1,-1,-1,-1,-1,-1],"loss_changes":[6.313077E-2,6.605923E-2,9.532972E-2,1.21291436E-1,3.4971297E-2,6.7624524E-2,7.900965E-2,0E0,0E0,0E0,0E0,0E0,0E0,0E0,0E0],"parents":[2147483647,0,0,1,1,2,2,3,3,4,4,5,5,6,6],"right_children":[2,4,6,8,10,12,14,-1,-1,-1,-1,-1,-1,-1,-1],"split_conditions":[4E0,3.24E2,1.02E2,7.5E1,1.5E1,2.2E1,1.2E1,4.774955E-4,4.123671E-3,2.7455376E-3,-5.338964E-3,-4.444538E-4,-2.0689876E-3,9.357127E-5,-5.984832E-4],"split_indices":[1,0,0,0,2,1,2,0,0,0,0,0,0,0,0],"split_type":[0,0,0,0,0,0,0,0,0,0,0,0,0,0,0],"sum_hessian":[3.6194E4,9.57E2,3.5237E4,9.07E2,5E1,4.283E3,3.0954E4,7.11E2,1.96E2,1.1E1,3.9E1,3.795E3,4.88E2,2.7857E4,3.097E3],"tree_param":{"num_deleted":"0","num_feature":"4","num_nodes":"15","size_leaf_vector":"1"}},{"base_weights":[-1.208E-4,-2.804601E-3,6.112102E-4,-1.6009754E-3,-1.1569404E-2,-2.8691401E-3,1.4211402E-3,-6.8949885E-5,-1.3781557E-3,-7.535554E-4,-4.223522E-3,-2.3863383E-3,-3.0739428E-4,2.5050234E-4,-9.7222783E-4],"categories":[],"categories_nodes":[],"categories_segments":[],"categories_sizes":[],"default_left":[0,0,0,0,0,0,0,0,0,0,0,0,0,0,0],"id":72,"left_children":[1,3,5,7,9,11,13,-1,-1,-1,-1,-1,-1,-1,-1],"loss_changes":[7.100127E-2,8.1687704E-2,8.004785E-2,6.5622196E-2,1.1272508E-1,4.184965E-2,1.03711784E-1,0E0,0E0,0E0,0E0,0E0,0E0,0E0,0E0],"parents":[2147483647,0,0,1,1,2,2,3,3,4,4,5,5,6,6],"right_children":[2,4,6,8,10,12,14,-1,-1,-1,-1,-1,-1,-1,-1],"split_conditions":[1.43E2,2.8E1,4.8E-1,7.9E-1,8E0,2.6E-1,1.4E2,-6.8949885E-5,-1.3781557E-3,-7.535554E-4,-4.223522E-3,-2.3863383E-3,-3.0739428E-4,2.5050234E-4,-9.7222783E-4],"split_indices":[0,1,3,3,2,3,1,0,0,0,0,0,0,0,0],"split_type":[0,0,0,0,0,0,0,0,0,0,0,0,0,0,0],"sum_hessian":[3.6139E4,7.744E3,2.8395E4,6.81E3,9.34E2,5.36E3,2.3035E4,6.087E3,7.23E2,7.33E2,2.01E2,1.68E2,5.192E3,2.1797E4,1.238E3],"tree_param":{"num_deleted":"0","num_feature":"4","num_nodes":"15","size_leaf_vector":"1"}},{"base_weights":[8.5120344E-5,1.7751151E-3,-1.0177997E-3,3.3282246E-3,-2.201866E-3,-1.2457946E-2,-6.7917694E-4,3.7812375E-4,3.8172032E-3,2.5381372E-4,-9.2441496E-4,-3.4440507E-4,-4.394586E-3,5.4160628E-5,-3.739771E-4],"categories":[],"categories_nodes":[],"categories_segments":[],"categories_sizes":[],"default_left":[0,0,0,0,0,0,0,0,0,0,0,0,0,0,0],"id":73,"left_children":[1,3,5,7,9,11,13,-1,-1,-1,-1,-1,-1,-1,-1],"loss_changes":[6.708089E-2,8.7790415E-2,8.435334E-2,1.11565955E-1,8.1424475E-2,1.3098326E-1,5.093714E-2,0E0,0E0,0E0,0E0,0E0,0E0,0E0,0E0],"parents":[2147483647,0,0,1,1,2,2,3,3,4,4,5,5,6,6],"right_children":[2,4,6,8,10,12,14,-1,-1,-1,-1,-1,-1,-1,-1],"split_conditions":[3.4E1,1.1E1,1.52E2,8.7E-1,7.6E-1,7E0,9E0,3.7812375E-4,3.8172032E-3,2.5381372E-4,-9.2441496E-4,-3.4440507E-4,-4.394586E-3,5.4160628E-5,-3.739771E-4],"split_indices":[1,2,0,3,3,2,2,0,0,0,0,0,0,0,0],"split_type":[0,0,0,0,0,0,0,0,0,0,0,0,0,0,0],"sum_hessian":[3.5987E4,1.4211E4,2.1776E4,1.022E4,3.991E3,6.25E2,2.1151E4,1.0059E4,1.61E2,2.162E3,1.829E3,4.29E2,1.96E2,1.4114E4,7.037E3],"tree_param":{"num_deleted":"0","num_feature":"4","num_nodes":"15","size_leaf_vector":"1"}},{"base_weights":[1.2266646E-4,7.8038505E-4,-2.8747874E-3,3.4670523E-4,1.2710432E-2,-1.8026922E-3,-2.0082815E-2,5.7331956E-5,-2.2882214E-3,1.856742E-3,-6.6872807E-3,-3.7736451E-4,1.341242E-3,-1.7767589E-3,-7.95609E-3],"categories":[],"categories_nodes":[],"categories_segments":[],"categories_sizes":[],"default_left":[0,0,0,0,0,0,0,0,0,0,0,0,0,0,0],"id":74,"left_children":[1,3,5,7,9,11,13,-1,-1,-1,-1,-1,-1,-1,-1],"loss_changes":[7.100711E-2,1.5280956E-1,1.1952947E-1,4.825173E-2,1.0522385E-1,8.138968E-2,9.9403456E-2,0E0,0E0,0E0,0E0,0E0,0E0,0E0,0E0],"parents":[2147483647,0,0,1,1,2,2,3,3,4,4,5,5,6,6],"right_children":[2,4,6,8,10,12,14,-1,-1,-1,-1,-1,-1,-1,-1],"split_conditions":[1.1E1,8.1E-1,8.2E1,2.19E2,1.18E2,5.42E2,8E-1,5.7331956E-5,-2.2882214E-3,1.856742E-3,-6.6872807E-3,-3.7736451E-4,1.341242E-3,-1.7767589E-3,-7.95609E-3],"split_indices":[2,3,1,1,1,0,3,0,0,0,0,0,0,0,0],"split_type":[0,0,0,0,0,0,0,0,0,0,0,0,0,0,0],"sum_hessian":[3.6015E4,2.9535E4,6.48E3,2.85E4,1.035E3,6.101E3,3.79E2,2.8352E4,1.48E2,1.011E3,2.4E1,5.594E3,5.07E2,3.29E2,5E1],"tree_param":{"num_deleted":"0","num_feature":"4","num_nodes":"15","size_leaf_vector":"1"}},{"base_weights":[-3.2174514E-4,7.700878E-4,-1.6576364E-3,-4.5448993E-3,1.3761527E-3,-6.0967184E-3,-5.5311207E-4,1.5431726E-3,-7.861853E-4,1.146092E-3,8.1077495E-5,-6.860548E-5,-2.4820096E-3,-9.4594643E-4,1.559437E-5],"categories":[],"categories_nodes":[],"categories_segments":[],"categories_sizes":[],"default_left":[0,0,0,0,0,0,0,0,0,0,0,0,0,0,0],"id":75,"left_children":[1,3,5,7,9,11,13,-1,-1,-1,-1,-1,-1,-1,-1],"loss_changes":[5.269212E-2,6.4041026E-2,7.965687E-2,5.0269503E-2,9.989801E-2,2.3426019E-1,5.887968E-2,0E0,0E0,0E0,0E0,0E0,0E0,0E0,0E0],"parents":[2147483647,0,0,1,1,2,2,3,3,4,4,5,5,6,6],"right_children":[2,4,6,8,10,12,14,-1,-1,-1,-1,-1,-1,-1,-1],"split_conditions":[4.9E1,5.2E1,3.08E2,2E0,9E0,8E0,4E-1,1.5431726E-3,-7.861853E-4,1.146092E-3,8.1077495E-5,-6.860548E-5,-2.4820096E-3,-9.4594643E-4,1.559437E-5],"split_indices":[1,0,0,1,1,2,3,0,0,0,0,0,0,0,0],"split_type":[0,0,0,0,0,0,0,0,0,0,0,0,0,0,0],"sum_hessian":[3.6124E4,1.9878E4,1.6246E4,2.034E3,1.7844E4,3.236E3,1.301E4,1.7E2,1.864E3,1.638E3,1.6206E4,2.266E3,9.7E2,1.183E3,1.1827E4],"tree_param":{"num_deleted":"0","num_feature":"4","num_nodes":"15","size_leaf_vector":"1"}},{"base_weights":[2.6010856E-4,-4.988297E-3,6.433697E-4,4.9849256E-4,-1.0311108E-2,4.959308E-4,1.3664095E-2,-2.829202E-4,1.3341506E-3,-3.5312542E-4,-2.8873985E-3,2.538144E-4,-1.2211494E-4,2.341249E-3,-7.023974E-4],"categories":[],"categories_nodes":[],"categories_segments":[],"categories_sizes":[],"default_left":[0,0,0,0,0,0,0,0,0,0,0,0,0,0,0],"id":76,"left_children":[1,3,5,7,9,11,13,-1,-1,-1,-1,-1,-1,-1,-1],"loss_changes":[7.191267E-2,7.106125E-2,6.395391E-2,3.1336993E-2,1.1155276E-1,6.887212E-2,3.100282E-2,0E0,0E0,0E0,0E0,0E0,0E0,0E0,0E0],"parents":[2147483647,0,0,1,1,2,2,3,3,4,4,5,5,6,6],"right_children":[2,4,6,8,10,12,14,-1,-1,-1,-1,-1,-1,-1,-1],"split_conditions":[5.9E1,6E0,5.94E2,4.5E1,6E-1,4.7E1,1.1E1,-2.829202E-4,1.3341506E-3,-3.5312542E-4,-2.8873985E-3,2.538144E-4,-1.2211494E-4,2.341249E-3,-7.023974E-4],"split_indices":[0,1,0,0,3,1,2,0,0,0,0,0,0,0,0],"split_type":[0,0,0,0,0,0,0,0,0,0,0,0,0,0,0],"sum_hessian":[3.5748E4,2.432E3,3.3316E4,1.198E3,1.234E3,3.2944E4,3.72E2,9.41E2,2.57E2,7.54E2,4.8E2,1.6351E4,1.6593E4,3.03E2,6.9E1],"tree_param":{"num_deleted":"0","num_feature":"4","num_nodes":"15","size_leaf_vector":"1"}},{"base_weights":[-2.2246706E-4,-8.02955E-5,-1.1417112E-2,9.38285E-4,-1.5074788E-3,-1.915849E-3,-2.2416577E-2,-7.014817E-4,1.7525612E-4,-1.0055654E-4,-1.4698503E-3,1.1407805E-3,-1.0506628E-3,-5.451422E-3,-1.6964712E-3],"categories":[],"categories_nodes":[],"categories_segments":[],"categories_sizes":[],"default_left":[0,0,0,0,0,0,0,0,0,0,0,0,0,0,0],"id":77,"left_children":[1,3,5,7,9,11,13,-1,-1,-1,-1,-1,-1,-1,-1],"loss_changes":[5.6983307E-2,5.1398467E-2,4.6881504E-2,5.356883E-2,1.0589619E-1,1.6024305E-2,3.747847E-2,0E0,0E0,0E0,0E0,0E0,0E0,0E0,0E0],"parents":[2147483647,0,0,1,1,2,2,3,3,4,4,5,5,6,6],"right_children":[2,4,6,8,10,12,14,-1,-1,-1,-1,-1,-1,-1,-1],"split_conditions":[1.9E2,9E0,5E0,3.6E-1,9.6E1,4E0,5.42E2,-7.014817E-4,1.7525612E-4,-1.0055654E-4,-1.4698503E-3,1.1407805E-3,-1.0506628E-3,-5.451422E-3,-1.6964712E-3],"split_indices":[1,2,2,3,1,2,0,0,0,0,0,0,0,0,0],"split_type":[0,0,0,0,0,0,0,0,0,0,0,0,0,0,0],"sum_hessian":[3.5803E4,3.5355E4,4.48E2,2.0631E4,1.4724E4,2.41E2,2.07E2,1.253E3,1.9378E4,1.3699E4,1.025E3,8.8E1,1.53E2,6.6E1,1.41E2],"tree_param":{"num_deleted":"0","num_feature":"4","num_nodes":"15","size_leaf_vector":"1"}},{"base_weights":[1.796392E-4,-4.1860386E-4,2.07842E-3,8.5128285E-4,-2.3105084E-3,-6.1428826E-3,2.1580777E-3,4.7410603E-4,-1.155479E-4,-1.9171562E-4,-1.9731044E-3,1.7824257E-3,2.1997139E-4],"categories":[],"categories_nodes":[],"categories_segments":[],"categories_sizes":[],"default_left":[0,0,0,0,0,0,0,0,0,0,0,0,0],"id":78,"left_children":[1,3,5,7,9,-1,11,-1,-1,-1,-1,-1,-1],"loss_changes":[4.1045517E-2,6.601558E-2,3.4120705E-2,7.9990454E-2,1.18659556E-1,0E0,4.6512038E-2,0E0,0E0,0E0,0E0,0E0,0E0],"parents":[2147483647,0,0,1,1,2,2,3,3,4,4,6,6],"right_children":[2,4,6,8,10,-1,12,-1,-1,-1,-1,-1,-1],"split_conditions":[4.62E2,6.4E-1,1E0,3.1E1,8.2E1,-6.1428826E-3,2.7E1,4.7410603E-4,-1.155479E-4,-1.9171562E-4,-1.9731044E-3,1.7824257E-3,2.1997139E-4],"split_indices":[0,3,1,1,1,0,1,0,0,0,0,0,0],"split_type":[0,0,0,0,0,0,0,0,0,0,0,0,0],"sum_hessian":[3.6132E4,2.7476E4,8.656E3,1.6441E4,1.1035E4,1.3E1,8.643E3,6.307E3,1.0134E4,1.0363E4,6.72E2,3.34E2,8.309E3],"tree_param":{"num_deleted":"0","num_feature":"4","num_nodes":"13","size_leaf_vector":"1"}},{"base_weights":[8.817289E-5,1.0251502E-3,-2.2853278E-3,3.9547132E-4,1.0923871E-2,-1.6267751E-3,-2.1466216E-2,1.6104245E-4,-2.167945E-4,1.5210097E-3,-3.2432254E-3,-6.1924895E-4,5.6271703E-4,-1.3179359E-3,-4.480007E-3],"categories":[],"categories_nodes":[],"categories_segments":[],"categories_sizes":[],"default_left":[0,0,0,0,0,0,0,0,0,0,0,0,0,0,0],"id":79,"left_children":[1,3,5,7,9,11,13,-1,-1,-1,-1,-1,-1,-1,-1],"loss_changes":[8.0027744E-2,1.6080749E-1,1.2861815E-1,4.2207714E-2,4.3254882E-2,1.8398198E-1,4.9409255E-2,0E0,0E0,0E0,0E0,0E0,0E0,0E0,0E0],"parents":[2147483647,0,0,1,1,2,2,3,3,4,4,5,5,6,6],"right_children":[2,4,6,8,10,12,14,-1,-1,-1,-1,-1,-1,-1,-1],"split_conditions":[1E1,7.6E-1,1.04E2,6.2E-1,1.4E2,3.88E2,6.6E-1,1.6104245E-4,-2.167945E-4,1.5210097E-3,-3.2432254E-3,-6.1924895E-4,5.6271703E-4,-1.3179359E-3,-4.480007E-3],"split_indices":[2,3,1,3,1,0,3,0,0,0,0,0,0,0,0],"split_type":[0,0,0,0,0,0,0,0,0,0,0,0,0,0,0],"sum_hessian":[3.5983E4,2.5799E4,1.0184E4,2.4257E4,1.542E3,9.847E3,3.37E2,1.7219E4,7.038E3,1.51E3,3.2E1,6.45E3,3.397E3,1.81E2,1.56E2],"tree_param":{"num_deleted":"0","num_feature":"4","num_nodes":"15","size_leaf_vector":"1"}},{"base_weights":[2.233007E-4,-1.791333E-3,6.1341235E-4,1.9964365E-2,-2.4681166E-3,1.1593651E-2,4.4716464E-4,2.3391609E-4,5.008416E-3,-1.8952733E-4,-1.9082063E-3,3.744167E-3,-1.4794277E-3,4.7004873E-5,1.9006832E-3],"categories":[],"categories_nodes":[],"categories_segments":[],"categories_sizes":[],"default_left":[0,0,0,0,0,0,0,0,0,0,0,0,0,0,0],"id":80,"left_children":[1,3,5,7,9,11,13,-1,-1,-1,-1,-1,-1,-1,-1],"loss_changes":[2.8244354E-2,8.5889615E-2,5.495332E-2,5.927389E-2,6.973365E-2,1.7782907E-1,3.5973728E-2,0E0,0E0,0E0,0E0,0E0,0E0,0E0,0E0],"parents":[2147483647,0,0,1,1,2,2,3,3,4,4,5,5,6,6],"right_children":[2,4,6,8,10,12,14,-1,-1,-1,-1,-1,-1,-1,-1],"split_conditions":[1.14E2,2E0,8E0,2.9E1,8E-1,1.4E1,9.4E-1,2.3391609E-4,5.008416E-3,-1.8952733E-4,-1.9082063E-3,3.744167E-3,-1.4794277E-3,4.7004873E-5,1.9006832E-3],"split_indices":[0,1,1,0,3,2,3,0,0,0,0,0,0,0,0],"split_type":[0,0,0,0,0,0,0,0,0,0,0,0,0,0,0],"sum_hessian":[3.5935E4,5.829E3,3.0106E4,1.75E2,5.654E3,4.48E2,2.9658E4,8.9E1,8.6E1,5.223E3,4.31E2,2.56E2,1.92E2,2.9481E4,1.77E2],"tree_param":{"num_deleted":"0","num_feature":"4","num_nodes":"15","size_leaf_vector":"1"}},{"base_weights":[-9.398496E-5,-1.38543E-2,2.3333643E-5,-4.8751575E-3,-2.0903299E-2,-3.6891096E-4,2.792625E-3,2.4723269E-3,-1.4696869E-3,5.606486E-4,-3.452544E-3,2.2088291E-4,-1.1889256E-4,1.8225551E-3,2.7258825E-4],"categories":[],"categories_nodes":[],"categories_segments":[],"categories_sizes":[],"default_left":[0,0,0,0,0,0,0,0,0,0,0,0,0,0,0],"id":81,"left_children":[1,3,5,7,9,11,13,-1,-1,-1,-1,-1,-1,-1,-1],"loss_changes":[5.8052022E-2,1.9139454E-2,3.8733076E-2,2.0955779E-2,2.4354786E-2,3.5246126E-2,3.4529485E-2,0E0,0E0,0E0,0E0,0E0,0E0,0E0,0E0],"parents":[2147483647,0,0,1,1,2,2,3,3,4,4,5,5,6,6],"right_children":[2,4,6,8,10,12,14,-1,-1,-1,-1,-1,-1,-1,-1],"split_conditions":[2.5E1,3E0,5.29E2,5.3E-1,5E0,1.7E1,5.33E2,2.4723269E-3,-1.4696869E-3,5.606486E-4,-3.452544E-3,2.2088291E-4,-1.1889256E-4,1.8225551E-3,2.7258825E-4],"split_indices":[0,1,0,3,2,1,0,0,0,0,0,0,0,0,0],"split_type":[0,0,0,0,0,0,0,0,0,0,0,0,0,0,0],"sum_hessian":[3.5959E4,3.03E2,3.5656E4,1.34E2,1.69E2,3.1233E4,4.423E3,2.8E1,1.06E2,3.1E1,1.38E2,6.52E3,2.4713E4,2.57E2,4.166E3],"tree_param":{"num_deleted":"0","num_feature":"4","num_nodes":"15","size_leaf_vector":"1"}},{"base_weights":[-5.5602555E-5,-5.3819898E-3,1.3598795E-4,8.5663906E-4,-1.2527184E-2,3.802078E-3,-3.182952E-4,7.7740033E-4,-1.7255723E-3,-3.5806006E-4,-2.808881E-3,2.5583347E-4,1.388758E-3,-8.305896E-4,1.4375462E-6],"categories":[],"categories_nodes":[],"categories_segments":[],"categories_sizes":[],"default_left":[0,0,0,0,0,0,0,0,0,0,0,0,0,0,0],"id":82,"left_children":[1,3,5,7,9,11,13,-1,-1,-1,-1,-1,-1,-1,-1],"loss_changes":[3.6503486E-2,5.5374388E-2,5.750729E-2,4.8149344E-2,5.1317327E-2,4.802347E-2,6.1429355E-2,0E0,0E0,0E0,0E0,0E0,0E0,0E0,0E0],"parents":[2147483647,0,0,1,1,2,2,3,3,4,4,5,5,6,6],"right_children":[2,4,6,8,10,12,14,-1,-1,-1,-1,-1,-1,-1,-1],"split_conditions":[4.1E1,5E0,1.3E1,7.4E-1,7E0,1.56E2,1.02E2,7.7740033E-4,-1.7255723E-3,-3.5806006E-4,-2.808881E-3,2.5583347E-4,1.388758E-3,-8.305896E-4,1.4375462E-6],"split_indices":[0,1,1,3,2,0,0,0,0,0,0,0,0,0,0],"split_type":[0,0,0,0,0,0,0,0,0,0,0,0,0,0,0],"sum_hessian":[3.5769E4,1.241E3,3.4528E4,6.63E2,