{"learner":{"attributes":{"scikit_learn":"{\"_estimator_type\": \"regressor\"}"},"feature_names":["reading_time","idle_time","total_scrolls","max_scroll_depth"],"feature_types":["int","int","int","float"],"gradient_booster":{"model":{"cats":{"enc":[],"feature_segments":[],"sorted_idx":[]},"gbtree_model_param":{"num_parallel_tree":"1","num_trees":"800"},"iteration_indptr":[0,1,2,3,4,5,6,7,8,9,10,11,12,13,14,15,16,17,18,19,20,21,22,23,24,25,26,27,28,29,30,31,32,33,34,35,36,37,38,39,40,41,42,43,44,45,46,47,48,49,50,51,52,53,54,55,56,57,58,59,60,61,62,63,64,65,66,67,68,69,70,71,72,73,74,75,76,77,78,79,80,81,82,83,84,85,86,87,88,89,90,91,92,93,94,95,96,97,98,99,100,101,102,103,104,105,106,107,108,109,110,111,112,113,114,115,116,117,118,119,120,121,122,123,124,125,126,127,128,129,130,131,132,133,134,135,136,137,138,139,140,141,142,143,144,145,146,147,148,149,150,151,152,153,154,155,156,157,158,159,160,161,162,163,164,165,166,167,168,169,170,171,172,173,174,175,176,177,178,179,180,181,182,183,184,185,186,187,188,189,190,191,192,193,194,195,196,197,198,199,200,201,202,203,204,205,206,207,208,209,210,211,212,213,214,215,216,217,218,219,220,221,222,223,224,225,226,227,228,229,230,231,232,233,234,235,236,237,238,239,240,241,242,243,244,245,246,247,248,249,250,251,252,253,254,255,256,257,258,259,260,261,262,263,264,265,266,267,268,269,270,271,272,273,274,275,276,277,278,279,280,281,282,283,284,285,286,287,288,289,290,291,292,293,294,295,296,297,298,299,300,301,302,303,304,305,306,307,308,309,310,311,312,313,314,315,316,317,318,319,320,321,322,323,324,325,326,327,328,329,330,331,332,333,334,335,336,337,338,339,340,341,342,343,344,345,346,347,348,349,350,351,352,353,354,355,356,357,358,359,360,361,362,363,364,365,366,367,368,369,370,371,372,373,374,375,376,377,378,379,380,381,382,383,384,385,386,387,388,389,390,391,392,393,394,395,396,397,398,399,400,401,402,403,404,405,406,407,408,409,410,411,412,413,414,415,416,417,418,419,420,421,422,423,424,425,426,427,428,429,430,431,432,433,434,435,436,437,438,439,440,441,442,443,444,445,446,447,448,449,450,451,452,453,454,455,456,457,458,459,460,461,462,463,464,465,466,467,468,469,470,471,472,473,474,475,476,477,478,479,480,481,482,483,484,485,486,487,488,489,490,491,492,493,494,495,496,497,498,499,500,501,502,503,504,505,506,507,508,509,510,511,512,513,514,515,516,517,518,519,520,521,522,523,524,525,526,527,528,529,530,531,532,533,534,535,536,537,538,539,540,541,542,543,544,545,546,547,548,549,550,551,552,553,554,555,556,557,558,559,560,561,562,563,564,565,566,567,568,569,570,571,572,573,574,575,576,577,578,579,580,581,582,583,584,585,586,587,588,589,590,591,592,593,594,595,596,597,598,599,600,601,602,603,604,605,606,607,608,609,610,611,612,613,614,615,616,617,618,619,620,621,622,623,624,625,626,627,628,629,630,631,632,633,634,635,636,637,638,639,640,641,642,643,644,645,646,647,648,649,650,651,652,653,654,655,656,657,658,659,660,661,662,663,664,665,666,667,668,669,670,671,672,673,674,675,676,677,678,679,680,681,682,683,684,685,686,687,688,689,690,691,692,693,694,695,696,697,698,699,700,701,702,703,704,705,706,707,708,709,710,711,712,713,714,715,716,717,718,719,720,721,722,723,724,725,726,727,728,729,730,731,732,733,734,735,736,737,738,739,740,741,742,743,744,745,746,747,748,749,750,751,752,753,754,755,756,757,758,759,760,761,762,763,764,765,766,767,768,769,770,771,772,773,774,775,776,777,778,779,780,781,782,783,784,785,786,787,788,789,790,791,792,793,794,795,796,797,798,799,800],"tree_info":[0,0,0,0,0,0,0,0,0,0,0,0,0,0,0,0,0,0,0,0,0,0,0,0,0,0,0,0,0,0,0,0,0,0,0,0,0,0,0,0,0,0,0,0,0,0,0,0,0,0,0,0,0,0,0,0,0,0,0,0,0,0,0,0,0,0,0,0,0,0,0,0,0,0,0,0,0,0,0,0,0,0,0,0,0,0,0,0,0,0,0,0,0,0,0,0,0,0,0,0,0,0,0,0,0,0,0,0,0,0,0,0,0,0,0,0,0,0,0,0,0,0,0,0,0,0,0,0,0,0,0,0,0,0,0,0,0,0,0,0,0,0,0,0,0,0,0,0,0,0,0,0,0,0,0,0,0,0,0,0,0,0,0,0,0,0,0,0,0,0,0,0,0,0,0,0,0,0,0,0,0,0,0,0,0,0,0,0,0,0,0,0,0,0,0,0,0,0,0,0,0,0,0,0,0,0,0,0,0,0,0,0,0,0,0,0,0,0,0,0,0,0,0,0,0,0,0,0,0,0,0,0,0,0,0,0,0,0,0,0,0,0,0,0,0,0,0,0,0,0,0,0,0,0,0,0,0,0,0,0,0,0,0,0,0,0,0,0,0,0,0,0,0,0,0,0,0,0,0,0,0,0,0,0,0,0,0,0,0,0,0,0,0,0,0,0,0,0,0,0,0,0,0,0,0,0,0,0,0,0,0,0,0,0,0,0,0,0,0,0,0,0,0,0,0,0,0,0,0,0,0,0,0,0,0,0,0,0,0,0,0,0,0,0,0,0,0,0,0,0,0,0,0,0,0,0,0,0,0,0,0,0,0,0,0,0,0,0,0,0,0,0,0,0,0,0,0,0,0,0,0,0,0,0,0,0,0,0,0,0,0,0,0,0,0,0,0,0,0,0,0,0,0,0,0,0,0,0,0,0,0,0,0,0,0,0,0,0,0,0,0,0,0,0,0,0,0,0,0,0,0,0,0,0,0,0,0,0,0,0,0,0,0,0,0,0,0,0,0,0,0,0,0,0,0,0,0,0,0,0,0,0,0,0,0,0,0,0,0,0,0,0,0,0,0,0,0,0,0,0,0,0,0,0,0,0,0,0,0,0,0,0,0,0,0,0,0,0,0,0,0,0,0,0,0,0,0,0,0,0,0,0,0,0,0,0,0,0,0,0,0,0,0,0,0,0,0,0,0,0,0,0,0,0,0,0,0,0,0,0,0,0,0,0,0,0,0,0,0,0,0,0,0,0,0,0,0,0,0,0,0,0,0,0,0,0,0,0,0,0,0,0,0,0,0,0,0,0,0,0,0,0,0,0,0,0,0,0,0,0,0,0,0,0,0,0,0,0,0,0,0,0,0,0,0,0,0,0,0,0,0,0,0,0,0,0,0,0,0,0,0,0,0,0,0,0,0,0,0,0,0,0,0,0,0,0,0,0,0,0,0,0,0,0,0,0,0,0,0,0,0,0,0,0,0,0,0,0,0,0,0,0,0,0,0,0,0,0,0,0,0,0,0,0,0,0,0,0,0,0,0,0,0,0,0,0,0,0,0,0,0,0,0,0,0,0,0,0,0,0,0,0,0,0,0,0,0,0,0,0,0,0,0,0,0,0,0,0,0,0,0,0,0,0,0,0,0,0,0,0,0,0,0,0,0,0,0,0,0,0,0,0,0,0,0,0,0,0,0,0,0,0,0,0,0,0,0,0,0,0,0,0,0,0,0,0,0,0,0,0,0,0,0,0,0,0,0,0,0,0,0,0,0,0,0,0,0,0,0,0,0,0,0,0,0,0,0,0,0,0],"trees":[{"base_weights":[2.2585506E-5,-1.5924348E-1,1.2719898E-1,-2.6891944E-1,-8.356936E-2,6.8090096E-2,2.51445E-1,-4.2382963E-2,-2.6402054E-2,-1.5726188E-2,-6.925458E-3,1.8766888E-3,1.312149E-2,2.7215915E-2,4.510075E-2],"categories":[],"categories_nodes":[],"categories_segments":[],"categories_sizes":[],"default_left":[0,0,0,0,0,0,0,0,0,0,0,0,0,0,0],"id":0,"left_children":[1,3,5,7,9,11,13,-1,-1,-1,-1,-1,-1,-1,-1],"loss_changes":[7.3116077E2,1.3299579E2,1.4738522E2,2.4528442E1,1.0741318E1,2.3968483E1,2.5930817E1,0E0,0E0,0E0,0E0,0E0,0E0,0E0,0E0],"parents":[2147483647,0,0,1,1,2,2,3,3,4,4,5,5,6,6],"right_children":[2,4,6,8,10,12,14,-1,-1,-1,-1,-1,-1,-1,-1],"split_conditions":[8E0,6E0,1.1E1,5E0,7E0,9E0,1.3E1,-4.2382963E-2,-2.6402054E-2,-1.5726188E-2,-6.925458E-3,1.8766888E-3,1.312149E-2,2.7215915E-2,4.510075E-2],"split_indices":[2,2,2,2,2,2,2,0,0,0,0,0,0,0,0],"split_type":[0,0,0,0,0,0,0,0,0,0,0,0,0,0,0],"sum_hessian":[3.6096E4,1.6026E4,2.007E4,6.542E3,9.484E3,1.3601E4,6.469E3,3.501E3,3.041E3,4.243E3,5.241E3,5.165E3,8.436E3,4.492E3,1.977E3],"tree_param":{"num_deleted":"0","num_feature":"4","num_nodes":"15","size_leaf_vector":"1"}},{"base_weights":[-4.976917E-4,-1.3899694E-1,1.1070122E-1,-2.3357438E-1,-7.4314244E-2,5.965357E-2,2.187088E-1,-3.693626E-2,-2.3014741E-2,-1.3771131E-2,-6.233897E-3,2.9874863E-3,1.327409E-2,2.5220132E-2,4.591343E-2],"categories":[],"categories_nodes":[],"categories_segments":[],"categories_sizes":[],"default_left":[0,0,0,0,0,0,0,0,0,0,0,0,0,0,0],"id":1,"left_children":[1,3,5,7,9,11,13,-1,-1,-1,-1,-1,-1,-1,-1],"loss_changes":[5.5640607E2,9.840747E1,1.1047264E2,1.8624054E1,7.959614E0,2.1186073E1,2.12984E1,0E0,0E0,0E0,0E0,0E0,0E0,0E0,0E0],"parents":[2147483647,0,0,1,1,2,2,3,3,4,4,5,5,6,6],"right_children":[2,4,6,8,10,12,14,-1,-1,-1,-1,-1,-1,-1,-1],"split_conditions":[8E0,6E0,1.1E1,5E0,7E0,6.5E-1,1.4E1,-3.693626E-2,-2.3014741E-2,-1.3771131E-2,-6.233897E-3,2.9874863E-3,1.327409E-2,2.5220132E-2,4.591343E-2],"split_indices":[2,2,2,2,2,3,2,0,0,0,0,0,0,0,0],"split_type":[0,0,0,0,0,0,0,0,0,0,0,0,0,0,0],"sum_hessian":[3.6126E4,1.6088E4,2.0038E4,6.533E3,9.555E3,1.3608E4,6.43E3,3.447E3,3.086E3,4.343E3,5.212E3,7.302E3,6.306E3,5.434E3,9.96E2],"tree_param":{"num_deleted":"0","num_feature":"4","num_nodes":"15","size_leaf_vector":"1"}},{"base_weights":[-8.895698E-4,-1.2136557E-1,9.664414E-2,-2.025452E-1,-6.420792E-2,3.0615823E-2,1.6109715E-1,-3.216757E-2,-1.992206E-2,-1.2459438E-2,-5.391119E-3,6.1434717E-4,8.652689E-3,1.5668161E-2,2.983657E-2],"categories":[],"categories_nodes":[],"categories_segments":[],"categories_sizes":[],"default_left":[0,0,0,0,0,0,0,0,0,0,0,0,0,0,0],"id":2,"left_children":[1,3,5,7,9,11,13,-1,-1,-1,-1,-1,-1,-1,-1],"loss_changes":[4.235222E2,7.480759E1,8.4760605E1,1.4707703E1,6.803341E0,9.156549E0,2.7949524E1,0E0,0E0,0E0,0E0,0E0,0E0,0E0,0E0],"parents":[2147483647,0,0,1,1,2,2,3,3,4,4,5,5,6,6],"right_children":[2,4,6,8,10,12,14,-1,-1,-1,-1,-1,-1,-1,-1],"split_conditions":[8E0,6E0,1E1,5E0,5.4E-1,6.5E-1,1.2E1,-3.216757E-2,-1.992206E-2,-1.2459438E-2,-5.391119E-3,6.1434717E-4,8.652689E-3,1.5668161E-2,2.983657E-2],"split_indices":[2,2,2,2,3,3,2,0,0,0,0,0,0,0,0],"split_type":[0,0,0,0,0,0,0,0,0,0,0,0,0,0,0],"sum_hessian":[3.6041E4,1.6124E4,1.9917E4,6.661E3,9.463E3,9.839E3,1.0078E4,3.484E3,3.177E3,3.956E3,5.507E3,5.72E3,4.119E3,6.328E3,3.75E3],"tree_param":{"num_deleted":"0","num_feature":"4","num_nodes":"15","size_leaf_vector":"1"}},{"base_weights":[1.1069892E-3,-7.861899E-2,1.14292435E-1,-1.768347E-1,-3.517206E-2,8.414047E-2,2.0272765E-1,-2.7886366E-2,-1.7499115E-2,-1.0980228E-2,-1.9545036E-3,8.312197E-3,1.8689247E-2,2.4120262E-2,4.2382803E-2],"categories":[],"categories_nodes":[],"categories_segments":[],"categories_sizes":[],"default_left":[0,0,0,0,0,0,0,0,0,0,0,0,0,0,0],"id":3,"left_children":[1,3,5,7,9,11,13,-1,-1,-1,-1,-1,-1,-1,-1],"loss_changes":[3.252726E2,9.024019E1,3.970572E1,1.0289719E1,1.4554192E1,1.33730545E1,7.964447E0,0E0,0E0,0E0,0E0,0E0,0E0,0E0,0E0],"parents":[2147483647,0,0,1,1,2,2,3,3,4,4,5,5,6,6],"right_children":[2,4,6,8,10,12,14,-1,-1,-1,-1,-1,-1,-1,-1],"split_conditions":[9E0,6E0,1.2E1,5E0,7E0,7.4E-1,1.5E1,-2.7886366E-2,-1.7499115E-2,-1.0980228E-2,-1.9545036E-3,8.312197E-3,1.8689247E-2,2.4120262E-2,4.2382803E-2],"split_indices":[2,2,2,2,2,3,2,0,0,0,0,0,0,0,0],"split_type":[0,0,0,0,0,0,0,0,0,0,0,0,0,0,0],"sum_hessian":[3.6044E4,2.1148E4,1.4896E4,6.485E3,1.4663E4,1.111E4,3.786E3,3.425E3,3.06E3,4.252E3,1.0411E4,8.3E3,2.81E3,3.325E3,4.61E2],"tree_param":{"num_deleted":"0","num_feature":"4","num_nodes":"15","size_leaf_vector":"1"}},{"base_weights":[9.679586E-4,-9.1698915E-2,7.450222E-2,-1.5315539E-1,-4.9385056E-2,4.0246364E-2,1.4748302E-1,-2.4271509E-2,-1.4986161E-2,-8.318932E-3,-1.8634537E-3,1.2082247E-3,8.7137455E-3,1.6804509E-2,3.201202E-2],"categories":[],"categories_nodes":[],"categories_segments":[],"categories_sizes":[],"default_left":[0,0,0,0,0,0,0,0,0,0,0,0,0,0,0],"id":4,"left_children":[1,3,5,7,9,11,13,-1,-1,-1,-1,-1,-1,-1,-1],"loss_changes":[2.4571292E2,4.148018E1,5.0256966E1,8.244537E0,4.8372707E0,1.1343128E1,1.1522812E1,0E0,0E0,0E0,0E0,0E0,0E0,0E0,0E0],"parents":[2147483647,0,0,1,1,2,2,3,3,4,4,5,5,6,6],"right_children":[2,4,6,8,10,12,14,-1,-1,-1,-1,-1,-1,-1,-1],"split_conditions":[8E0,6E0,1.1E1,5E0,6.2E-1,6.3E-1,1.4E1,-2.4271509E-2,-1.4986161E-2,-8.318932E-3,-1.8634537E-3,1.2082247E-3,8.7137455E-3,1.6804509E-2,3.201202E-2],"split_indices":[2,2,2,2,3,3,2,0,0,0,0,0,0,0,0],"split_type":[0,0,0,0,0,0,0,0,0,0,0,0,0,0,0],"sum_hessian":[3.6057E4,1.5953E4,2.0104E4,6.504E3,9.449E3,1.3683E4,6.421E3,3.447E3,3.057E3,6.669E3,2.78E3,6.348E3,7.335E3,5.423E3,9.98E2],"tree_param":{"num_deleted":"0","num_feature":"4","num_nodes":"15","size_leaf_vector":"1"}},{"base_weights":[1.587529E-5,-6.061228E-2,8.667497E-2,-1.3448018E-1,-2.8370973E-2,6.3359134E-2,1.5561323E-1,-2.6657974E-2,-1.5559711E-2,-8.495366E-3,-1.688597E-3,5.934013E-3,1.3981662E-2,1.6665474E-2,2.7237298E-2],"categories":[],"categories_nodes":[],"categories_segments":[],"categories_sizes":[],"default_left":[0,0,0,0,0,0,0,0,0,0,0,0,0,0,0],"id":5,"left_children":[1,3,5,7,9,11,13,-1,-1,-1,-1,-1,-1,-1,-1],"loss_changes":[1.887125E2,5.03265E1,2.3754852E1,6.6783447E0,8.367711E0,8.644699E0,5.494629E0,0E0,0E0,0E0,0E0,0E0,0E0,0E0,0E0],"parents":[2147483647,0,0,1,1,2,2,3,3,4,4,5,5,6,6],"right_children":[2,4,6,8,10,12,14,-1,-1,-1,-1,-1,-1,-1,-1],"split_conditions":[9E0,6E0,1.2E1,4E0,7E0,7.3E-1,8E-1,-2.6657974E-2,-1.5559711E-2,-8.495366E-3,-1.688597E-3,5.934013E-3,1.3981662E-2,1.6665474E-2,2.7237298E-2],"split_indices":[2,2,2,2,2,3,3,0,0,0,0,0,0,0,0],"split_type":[0,0,0,0,0,0,0,0,0,0,0,0,0,0,0],"sum_hessian":[3.5916E4,2.1132E4,1.4784E4,6.42E3,1.4712E4,1.1049E4,3.735E3,1.11E3,5.31E3,4.321E3,1.0391E4,7.889E3,3.16E3,2.478E3,1.257E3],"tree_param":{"num_deleted":"0","num_feature":"4","num_nodes":"15","size_leaf_vector":"1"}},{"base_weights":[2.571363E-4,-7.002667E-2,5.643574E-2,-1.4299153E-1,-4.9842298E-2,1.559356E-2,9.602329E-2,-2.3159787E-2,-1.6430238E-2,-9.551432E-3,-3.7026764E-3,-2.0150146E-3,4.1072466E-3,1.0015756E-2,2.032388E-2],"categories":[],"categories_nodes":[],"categories_segments":[],"categories_sizes":[],"default_left":[0,0,0,0,0,0,0,0,0,0,0,0,0,0,0],"id":6,"left_children":[1,3,5,7,9,11,13,-1,-1,-1,-1,-1,-1,-1,-1],"loss_changes":[1.4227438E2,2.3567177E1,3.2377377E1,2.002266E0,6.327429E0,4.9050307E0,1.1628464E1,0E0,0E0,0E0,0E0,0E0,0E0,0E0,0E0],"parents":[2147483647,0,0,1,1,2,2,3,3,4,4,5,5,6,6],"right_children":[2,4,6,8,10,12,14,-1,-1,-1,-1,-1,-1,-1,-1],"split_conditions":[8E0,5E0,1E1,4E0,5.4E-1,5.8E-1,7.9E-1,-2.3159787E-2,-1.6430238E-2,-9.551432E-3,-3.7026764E-3,-2.0150146E-3,4.1072466E-3,1.0015756E-2,2.032388E-2],"split_indices":[2,2,2,2,3,3,3,0,0,0,0,0,0,0,0],"split_type":[0,0,0,0,0,0,0,0,0,0,0,0,0,0,0],"sum_hessian":[3.6031E4,1.6006E4,2.0025E4,3.467E3,1.2539E4,9.857E3,1.0168E4,1.109E3,2.358E3,5.952E3,6.587E3,3.349E3,6.508E3,7.736E3,2.432E3],"tree_param":{"num_deleted":"0","num_feature":"4","num_nodes":"15","size_leaf_vector":"1"}},{"base_weights":[1.9901946E-4,-4.5549463E-2,6.5521516E-2,-1.0271536E-1,-2.071462E-2,5.2793615E-2,1.4732192E-1,-2.0085253E-2,-1.19718155E-2,-4.957732E-3,3.1509055E-4,4.290734E-3,1.0571653E-2,4.3236565E-2,1.8076185E-2],"categories":[],"categories_nodes":[],"categories_segments":[],"categories_sizes":[],"default_left":[0,0,0,0,0,0,0,0,0,0,0,0,0,0,0],"id":7,"left_children":[1,3,5,7,9,11,13,-1,-1,-1,-1,-1,-1,-1,-1],"loss_changes":[1.0806969E2,3.0192177E1,1.5500114E1,3.5296402E0,5.977437E0,7.274124E0,3.0273438E0,0E0,0E0,0E0,0E0,0E0,0E0,0E0,0E0],"parents":[2147483647,0,0,1,1,2,2,3,3,4,4,5,5,6,6],"right_children":[2,4,6,8,10,12,14,-1,-1,-1,-1,-1,-1,-1,-1],"split_conditions":[9E0,6E0,1.3E1,4E0,6E-1,7E-1,1E0,-2.0085253E-2,-1.19718155E-2,-4.957732E-3,3.1509055E-4,4.290734E-3,1.0571653E-2,4.3236565E-2,1.8076185E-2],"split_indices":[2,2,2,2,3,3,1,0,0,0,0,0,0,0,0],"split_type":[0,0,0,0,0,0,0,0,0,0,0,0,0,0,0],"sum_hessian":[3.6161E4,2.1267E4,1.4894E4,6.44E3,1.4827E4,1.289E4,2.004E3,1.094E3,5.346E3,8.458E3,6.369E3,7.612E3,5.278E3,8.4E1,1.92E3],"tree_param":{"num_deleted":"0","num_feature":"4","num_nodes":"15","size_leaf_vector":"1"}},{"base_weights":[-4.9214077E-4,-5.394432E-2,4.2777162E-2,-8.944102E-2,-2.9452791E-2,1.08523285E-2,7.34462E-2,-1.4163421E-2,-8.665707E-3,-6.7548836E-3,-2.2664163E-3,-2.3794337E-3,2.8111243E-3,8.331911E-3,2.0451227E-2],"categories":[],"categories_nodes":[],"categories_segments":[],"categories_sizes":[],"default_left":[0,0,0,0,0,0,0,0,0,0,0,0,0,0,0],"id":8,"left_children":[1,3,5,7,9,11,13,-1,-1,-1,-1,-1,-1,-1,-1],"loss_changes":[8.330382E1,1.4005501E1,1.9488262E1,2.9162254E0,2.5787516E0,3.0637004E0,7.9549446E0,0E0,0E0,0E0,0E0,0E0,0E0,0E0,0E0],"parents":[2147483647,0,0,1,1,2,2,3,3,4,4,5,5,6,6],"right_children":[2,4,6,8,10,12,14,-1,-1,-1,-1,-1,-1,-1,-1],"split_conditions":[8E0,6E0,1E1,5E0,5.2E-1,5.6E-1,1.4E1,-1.4163421E-2,-8.665707E-3,-6.7548836E-3,-2.2664163E-3,-2.3794337E-3,2.8111243E-3,8.331911E-3,2.0451227E-2],"split_indices":[2,2,2,2,3,3,2,0,0,0,0,0,0,0,0],"split_type":[0,0,0,0,0,0,0,0,0,0,0,0,0,0,0],"sum_hessian":[3.6016E4,1.6112E4,1.9904E4,6.577E3,9.535E3,9.753E3,1.0151E4,3.541E3,3.036E3,3.318E3,6.217E3,2.631E3,7.122E3,9.134E3,1.017E3],"tree_param":{"num_deleted":"0","num_feature":"4","num_nodes":"15","size_leaf_vector":"1"}},{"base_weights":[9.622157E-5,-3.4658104E-2,4.9499348E-2,-6.297788E-2,-5.4807817E-3,3.4983605E-2,1.0118332E-1,-1.2388341E-2,-6.222206E-3,-1.9059797E-3,2.9427148E-3,6.413413E-3,1.138866E-3,1.8452344E-2,9.257007E-3],"categories":[],"categories_nodes":[],"categories_segments":[],"categories_sizes":[],"default_left":[0,0,0,0,0,0,0,0,0,0,0,0,0,0,0],"id":9,"left_children":[1,3,5,7,9,11,13,-1,-1,-1,-1,-1,-1,-1,-1],"loss_changes":[6.2202477E1,1.7572474E1,1.1220669E1,5.2669487E0,2.7045164E0,4.395627E0,3.9971924E0,0E0,0E0,0E0,0E0,0E0,0E0,0E0,0E0],"parents":[2147483647,0,0,1,1,2,2,3,3,4,4,5,5,6,6],"right_children":[2,4,6,8,10,12,14,-1,-1,-1,-1,-1,-1,-1,-1],"split_conditions":[9E0,7E0,7.8E-1,5E0,6.7E-1,4.9E1,1.9E1,-1.2388341E-2,-6.222206E-3,-1.9059797E-3,2.9427148E-3,6.413413E-3,1.138866E-3,1.8452344E-2,9.257007E-3],"split_indices":[2,2,3,2,3,1,1,0,0,0,0,0,0,0,0],"split_type":[0,0,0,0,0,0,0,0,0,0,0,0,0,0,0],"sum_hessian":[3.6226E4,2.1266E4,1.496E4,1.0791E4,1.0475E4,1.1681E4,3.279E3,3.437E3,7.354E3,7.897E3,2.578E3,7.549E3,4.132E3,1.388E3,1.891E3],"tree_param":{"num_deleted":"0","num_feature":"4","num_nodes":"15","size_leaf_vector":"1"}},{"base_weights":[5.1878114E-6,-5.558074E-2,2.343404E-2,-8.1763834E-2,-4.0781297E-2,9.585561E-4,5.672672E-2,-1.2836329E-2,-8.419044E-3,-1.3203029E-2,-4.7865547E-3,-3.1010243E-3,1.3184373E-3,1.068244E-2,4.0876665E-3],"categories":[],"categories_nodes":[],"categories_segments":[],"categories_sizes":[],"default_left":[0,0,0,0,0,0,0,0,0,0,0,0,0,0,0],"id":10,"left_children":[1,3,5,7,9,11,13,-1,-1,-1,-1,-1,-1,-1,-1],"loss_changes":[4.6898952E1,4.1343384E0,1.8956593E1,1.1063309E0,1.6394167E0,3.4466348E0,6.566044E0,0E0,0E0,0E0,0E0,0E0,0E0,0E0,0E0],"parents":[2147483647,0,0,1,1,2,2,3,3,4,4,5,5,6,6],"right_children":[2,4,6,8,10,12,14,-1,-1,-1,-1,-1,-1,-1,-1],"split_conditions":[7E0,4.6E-1,1E1,5E0,4E0,5.4E-1,2.9E1,-1.2836329E-2,-8.419044E-3,-1.3203029E-2,-4.7865547E-3,-3.1010243E-3,1.3184373E-3,1.068244E-2,4.0876665E-3],"split_indices":[2,3,2,2,2,3,1,0,0,0,0,0,0,0,0],"split_type":[0,0,0,0,0,0,0,0,0,0,0,0,0,0,0],"sum_hessian":[3.601E4,1.0677E4,2.5333E4,3.854E3,6.823E3,1.5124E4,1.0209E4,1.926E3,1.928E3,4.16E2,6.407E3,4.085E3,1.1039E4,5.087E3,5.122E3],"tree_param":{"num_deleted":"0","num_feature":"4","num_nodes":"15","size_leaf_vector":"1"}},{"base_weights":[1.4196E-4,-3.5872675E-2,2.8965537E-2,-6.0378455E-2,-1.9215671E-2,1.624219E-2,7.315236E-2,-1.2452452E-2,-6.862241E-3,-5.1826998E-3,-1.4474591E-3,1.2989223E-3,7.7571925E-3,1.2380661E-2,4.9405065E-3],"categories":[],"categories_nodes":[],"categories_segments":[],"categories_sizes":[],"default_left":[0,0,0,0,0,0,0,0,0,0,0,0,0,0,0],"id":11,"left_children":[1,3,5,7,9,11,13,-1,-1,-1,-1,-1,-1,-1,-1],"loss_changes":[3.7401688E1,6.536865E0,1.1250206E1,1.7372265E0,1.5911896E0,4.2177224E0,3.4691048E0,0E0,0E0,0E0,0E0,0E0,0E0,0E0,0E0],"parents":[2147483647,0,0,1,1,2,2,3,3,4,4,5,5,6,6],"right_children":[2,4,6,8,10,12,14,-1,-1,-1,-1,-1,-1,-1,-1],"split_conditions":[8E0,6E0,7.6E-1,4E0,5E-1,1.2E1,3.4E1,-1.2452452E-2,-6.862241E-3,-5.1826998E-3,-1.4474591E-3,1.2989223E-3,7.7571925E-3,1.2380661E-2,4.9405065E-3],"split_indices":[2,2,3,2,3,2,1,0,0,0,0,0,0,0,0],"split_type":[0,0,0,0,0,0,0,0,0,0,0,0,0,0,0],"sum_hessian":[3.6028E4,1.6016E4,2.0012E4,6.48E3,9.536E3,1.5539E4,4.473E3,1.142E3,5.338E3,2.681E3,6.855E3,1.3585E4,1.954E3,2.746E3,1.727E3],"tree_param":{"num_deleted":"0","num_feature":"4","num_nodes":"15","size_leaf_vector":"1"}},{"base_weights":[-1.6856084E-4,-2.4070052E-2,3.3815004E-2,-4.98368E-2,-1.0262151E-2,2.6300618E-2,8.923307E-2,-9.4865775E-3,-5.0422493E-3,-3.5760754E-3,1.082038E-4,4.5797736E-3,-8.833455E-4,2.7641179E-2,1.04723815E-2],"categories":[],"categories_nodes":[],"categories_segments":[],"categories_sizes":[],"default_left":[0,0,0,0,0,0,0,0,0,0,0,0,0,0,0],"id":12,"left_children":[1,3,5,7,9,11,13,-1,-1,-1,-1,-1,-1,-1,-1],"loss_changes":[2.9249409E1,7.5211334E0,6.1895924E0,1.8829823E0,2.633967E0,3.8696928E0,1.8831501E0,0E0,0E0,0E0,0E0,0E0,0E0,0E0,0E0],"parents":[2147483647,0,0,1,1,2,2,3,3,4,4,5,5,6,6],"right_children":[2,4,6,8,10,12,14,-1,-1,-1,-1,-1,-1,-1,-1],"split_conditions":[9E0,5E-1,8.3E-1,5E0,7E0,6.6E1,2E0,-9.4865775E-3,-5.0422493E-3,-3.5760754E-3,1.082038E-4,4.5797736E-3,-8.833455E-4,2.7641179E-2,1.04723815E-2],"split_indices":[2,3,3,2,2,1,1,0,0,0,0,0,0,0,0],"split_type":[0,0,0,0,0,0,0,0,0,0,0,0,0,0,0],"sum_hessian":[3.6008E4,2.114E4,1.4868E4,7.375E3,1.3765E4,1.3094E4,1.774E3,2.382E3,4.993E3,5.388E3,8.377E3,1.0312E4,2.782E3,1.15E2,1.659E3],"tree_param":{"num_deleted":"0","num_feature":"4","num_nodes":"15","size_leaf_vector":"1"}},{"base_weights":[3.6018784E-4,-2.3239939E-2,2.846476E-2,-4.2191595E-2,-6.5165027E-3,7.972122E-3,5.0481964E-2,-8.4209535E-3,-4.4962554E-3,-1.5397224E-4,-4.283791E-3,1.5890775E-3,-4.3786047E-3,1.0135803E-2,4.273821E-3],"categories":[],"categories_nodes":[],"categories_segments":[],"categories_sizes":[],"default_left":[0,0,0,0,0,0,0,0,0,0,0,0,0,0,0],"id":13,"left_children":[1,3,5,7,9,11,13,-1,-1,-1,-1,-1,-1,-1,-1],"loss_changes":[2.3768991E1,6.173338E0,7.3797235E0,1.5660915E0,1.4587352E0,1.5009195E0,3.8131905E0,0E0,0E0,0E0,0E0,0E0,0E0,0E0,0E0],"parents":[2147483647,0,0,1,1,2,2,3,3,4,4,5,5,6,6],"right_children":[2,4,6,8,10,12,14,-1,-1,-1,-1,-1,-1,-1,-1],"split_conditions":[6.2E-1,7E0,1E1,4.1E-1,9.5E1,1.14E2,2E1,-8.4209535E-3,-4.4962554E-3,-1.5397224E-4,-4.283791E-3,1.5890775E-3,-4.3786047E-3,1.0135803E-2,4.273821E-3],"split_indices":[3,2,2,3,1,1,1,0,0,0,0,0,0,0,0],"split_type":[0,0,0,0,0,0,0,0,0,0,0,0,0,0,0],"sum_hessian":[3.5834E4,1.9478E4,1.6356E4,9.13E3,1.0348E4,8.472E3,7.884E3,2.298E3,6.832E3,8.612E3,1.736E3,7.688E3,7.84E2,3.077E3,4.807E3],"tree_param":{"num_deleted":"0","num_feature":"4","num_nodes":"15","size_leaf_vector":"1"}},{"base_weights":[-4.8761507E-5,-1.5316962E-2,3.241493E-2,-3.4739375E-2,-1.6450613E-3,2.4713356E-2,7.60503E-2,-6.7764106E-3,-3.460178E-3,4.621861E-4,-3.215597E-3,4.108028E-3,-1.3591181E-3,8.423671E-3,2.011464E-2],"categories":[],"categories_nodes":[],"categories_segments":[],"categories_sizes":[],"default_left":[0,0,0,0,0,0,0,0,0,0,0,0,0,0,0],"id":14,"left_children":[1,3,5,7,9,11,13,-1,-1,-1,-1,-1,-1,-1,-1],"loss_changes":[1.7812117E1,6.4900384E0,3.861143E0,1.4245806E0,1.7225983E0,2.3670878E0,1.5163097E0,0E0,0E0,0E0,0E0,0E0,0E0,0E0,0E0],"parents":[2147483647,0,0,1,1,2,2,3,3,4,4,5,5,6,6],"right_children":[2,4,6,8,10,12,14,-1,-1,-1,-1,-1,-1,-1,-1],"split_conditions":[6.7E-1,7E0,1.3E1,4.4E-1,8.8E1,7.8E1,1.6E1,-6.7764106E-3,-3.460178E-3,4.621861E-4,-3.215597E-3,4.108028E-3,-1.3591181E-3,8.423671E-3,2.011464E-2],"split_indices":[3,2,2,3,1,1,2,0,0,0,0,0,0,0,0],"split_type":[0,0,0,0,0,0,0,0,0,0,0,0,0,0,0],"sum_hessian":[3.5934E4,2.444E4,1.1494E4,1.0096E4,1.4344E4,9.771E3,1.723E3,3.213E3,6.883E3,1.1708E4,2.636E3,8.171E3,1.6E3,1.509E3,2.14E2],"tree_param":{"num_deleted":"0","num_feature":"4","num_nodes":"15","size_leaf_vector":"1"}},{"base_weights":[7.374449E-5,-1.2126775E-2,3.0849492E-2,-3.212895E-2,-2.2309436E-3,2.4151577E-2,7.365166E-2,-6.688596E-3,-3.0953279E-3,2.0499602E-4,-4.0745907E-3,2.373204E-3,7.223477E-3,1.6034497E-2,7.6157576E-3],"categories":[],"categories_nodes":[],"categories_segments":[],"categories_sizes":[],"default_left":[0,0,0,0,0,0,0,0,0,0,0,0,0,0,0],"id":15,"left_children":[1,3,5,7,9,11,13,-1,-1,-1,-1,-1,-1,-1,-1],"loss_changes":[1.3611154E1,5.1382046E0,2.9485006E0,1.3797913E0,1.9253609E0,1.6474423E0,1.03508E0,0E0,0E0,0E0,0E0,0E0,0E0,0E0,0E0],"parents":[2147483647,0,0,1,1,2,2,3,3,4,4,5,5,6,6],"right_children":[2,4,6,8,10,12,14,-1,-1,-1,-1,-1,-1,-1,-1],"split_conditions":[1E1,5.1E-1,8.4E-1,5E0,1.15E2,1.3E1,7E0,-6.688596E-3,-3.0953279E-3,2.0499602E-4,-4.0745907E-3,2.373204E-3,7.223477E-3,1.6034497E-2,7.6157576E-3],"split_indices":[2,3,3,2,1,2,1,0,0,0,0,0,0,0,0],"split_type":[0,0,0,0,0,0,0,0,0,0,0,0,0,0,0],"sum_hessian":[3.6248E4,2.5958E4,1.029E4,8.591E3,1.7367E4,8.899E3,1.391E3,2.584E3,6.007E3,1.5359E4,2.008E3,7.494E3,1.405E3,3.22E2,1.069E3],"tree_param":{"num_deleted":"0","num_feature":"4","num_nodes":"15","size_leaf_vector":"1"}},{"base_weights":[-3.9932734E-4,-1.9139891E-2,1.7231064E-2,-3.6328852E-2,-1.0667449E-2,2.8213743E-2,-2.4439518E-3,-7.3782816E-3,-4.0896605E-3,-1.1835366E-3,-7.2542042E-3,1.6951968E-3,5.6315353E-3,-4.634749E-3,3.3756546E-4],"categories":[],"categories_nodes":[],"categories_segments":[],"categories_sizes":[],"default_left":[0,0,0,0,0,0,0,0,0,0,0,0,0,0,0],"id":16,"left_children":[1,3,5,7,9,11,13,-1,-1,-1,-1,-1,-1,-1,-1],"loss_changes":[1.1950033E1,2.5528412E0,4.0270176E0,5.73997E-1,8.282088E-1,2.7408018E0,1.1177447E0,0E0,0E0,0E0,0E0,0E0,0E0,0E0,0E0],"parents":[2147483647,0,0,1,1,2,2,3,3,4,4,5,5,6,6],"right_children":[2,4,6,8,10,12,14,-1,-1,-1,-1,-1,-1,-1,-1],"split_conditions":[6E-1,6E0,5E1,4E0,1.57E2,2.11E2,2.98E2,-7.3782816E-3,-4.0896605E-3,-1.1835366E-3,-7.2542042E-3,1.6951968E-3,5.6315353E-3,-4.634749E-3,3.3756546E-4],"split_indices":[3,2,1,2,1,0,0,0,0,0,0,0,0,0,0],"split_type":[0,0,0,0,0,0,0,0,0,0,0,0,0,0,0],"sum_hessian":[3.6166E4,1.7531E4,1.8635E4,5.787E3,1.1744E4,1.1959E4,6.676E3,1.112E3,4.675E3,1.1352E4,3.92E2,5.967E3,5.992E3,8.79E2,5.797E3],"tree_param":{"num_deleted":"0","num_feature":"4","num_nodes":"15","size_leaf_vector":"1"}},{"base_weights":[1.026699E-4,-9.853319E-3,2.666487E-2,-2.4100728E-2,-5.1546877E-4,4.3679394E-2,1.2715599E-2,-6.6757067E-3,-2.7165867E-3,2.773379E-4,-4.0923147E-3,3.265506E-3,9.883669E-3,2.8533088E-3,-6.588712E-4],"categories":[],"categories_nodes":[],"categories_segments":[],"categories_sizes":[],"default_left":[0,0,0,0,0,0,0,0,0,0,0,0,0,0,0],"id":17,"left_children":[1,3,5,7,9,11,13,-1,-1,-1,-1,-1,-1,-1,-1],"loss_changes":[9.476935E0,3.467813E0,2.3182592E0,8.9995813E-1,1.2916087E0,2.6404428E0,8.81849E-1,0E0,0E0,0E0,0E0,0E0,0E0,0E0,0E0],"parents":[2147483647,0,0,1,1,2,2,3,3,4,4,5,5,6,6],"right_children":[2,4,6,8,10,12,14,-1,-1,-1,-1,-1,-1,-1,-1],"split_conditions":[6.9E-1,7E0,2.7E1,4E0,1.16E2,2.07E2,6.6E1,-6.6757067E-3,-2.7165867E-3,2.773379E-4,-4.0923147E-3,3.265506E-3,9.883669E-3,2.8533088E-3,-6.588712E-4],"split_indices":[3,2,1,2,1,0,1,0,0,0,0,0,0,0,0],"split_type":[0,0,0,0,0,0,0,0,0,0,0,0,0,0,0],"sum_hessian":[3.5834E4,2.6065E4,9.769E3,1.0319E4,1.5746E4,4.4E3,5.369E3,1.084E3,9.235E3,1.4506E4,1.24E3,2.797E3,1.603E3,3.534E3,1.835E3],"tree_param":{"num_deleted":"0","num_feature":"4","num_nodes":"15","size_leaf_vector":"1"}},{"base_weights":[-3.4802177E-4,-9.383393E-3,2.282924E-2,-3.2953735E-2,-4.762431E-3,1.2948981E-1,2.056305E-2,-5.8677355E-3,-3.7049116E-3,-3.6402053E-4,-4.4961446E-3,9.415844E-3,2.3558993E-2,3.3732145E-3,-5.736415E-4],"categories":[],"categories_nodes":[],"categories_segments":[],"categories_sizes":[],"default_left":[0,0,0,0,0,0,0,0,0,0,0,0,0,0,0],"id":18,"left_children":[1,3,5,7,9,11,13,-1,-1,-1,-1,-1,-1,-1,-1],"loss_changes":[7.57874E0,2.8359501E0,2.4509692E0,2.3032379E-1,1.2740321E0,6.097269E-1,1.337059E0,0E0,0E0,0E0,0E0,0E0,0E0,0E0,0E0],"parents":[2147483647,0,0,1,1,2,2,3,3,4,4,5,5,6,6],"right_children":[2,4,6,8,10,12,14,-1,-1,-1,-1,-1,-1,-1,-1],"split_conditions":[1E1,4.4E-1,2E0,3.5E-1,1.44E2,4.3E1,6.3E1,-5.8677355E-3,-3.7049116E-3,-3.6402053E-4,-4.4961446E-3,9.415844E-3,2.3558993E-2,3.3732145E-3,-5.736415E-4],"split_indices":[2,3,1,3,1,0,1,0,0,0,0,0,0,0,0],"split_type":[0,0,0,0,0,0,0,0,0,0,0,0,0,0,0],"sum_hessian":[3.6188E4,2.6038E4,1.015E4,4.267E3,2.1771E4,2.1E2,9.94E3,1.14E3,3.127E3,2.0428E4,1.343E3,1.01E2,1.09E2,8.177E3,1.763E3],"tree_param":{"num_deleted":"0","num_feature":"4","num_nodes":"15","size_leaf_vector":"1"}},{"base_weights":[-1.768242E-5,-1.5322488E-2,1.0205145E-2,-3.0504553E-2,-1.1157876E-2,6.6578547E-3,4.6562325E-2,-5.432508E-3,-3.2284409E-3,-2.9856886E-3,-9.080845E-4,1.3304166E-3,-2.2615844E-3,1.3251895E-2,5.1838644E-3],"categories":[],"categories_nodes":[],"categories_segments":[],"categories_sizes":[],"default_left":[0,0,0,0,0,0,0,0,0,0,0,0,0,0,0],"id":19,"left_children":[1,3,5,7,9,11,13,-1,-1,-1,-1,-1,-1,-1,-1],"loss_changes":[5.6310935E0,9.109564E-1,2.7825933E0,1.9744253E-1,5.572293E-1,1.6914635E0,7.061019E-1,0E0,0E0,0E0,0E0,0E0,0E0,0E0,0E0],"parents":[2147483647,0,0,1,1,2,2,3,3,4,4,5,5,6,6],"right_children":[2,4,6,8,10,12,14,-1,-1,-1,-1,-1,-1,-1,-1],"split_conditions":[5.7E-1,5E0,8.3E-1,4E0,4.5E-1,9.5E1,4E0,-5.432508E-3,-3.2284409E-3,-2.9856886E-3,-9.080845E-4,1.3304166E-3,-2.2615844E-3,1.3251895E-2,5.1838644E-3],"split_indices":[3,2,3,2,3,1,1,0,0,0,0,0,0,0,0],"split_type":[0,0,0,0,0,0,0,0,0,0,0,0,0,0,0],"sum_hessian":[3.5989E4,1.4412E4,2.1577E4,3.101E3,1.1311E4,1.966E4,1.917E3,1.035E3,2.066E3,2.952E3,8.359E3,1.7116E4,2.544E3,2.05E2,1.712E3],"tree_param":{"num_deleted":"0","num_feature":"4","num_nodes":"15","size_leaf_vector":"1"}},{"base_weights":[5.542779E-5,-5.2230526E-3,2.4165368E-2,-1.8187232E-2,3.0724375E-4,5.0679613E-2,1.446046E-2,-4.044192E-3,-1.9230128E-3,4.1993373E-4,-2.123757E-3,4.27227E-3,1.7279698E-2,-2.9344074E-4,3.104149E-3],"categories":[],"categories_nodes":[],"categories_segments":[],"categories_sizes":[],"default_left":[0,0,0,0,0,0,0,0,0,0,0,0,0,0,0],"id":20,"left_children":[1,3,5,7,9,11,13,-1,-1,-1,-1,-1,-1,-1,-1],"loss_changes":[4.5652075E0,2.10994E0,1.6571691E0,3.8557625E-1,1.0037065E0,2.5245805E0,7.428592E-1,0E0,0E0,0E0,0E0,0E0,0E0,0E0,0E0],"parents":[2147483647,0,0,1,1,2,2,3,3,4,4,5,5,6,6],"right_children":[2,4,6,8,10,12,14,-1,-1,-1,-1,-1,-1,-1,-1],"split_conditions":[1.1E1,5.1E-1,1.3E1,3.8E-1,1.01E2,2.49E2,3.08E2,-4.044192E-3,-1.9230128E-3,4.1993373E-4,-2.123757E-3,4.27227E-3,1.7279698E-2,-2.9344074E-4,3.104149E-3],"split_indices":[2,3,1,3,1,0,0,0,0,0,0,0,0,0,0],"split_type":[0,0,0,0,0,0,0,0,0,0,0,0,0,0,0],"sum_hessian":[3.587E4,2.9428E4,6.442E3,8.799E3,2.0629E4,1.725E3,4.717E3,1.829E3,6.97E3,1.7548E4,3.081E3,1.419E3,3.06E2,1.7E3,3.017E3],"tree_param":{"num_deleted":"0","num_feature":"4","num_nodes":"15","size_leaf_vector":"1"}},{"base_weights":[2.1515766E-4,-5.9372117E-3,1.8868536E-2,-1.5487841E-2,3.5571007E-5,5.727613E-2,1.4000656E-2,-4.2428914E-3,-1.728026E-3,1.9303529E-4,-4.2322497E-3,4.6644714E-3,1.5905483E-2,6.8706996E-4,3.775359E-3],"categories":[],"categories_nodes":[],"categories_segments":[],"categories_sizes":[],"default_left":[0,0,0,0,0,0,0,0,0,0,0,0,0,0,0],"id":21,"left_children":[1,3,5,7,9,11,13,-1,-1,-1,-1,-1,-1,-1,-1],"loss_changes":[4.1477427E0,1.550338E0,1.675139E0,3.9326692E-1,7.899143E-1,1.399039E0,1.0428987E0,0E0,0E0,0E0,0E0,0E0,0E0,0E0,0E0],"parents":[2147483647,0,0,1,1,2,2,3,3,4,4,5,5,6,6],"right_children":[2,4,6,8,10,12,14,-1,-1,-1,-1,-1,-1,-1,-1],"split_conditions":[7E-1,7E0,7E0,4E0,1.33E2,1.23E2,4.07E2,-4.2428914E-3,-1.728026E-3,1.9303529E-4,-4.2322497E-3,4.6644714E-3,1.5905483E-2,6.8706996E-4,3.775359E-3],"split_indices":[3,2,1,2,1,0,0,0,0,0,0,0,0,0,0],"split_type":[0,0,0,0,0,0,0,0,0,0,0,0,0,0,0],"sum_hessian":[3.614E4,2.7177E4,8.963E3,1.0456E4,1.6721E4,1.007E3,7.956E3,1.185E3,9.271E3,1.601E4,7.11E2,7.59E2,2.48E2,5.038E3,2.918E3],"tree_param":{"num_deleted":"0","num_feature":"4","num_nodes":"15","size_leaf_vector":"1"}},{"base_weights":[3.1703996E-5,-5.043427E-3,1.7413162E-2,-9.690158E-3,5.373056E-3,7.6622665E-2,1.4847207E-2,-2.8517167E-3,-9.109358E-4,6.1894255E-4,1.15836635E-2,5.4452023E-3,1.5524168E-2,2.4949422E-3,-5.653399E-4],"categories":[],"categories_nodes":[],"categories_segments":[],"categories_sizes":[],"default_left":[0,0,0,0,0,0,0,0,0,0,0,0,0,0,0],"id":22,"left_children":[1,3,5,7,9,11,13,-1,-1,-1,-1,-1,-1,-1,-1],"loss_changes":[3.1597073E0,1.3419656E0,1.2287269E0,6.2975883E-1,4.3783686E-1,4.944669E-1,6.4726675E-1,0E0,0E0,0E0,0E0,0E0,0E0,0E0,0E0],"parents":[2147483647,0,0,1,1,2,2,3,3,4,4,5,5,6,6],"right_children":[2,4,6,8,10,12,14,-1,-1,-1,-1,-1,-1,-1,-1],"split_conditions":[7.1E-1,9E0,3E0,5E0,1.5E1,5.5E1,6.5E1,-2.8517167E-3,-9.109358E-4,6.1894255E-4,1.15836635E-2,5.4452023E-3,1.5524168E-2,2.4949422E-3,-5.653399E-4],"split_indices":[3,2,1,2,2,0,1,0,0,0,0,0,0,0,0],"split_type":[0,0,0,0,0,0,0,0,0,0,0,0,0,0,0],"sum_hessian":[3.5817E4,2.7723E4,8.094E3,1.9171E4,8.552E3,3.35E2,7.759E3,3.444E3,1.5727E4,8.491E3,6.1E1,1.86E2,1.49E2,6.327E3,1.432E3],"tree_param":{"num_deleted":"0","num_feature":"4","num_nodes":"15","size_leaf_vector":"1"}},{"base_weights":[1.4805213E-4,-9.376512E-3,7.310059E-3,-4.958193E-3,-1.736636E-2,1.5735125E-2,-1.4609384E-3,-1.4857834E-3,6.880567E-4,-5.3023426E-3,-1.8231003E-3,4.1850787E-4,4.1713547E-3,-3.3729833E-3,4.3803855E-4],"categories":[],"categories_nodes":[],"categories_segments":[],"categories_sizes":[],"default_left":[0,0,0,0,0,0,0,0,0,0,0,0,0,0,0],"id":23,"left_children":[1,3,5,7,9,11,13,-1,-1,-1,-1,-1,-1,-1,-1],"loss_changes":[2.4644034E0,5.473021E-1,1.5238372E0,6.624607E-1,4.316374E-1,2.152528E0,1.1951317E0,0E0,0E0,0E0,0E0,0E0,0E0,0E0,0E0],"parents":[2147483647,0,0,1,1,2,2,3,3,4,4,5,5,6,6],"right_children":[2,4,6,8,10,12,14,-1,-1,-1,-1,-1,-1,-1,-1],"split_conditions":[5.8E-1,7.6E1,3.8E1,2.6E2,3.12E2,2E2,2.81E2,-1.4857834E-3,6.880567E-4,-5.3023426E-3,-1.8231003E-3,4.1850787E-4,4.1713547E-3,-3.3729833E-3,4.3803855E-4],"split_indices":[3,1,1,0,0,0,0,0,0,0,0,0,0,0,0],"split_type":[0,0,0,0,0,0,0,0,0,0,0,0,0,0,0],"sum_hessian":[3.6125E4,1.5505E4,2.062E4,9.985E3,5.52E3,1.0517E4,1.0103E4,6.121E3,3.864E3,6.88E2,4.832E3,5.958E3,4.559E3,1.664E3,8.439E3],"tree_param":{"num_deleted":"0","num_feature":"4","num_nodes":"15","size_leaf_vector":"1"}},{"base_weights":[-1.4883592E-5,-3.2905205E-3,1.6343761E-2,-7.3671914E-3,4.89244E-3,3.3802565E-2,8.268224E-3,-8.10019E-4,-3.9834664E-3,4.0561725E-5,1.9475668E-3,2.1943094E-3,8.864343E-3,-8.1878493E-4,2.7178347E-3],"categories":[],"categories_nodes":[],"categories_segments":[],"categories_sizes":[],"default_left":[0,0,0,0,0,0,0,0,0,0,0,0,0,0,0],"id":24,"left_children":[1,3,5,7,9,11,13,-1,-1,-1,-1,-1,-1,-1,-1],"loss_changes":[1.9380617E0,1.0052832E0,8.504493E-1,5.3175724E-1,4.6307775E-1,1.1091166E0,7.598925E-1,0E0,0E0,0E0,0E0,0E0,0E0,0E0,0E0],"parents":[2147483647,0,0,1,1,2,2,3,3,4,4,5,5,6,6],"right_children":[2,4,6,8,10,12,14,-1,-1,-1,-1,-1,-1,-1,-1],"split_conditions":[7.4E-1,9E0,1.7E1,1.66E2,4.2E2,1.79E2,3.71E2,-8.10019E-4,-3.9834664E-3,4.0561725E-5,1.9475668E-3,2.1943094E-3,8.864343E-3,-8.1878493E-4,2.7178347E-3],"split_indices":[3,2,1,1,0,0,0,0,0,0,0,0,0,0,0],"split_type":[0,0,0,0,0,0,0,0,0,0,0,0,0,0,0],"sum_hessian":[3.6166E4,3.0133E4,6.033E3,2.0113E4,1.002E4,1.907E3,4.126E3,1.9178E4,9.35E2,6.892E3,3.128E3,1.279E3,6.28E2,1.917E3,2.209E3],"tree_param":{"num_deleted":"0","num_feature":"4","num_nodes":"15","size_leaf_vector":"1"}},{"base_weights":[-3.158389E-4,-1.5644018E-3,4.0488753E-2,-1.0414026E-2,2.3272946E-3,5.1340003E-2,2.1155227E-2,-1.2197047E-3,-4.9630543E-3,1.3184039E-3,-3.892762E-4,4.1884365E-3,1.0355977E-2,-1.9100616E-3,4.1735973E-3],"categories":[],"categories_nodes":[],"categories_segments":[],"categories_sizes":[],"default_left":[0,0,0,0,0,0,0,0,0,0,0,0,0,0,0],"id":25,"left_children":[1,3,5,7,9,11,13,-1,-1,-1,-1,-1,-1,-1,-1],"loss_changes":[1.8343627E0,1.2032218E0,2.2318256E-1,3.052901E-1,1.0091424E0,3.6784697E-1,1.5198176E-1,0E0,0E0,0E0,0E0,0E0,0E0,0E0,0E0],"parents":[2147483647,0,0,1,1,2,2,3,3,4,4,5,5,6,6],"right_children":[2,4,6,8,10,12,14,-1,-1,-1,-1,-1,-1,-1,-1],"split_conditions":[8.7E-1,7E0,2.8E1,1.9E2,3.1E1,2.47E2,3.3E2,-1.2197047E-3,-4.9630543E-3,1.3184039E-3,-3.892762E-4,4.1884365E-3,1.0355977E-2,-1.9100616E-3,4.1735973E-3],"split_indices":[3,2,1,1,1,0,0,0,0,0,0,0,0,0,0],"split_type":[0,0,0,0,0,0,0,0,0,0,0,0,0,0,0],"sum_hessian":[3.6003E4,3.4935E4,1.068E3,1.067E4,2.4265E4,6.83E2,3.85E2,1.0289E4,3.81E2,9.83E3,1.4435E4,4.09E2,2.74E2,9E1,2.95E2],"tree_param":{"num_deleted":"0","num_feature":"4","num_nodes":"15","size_leaf_vector":"1"}},{"base_weights":[-3.5674003E-4,-5.728552E-3,7.659624E-3,-1.4817958E-2,-3.1192685E-3,3.0941103E-2,4.1789543E-3,-2.909147E-3,-1.6299287E-3,-8.35336E-4,5.317906E-4,2.4579891E-3,1.1999167E-2,-8.9838E-4,1.4930979E-3],"categories":[],"categories_nodes":[],"categories_segments":[],"categories_sizes":[],"default_left":[0,0,0,0,0,0,0,0,0,0,0,0,0,0,0],"id":26,"left_children":[1,3,5,7,9,11,13,-1,-1,-1,-1,-1,-1,-1,-1],"loss_changes":[1.546544E0,5.0996065E-1,1.167587E0,8.238983E-2,3.983518E-1,1.3819737E0,1.0158896E0,0E0,0E0,0E0,0E0,0E0,0E0,0E0,0E0],"parents":[2147483647,0,0,1,1,2,2,3,3,4,4,5,5,6,6],"right_children":[2,4,6,8,10,12,14,-1,-1,-1,-1,-1,-1,-1,-1],"split_conditions":[6.4E-1,4.5E-1,9E0,3.5E-1,4.16E2,1.54E2,2.85E2,-2.909147E-3,-1.6299287E-3,-8.35336E-4,5.317906E-4,2.4579891E-3,1.1999167E-2,-8.9838E-4,1.4930979E-3],"split_indices":[3,3,1,3,0,0,0,0,0,0,0,0,0,0,0],"split_type":[0,0,0,0,0,0,0,0,0,0,0,0,0,0,0],"sum_hessian":[3.5912E4,2.1503E4,1.4409E4,4.795E3,1.6708E4,1.873E3,1.2536E4,1.109E3,3.686E3,1.1455E4,5.253E3,1.567E3,3.06E2,4.979E3,7.557E3],"tree_param":{"num_deleted":"0","num_feature":"4","num_nodes":"15","size_leaf_vector":"1"}},{"base_weights":[4.1371526E-4,8.59671E-3,-4.5211026E-3,2.8627017E-3,4.0881485E-2,-1.14713395E-2,2.7698711E-3,4.2287544E-3,4.3218723E-5,1.1001573E-2,4.0823533E-3,-9.624681E-4,-3.1461376E-3,1.0468041E-3,-1.5588067E-3],"categories":[],"categories_nodes":[],"categories_segments":[],"categories_sizes":[],"default_left":[0,0,0,0,0,0,0,0,0,0,0,0,0,0,0],"id":27,"left_children":[1,3,5,7,9,11,13,-1,-1,-1,-1,-1,-1,-1,-1],"loss_changes":[1.4491321E0,2.4990187E0,1.1344197E0,8.605849E-1,8.4158635E-1,5.932851E-1,8.5202837E-1,0E0,0E0,0E0,0E0,0E0,0E0,0E0,0E0],"parents":[2147483647,0,0,1,1,2,2,3,3,4,4,5,5,6,6],"right_children":[2,4,6,8,10,12,14,-1,-1,-1,-1,-1,-1,-1,-1],"split_conditions":[3.2E1,3.15E2,4.07E2,4E0,1.7E1,7.7E1,1.21E2,4.2287544E-3,4.3218723E-5,1.1001573E-2,4.0823533E-3,-9.624681E-4,-3.1461376E-3,1.0468041E-3,-1.5588067E-3],"split_indices":[1,0,0,1,1,1,1,0,0,0,0,0,0,0,0],"split_type":[0,0,0,0,0,0,0,0,0,0,0,0,0,0,0],"sum_hessian":[3.5884E4,1.3499E4,2.2385E4,1.1464E4,2.035E3,1.146E4,1.0925E4,9E2,1.0564E4,3.61E2,1.674E3,8.686E3,2.774E3,8.046E3,2.879E3],"tree_param":{"num_deleted":"0","num_feature":"4","num_nodes":"15","size_leaf_vector":"1"}},{"base_weights":[-3.419304E-4,9.165325E-3,-3.5813798E-3,-1.540464E-3,3.1998035E-2,-1.7821262E-2,1.9335271E-4,7.533317E-3,-4.4449928E-4,8.501165E-3,2.8175786E-3,-3.8256338E-3,-1.5599026E-3,1.1071764E-3,-8.9679315E-4],"categories":[],"categories_nodes":[],"categories_segments":[],"categories_sizes":[],"default_left":[0,0,0,0,0,0,0,0,0,0,0,0,0,0,0],"id":28,"left_children":[1,3,5,7,9,11,13,-1,-1,-1,-1,-1,-1,-1,-1],"loss_changes":[1.110064E0,2.2391396E0,1.4450117E0,6.97281E-1,1.0067403E0,3.8029277E-1,1.2544519E0,0E0,0E0,0E0,0E0,0E0,0E0,0E0,0E0],"parents":[2147483647,0,0,1,1,2,2,3,3,4,4,5,5,6,6],"right_children":[2,4,6,8,10,12,14,-1,-1,-1,-1,-1,-1,-1,-1],"split_conditions":[2.2E1,1.52E2,2.36E2,2E0,1.2E1,1.52E2,6.5E1,7.533317E-3,-4.4449928E-4,8.501165E-3,2.8175786E-3,-3.8256338E-3,-1.5599026E-3,1.1071764E-3,-8.9679315E-4],"split_indices":[1,0,0,1,1,0,1,0,0,0,0,0,0,0,0],"split_type":[0,0,0,0,0,0,0,0,0,0,0,0,0,0,0],"sum_hessian":[3.6041E4,9.159E3,2.6882E4,6.236E3,2.923E3,5.632E3,2.125E4,1.9E2,6.046E3,6.89E2,2.234E3,1.88E3,3.752E3,9.776E3,1.1474E4],"tree_param":{"num_deleted":"0","num_feature":"4","num_nodes":"15","size_leaf_vector":"1"}},{"base_weights":[7.905659E-5,2.6637516E-3,-9.851018E-3,-1.964492E-3,1.2655401E-2,-2.5498984E-2,-5.295774E-3,2.5899645E-3,-5.334899E-4,5.813889E-3,1.1021186E-3,-2.4294937E-3,-5.0529353E-3,-2.8835423E-4,-2.9703006E-3],"categories":[],"categories_nodes":[],"categories_segments":[],"categories_sizes":[],"default_left":[0,0,0,0,0,0,0,0,0,0,0,0,0,0,0],"id":29,"left_children":[1,3,5,7,9,11,13,-1,-1,-1,-1,-1,-1,-1,-1],"loss_changes":[9.194927E-1,1.3145508E0,5.272679E-1,9.0975875E-1,1.205138E0,1.511544E-1,3.095994E-1,0E0,0E0,0E0,0E0,0E0,0E0,0E0,0E0],"parents":[2147483647,0,0,1,1,2,2,3,3,4,4,5,5,6,6],"right_children":[2,4,6,8,10,12,14,-1,-1,-1,-1,-1,-1,-1,-1],"split_conditions":[8.8E1,3.51E2,3.98E2,6E0,2.8E1,7E0,1.7E2,2.5899645E-3,-5.334899E-4,5.813889E-3,1.1021186E-3,-2.4294937E-3,-5.0529353E-3,-2.8835423E-4,-2.9703006E-3],"split_indices":[1,0,0,1,1,2,1,0,0,0,0,0,0,0,0],"split_type":[0,0,0,0,0,0,0,0,0,0,0,0,0,0,0],"sum_hessian":[3.5823E4,2.8425E4,7.398E3,1.9427E4,8.998E3,1.667E3,5.731E3,1.729E3,1.7698E4,1.036E3,7.962E3,1.106E3,5.61E2,4.877E3,8.54E2],"tree_param":{"num_deleted":"0","num_feature":"4","num_nodes":"15","size_leaf_vector":"1"}},{"base_weights":[6.890987E-4,1.5669968E-4,4.1783236E-2,-9.637551E-3,2.0592248E-3,6.107302E-2,2.8771993E-2,-6.7032806E-6,-2.7239637E-3,2.1821205E-3,-2.0962757E-4,7.0467857E-3,1.4907343E-2,5.235715E-3,1.0139579E-3],"categories":[],"categories_nodes":[],"categories_segments":[],"categories_sizes":[],"default_left":[0,0,0,0,0,0,0,0,0,0,0,0,0,0,0],"id":30,"left_children":[1,3,5,7,9,11,13,-1,-1,-1,-1,-1,-1,-1,-1],"loss_changes":[7.851684E-1,6.602156E-1,1.1344445E-1,6.2514144E-1,1.6042137E0,6.1507404E-2,6.626785E-2,0E0,0E0,0E0,0E0,0E0,0E0,0E0,0E0],"parents":[2147483647,0,0,1,1,2,2,3,3,4,4,5,5,6,6],"right_children":[2,4,6,8,10,12,14,-1,-1,-1,-1,-1,-1,-1,-1],"split_conditions":[1.5E1,1.16E2,8E-1,1.1E1,2.8E1,1.7E1,1.2E1,-6.7032806E-6,-2.7239637E-3,2.1821205E-3,-2.0962757E-4,7.0467857E-3,1.4907343E-2,5.235715E-3,1.0139579E-3],"split_indices":[2,0,3,1,1,2,1,0,0,0,0,0,0,0,0],"split_type":[0,0,0,0,0,0,0,0,0,0,0,0,0,0,0],"sum_hessian":[3.5887E4,3.5429E4,4.58E2,5.762E3,2.9667E4,1.83E2,2.75E2,3.12E3,2.642E3,5.92E3,2.3747E4,1.64E2,1.9E1,1.77E2,9.8E1],"tree_param":{"num_deleted":"0","num_feature":"4","num_nodes":"15","size_leaf_vector":"1"}},{"base_weights":[-4.1023496E-4,4.234144E-3,-4.6815267E-3,-4.5364224E-3,1.4222954E-2,-1.9361774E-2,-1.4542597E-3,8.073315E-4,-1.2423338E-3,6.1869756E-3,1.2903941E-3,-4.1444087E-3,-1.989297E-3,2.0535247E-4,-1.5279525E-3],"categories":[],"categories_nodes":[],"categories_segments":[],"categories_sizes":[],"default_left":[0,0,0,0,0,0,0,0,0,0,0,0,0,0,0],"id":31,"left_children":[1,3,5,7,9,11,13,-1,-1,-1,-1,-1,-1,-1,-1],"loss_changes":[7.144475E-1,1.5116448E0,8.8881326E-1,4.957351E-1,1.1561915E0,1.7132735E-1,4.8062477E-1,0E0,0E0,0E0,0E0,0E0,0E0,0E0,0E0],"parents":[2147483647,0,0,1,1,2,2,3,3,4,4,5,5,6,6],"right_children":[2,4,6,8,10,12,14,-1,-1,-1,-1,-1,-1,-1,-1],"split_conditions":[4.2E1,1.77E2,2.85E2,9E0,1.5E1,1.93E2,1.21E2,8.073315E-4,-1.2423338E-3,6.1869756E-3,1.2903941E-3,-4.1444087E-3,-1.989297E-3,2.0535247E-4,-1.5279525E-3],"split_indices":[1,0,0,1,1,0,1,0,0,0,0,0,0,0,0],"split_type":[0,0,0,0,0,0,0,0,0,0,0,0,0,0,0],"sum_hessian":[3.6013E4,1.7253E4,1.876E4,9.187E3,8.066E3,3.38E3,1.538E4,2.925E3,6.262E3,9.19E2,7.147E3,8.26E2,2.554E3,1.1881E4,3.499E3],"tree_param":{"num_deleted":"0","num_feature":"4","num_nodes":"15","size_leaf_vector":"1"}},{"base_weights":[7.764653E-5,3.4189117E-3,-4.5846873E-3,-5.498313E-3,8.432483E-3,-1.743573E-2,-1.2871035E-3,1.5552014E-3,-1.335275E-3,4.288002E-3,7.403766E-4,-1.5538663E-3,-3.9901733E-3,1.7706912E-4,-1.7617387E-3],"categories":[],"categories_nodes":[],"categories_segments":[],"categories_sizes":[],"default_left":[0,0,0,0,0,0,0,0,0,0,0,0,0,0,0],"id":32,"left_children":[1,3,5,7,9,11,13,-1,-1,-1,-1,-1,-1,-1,-1],"loss_changes":[5.6193304E-1,9.394776E-1,6.381388E-1,6.304524E-1,9.0380096E-1,2.2316098E-1,3.89428E-1,0E0,0E0,0E0,0E0,0E0,0E0,0E0,0E0],"parents":[2147483647,0,0,1,1,2,2,3,3,4,4,5,5,6,6],"right_children":[2,4,6,8,10,12,14,-1,-1,-1,-1,-1,-1,-1,-1],"split_conditions":[5.3E1,1.43E2,3.23E2,6E0,1.5E1,8E0,1.39E2,1.5552014E-3,-1.335275E-3,4.288002E-3,7.403766E-4,-1.5538663E-3,-3.9901733E-3,1.7706912E-4,-1.7617387E-3],"split_indices":[1,0,0,1,1,2,1,0,0,0,0,0,0,0,0],"split_type":[0,0,0,0,0,0,0,0,0,0,0,0,0,0,0],"sum_hessian":[3.607E4,2.1012E4,1.5058E4,7.562E3,1.345E4,3.074E3,1.1984E4,1.623E3,5.939E3,1.348E3,1.2102E4,2.176E3,8.98E2,9.856E3,2.128E3],"tree_param":{"num_deleted":"0","num_feature":"4","num_nodes":"15","size_leaf_vector":"1"}},{"base_weights":[-2.202745E-4,-8.5202436E-4,2.8486725E-2,-3.0627055E-3,5.0836178E-3,-1.4296565E-2,3.0896004E-2,6.8174244E-4,-8.0146507E-4,5.494634E-3,2.9290302E-4,-4.3810243E-3,2.1086694E-3,6.2030386E-3,3.2790157E-3],"categories":[],"categories_nodes":[],"categories_segments":[],"categories_sizes":[],"default_left":[0,0,0,0,0,0,0,0,0,0,0,0,0,0,0],"id":33,"left_children":[1,3,5,7,9,11,13,-1,-1,-1,-1,-1,-1,-1,-1],"loss_changes":[6.527261E-1,4.6211332E-1,8.032632E-2,6.6132504E-1,1.0057462E0,2.5416605E-2,6.883091E-2,0E0,0E0,0E0,0E0,0E0,0E0,0E0,0E0],"parents":[2147483647,0,0,1,1,2,2,3,3,4,4,5,5,6,6],"right_children":[2,4,6,8,10,12,14,-1,-1,-1,-1,-1,-1,-1,-1],"split_conditions":[8.9E-1,4.42E2,5E1,1.8E1,3.3E1,9.5E-1,1.1E1,6.8174244E-4,-8.0146507E-4,5.494634E-3,2.9290302E-4,-4.3810243E-3,2.1086694E-3,6.2030386E-3,3.2790157E-3],"split_indices":[3,0,0,1,1,3,2,0,0,0,0,0,0,0,0],"split_type":[0,0,0,0,0,0,0,0,0,0,0,0,0,0,0],"sum_hessian":[3.5989E4,3.5215E4,7.74E2,2.5659E4,9.556E3,4.1E1,7.33E2,6.977E3,1.8682E4,6.75E2,8.881E3,2.5E1,1.6E1,1.83E2,5.5E2],"tree_param":{"num_deleted":"0","num_feature":"4","num_nodes":"15","size_leaf_vector":"1"}},{"base_weights":[4.292059E-4,-1.8547816E-3,6.2939283E-3,1.2007474E-3,-1.0421972E-2,5.1467314E-2,4.6776165E-3,-1.7411993E-3,4.143722E-4,-2.7972925E-3,-1.0297573E-3,9.150127E-3,1.5169084E-3,1.1096408E-3,-8.696818E-4],"categories":[],"categories_nodes":[],"categories_segments":[],"categories_sizes":[],"default_left":[0,0,0,0,0,0,0,0,0,0,0,0,0,0,0],"id":34,"left_children":[1,3,5,7,9,11,13,-1,-1,-1,-1,-1,-1,-1,-1],"loss_changes":[4.801939E-1,6.75413E-1,7.334067E-1,5.5150855E-1,1.8804157E-1,2.6044357E-1,4.2555445E-1,0E0,0E0,0E0,0E0,0E0,0E0,0E0,0E0],"parents":[2147483647,0,0,1,1,2,2,3,3,4,4,5,5,6,6],"right_children":[2,4,6,8,10,12,14,-1,-1,-1,-1,-1,-1,-1,-1],"split_conditions":[4.38E2,5.6E1,2.4E1,5.7E1,2.63E2,1.4E1,1.25E2,-1.7411993E-3,4.143722E-4,-2.7972925E-3,-1.0297573E-3,9.150127E-3,1.5169084E-3,1.1096408E-3,-8.696818E-4],"split_indices":[0,1,1,0,0,2,1,0,0,0,0,0,0,0,0],"split_type":[0,0,0,0,0,0,0,0,0,0,0,0,0,0,0],"sum_hessian":[3.5847E4,2.58E4,1.0047E4,1.9018E4,6.782E3,3.46E2,9.701E3,2.278E3,1.674E4,1.246E3,5.536E3,2.34E2,1.12E2,7.243E3,2.458E3],"tree_param":{"num_deleted":"0","num_feature":"4","num_nodes":"15","size_leaf_vector":"1"}},{"base_weights":[-5.7858237E-5,4.383595E-2,-3.567564E-4,1.3371485E-2,6.99794E-2,-1.7896388E-2,6.1137095E-4,6.2211673E-3,5.235455E-4,1.55017795E-2,6.8478887E-3,-3.6120405E-3,-1.8457115E-3,3.3495373E-3,-1.1907793E-4],"categories":[],"categories_nodes":[],"categories_segments":[],"categories_sizes":[],"default_left":[0,0,0,0,0,0,0,0,0,0,0,0,0,0,0],"id":35,"left_children":[1,3,5,7,9,11,13,-1,-1,-1,-1,-1,-1,-1,-1],"loss_changes":[4.694282E-1,1.9180429E-1,6.034674E-1,3.621842E-2,1.0453713E-1,6.759626E-2,1.2939941E0,0E0,0E0,0E0,0E0,0E0,0E0,0E0,0E0],"parents":[2147483647,0,0,1,1,2,2,3,3,4,4,5,5,6,6],"right_children":[2,4,6,8,10,12,14,-1,-1,-1,-1,-1,-1,-1,-1],"split_conditions":[2E0,3.6E1,5.3E1,1E0,7.9E-1,3E1,1E1,6.2211673E-3,5.235455E-4,1.55017795E-2,6.8478887E-3,-3.6120405E-3,-1.8457115E-3,3.3495373E-3,-1.1907793E-4],"split_indices":[1,0,0,1,3,0,1,0,0,0,0,0,0,0,0],"split_type":[0,0,0,0,0,0,0,0,0,0,0,0,0,0,0],"sum_hessian":[3.5778E4,2.41E2,3.5537E4,1.12E2,1.29E2,1.858E3,3.3679E4,2.3E1,8.9E1,3.2E1,9.7E1,5.04E2,1.354E3,1.927E3,3.1752E4],"tree_param":{"num_deleted":"0","num_feature":"4","num_nodes":"15","size_leaf_vector":"1"}},{"base_weights":[5.6268447E-5,1.8700806E-3,-7.267902E-3,1.4459559E-4,1.3799174E-2,-1.3852634E-2,-1.6302523E-3,5.519747E-3,-3.4198558E-5,6.2562595E-3,1.4754671E-3,-1.1396891E-3,-3.8169757E-3,8.330072E-5,-2.8753856E-3],"categories":[],"categories_nodes":[],"categories_segments":[],"categories_sizes":[],"default_left":[0,0,0,0,0,0,0,0,0,0,0,0,0,0,0],"id":36,"left_children":[1,3,5,7,9,11,13,-1,-1,-1,-1,-1,-1,-1,-1],"loss_changes":[4.7913846E-1,5.9502494E-1,2.6573673E-1,4.35682E-1,3.0659348E-1,2.6018506E-1,1.7952316E-1,0E0,0E0,0E0,0E0,0E0,0E0,0E0,0E0],"parents":[2147483647,0,0,1,1,2,2,3,3,4,4,5,5,6,6],"right_children":[2,4,6,8,10,12,14,-1,-1,-1,-1,-1,-1,-1,-1],"split_conditions":[8.9E1,4.81E2,4.76E2,2E0,2.6E1,8E0,1.9E2,5.519747E-3,-3.4198558E-5,6.2562595E-3,1.4754671E-3,-1.1396891E-3,-3.8169757E-3,8.330072E-5,-2.8753856E-3],"split_indices":[1,0,0,1,1,2,1,0,0,0,0,0,0,0,0],"split_type":[0,0,0,0,0,0,0,0,0,0,0,0,0,0,0],"sum_hessian":[3.6065E4,2.8907E4,7.158E3,2.5255E4,3.652E3,3.301E3,3.857E3,2.4E2,2.5015E4,2.42E2,3.41E3,2.487E3,8.14E2,3.473E3,3.84E2],"tree_param":{"num_deleted":"0","num_feature":"4","num_nodes":"15","size_leaf_vector":"1"}},{"base_weights":[-4.7020814E-5,1.1810925E-3,-7.5426707E-3,-2.565486E-3,6.797103E-3,-1.6091162E-2,-1.715254E-3,4.8213959E-4,-8.2486524E-4,3.6355325E-3,6.7705294E-4,-1.5455707E-3,-4.5115435E-3,2.0602325E-4,-2.1854346E-3],"categories":[],"categories_nodes":[],"categories_segments":[],"categories_sizes":[],"default_left":[0,0,0,0,0,0,0,0,0,0,0,0,0,0,0],"id":37,"left_children":[1,3,5,7,9,11,13,-1,-1,-1,-1,-1,-1,-1,-1],"loss_changes":[3.3329427E-1,6.545765E-1,2.538827E-1,4.4255722E-1,4.1859984E-1,1.6117918E-1,1.510712E-1,0E0,0E0,0E0,0E0,0E0,0E0,0E0,0E0],"parents":[2147483647,0,0,1,1,2,2,3,3,4,4,5,5,6,6],"right_children":[2,4,6,8,10,12,14,-1,-1,-1,-1,-1,-1,-1,-1],"split_conditions":[1.05E2,3.23E2,4.76E2,1.8E1,2.4E1,8E0,9E0,4.8213959E-4,-8.2486524E-4,3.6355325E-3,6.7705294E-4,-1.5455707E-3,-4.5115435E-3,2.0602325E-4,-2.1854346E-3],"split_indices":[1,0,0,1,1,2,2,0,0,0,0,0,0,0,0],"split_type":[0,0,0,0,0,0,0,0,0,0,0,0,0,0,0],"sum_hessian":[3.6204E4,3.1108E4,5.096E3,1.866E4,1.2448E4,2.065E3,3.031E3,7.015E3,1.1645E4,8.68E2,1.158E4,1.686E3,3.79E2,2.488E3,5.43E2],"tree_param":{"num_deleted":"0","num_feature":"4","num_nodes":"15","size_leaf_vector":"1"}},{"base_weights":[-4.231124E-4,-3.0438856E-3,3.9046325E-3,-1.4863866E-3,-1.1770582E-2,2.2347631E-2,1.4301328E-3,-1.7171868E-3,1.4937234E-5,-8.812616E-4,-3.166707E-3,5.7431306E-3,2.404452E-3,4.0439764E-4,-1.6655184E-3],"categories":[],"categories_nodes":[],"categories_segments":[],"categories_sizes":[],"default_left":[0,0,0,0,0,0,0,0,0,0,0,0,0,0,0],"id":38,"left_children":[1,3,5,7,9,11,13,-1,-1,-1,-1,-1,-1,-1,-1],"loss_changes":[4.0800765E-1,3.045072E-1,6.191735E-1,3.569039E-1,2.1304548E-1,1.341424E-1,2.863989E-1,0E0,0E0,0E0,0E0,0E0,0E0,0E0,0E0],"parents":[2147483647,0,0,1,1,2,2,3,3,4,4,5,5,6,6],"right_children":[2,4,6,8,10,12,14,-1,-1,-1,-1,-1,-1,-1,-1],"split_conditions":[3.82E2,6.5E1,3.6E1,5.7E1,8E0,1.8E1,1.57E2,-1.7171868E-3,1.4937234E-5,-8.812616E-4,-3.166707E-3,5.7431306E-3,2.404452E-3,4.0439764E-4,-1.6655184E-3],"split_indices":[0,1,1,0,2,1,1,0,0,0,0,0,0,0,0],"split_type":[0,0,0,0,0,0,0,0,0,0,0,0,0,0,0],"sum_hessian":[3.5971E4,2.2404E4,1.3567E4,1.9012E4,3.392E3,1.604E3,1.1963E4,2.284E3,1.6728E4,2.43E3,9.62E2,2.39E2,1.365E3,1.0701E4,1.262E3],"tree_param":{"num_deleted":"0","num_feature":"4","num_nodes":"15","size_leaf_vector":"1"}},{"base_weights":[-6.5920365E-5,1.9027904E-2,-5.5486505E-4,4.310647E-3,4.8156757E-2,-1.3482983E-2,6.201447E-4,7.520445E-3,1.9436626E-4,8.388968E-3,3.6545352E-3,-1.33396E-3,-3.720721E-3,1.6225072E-3,-1.3847873E-4],"categories":[],"categories_nodes":[],"categories_segments":[],"categories_sizes":[],"default_left":[0,0,0,0,0,0,0,0,0,0,0,0,0,0,0],"id":39,"left_children":[1,3,5,7,9,11,13,-1,-1,-1,-1,-1,-1,-1,-1],"loss_changes":[3.376406E-1,3.8690558E-1,5.356767E-1,9.050828E-2,9.763402E-2,1.429947E-1,6.461966E-1,0E0,0E0,0E0,0E0,0E0,0E0,0E0,0E0],"parents":[2147483647,0,0,1,1,2,2,3,3,4,4,5,5,6,6],"right_children":[2,4,6,8,10,12,14,-1,-1,-1,-1,-1,-1,-1,-1],"split_conditions":[4E0,5E1,7.9E1,1E0,1.4E1,1.5E1,1.8E1,7.520445E-3,1.9436626E-4,8.388968E-3,3.6545352E-3,-1.33396E-3,-3.720721E-3,1.6225072E-3,-1.3847873E-4],"split_indices":[1,0,0,1,2,1,1,0,0,0,0,0,0,0,0],"split_type":[0,0,0,0,0,0,0,0,0,0,0,0,0,0,0],"sum_hessian":[3.6164E4,9.02E2,3.5262E4,6E2,3.02E2,2.937E3,3.2325E4,2.9E1,5.71E2,1.65E2,1.37E2,2.423E3,5.14E2,4.021E3,2.8304E4],"tree_param":{"num_deleted":"0","num_feature":"4","num_nodes":"15","size_leaf_vector":"1"}},{"base_weights":[-2.0738652E-4,8.624309E-3,-1.2303764E-3,-1.2349571E-3,2.356943E-2,-9.02455E-3,5.06025E-4,7.922201E-3,-3.0968088E-4,6.1090724E-3,2.320511E-3,-8.719124E-4,-3.0492097E-3,6.0000364E-4,-4.066051E-4],"categories":[],"categories_nodes":[],"categories_segments":[],"categories_sizes":[],"default_left":[0,0,0,0,0,0,0,0,0,0,0,0,0,0,0],"id":40,"left_children":[1,3,5,7,9,11,13,-1,-1,-1,-1,-1,-1,-1,-1],"loss_changes":[3.264627E-1,5.5273116E-1,4.3827003E-1,1.6141628E-1,1.9890547E-1,1.9716284E-1,3.9548713E-1,0E0,0E0,0E0,0E0,0E0,0E0,0E0,0E0],"parents":[2147483647,0,0,1,1,2,2,3,3,4,4,5,5,6,6],"right_children":[2,4,6,8,10,12,14,-1,-1,-1,-1,-1,-1,-1,-1],"split_conditions":[1E1,7.2E1,1.68E2,1E0,5E0,3.6E1,5.6E1,7.922201E-3,-3.0968088E-4,6.1090724E-3,2.320511E-3,-8.719124E-4,-3.0492097E-3,6.0000364E-4,-4.066051E-4],"split_indices":[1,0,0,1,1,1,1,0,0,0,0,0,0,0,0],"split_type":[0,0,0,0,0,0,0,0,0,0,0,0,0,0,0],"sum_hessian":[3.6132E4,3.75E3,3.2382E4,2.26E3,1.49E3,5.899E3,2.6483E4,4E1,2.22E3,2.91E2,1.199E3,5.084E3,8.15E2,1.2428E4,1.4055E4],"tree_param":{"num_deleted":"0","num_feature":"4","num_nodes":"15","size_leaf_vector":"1"}},{"base_weights":[2.0456707E-4,-1.0139643E-2,1.1009703E-3,-8.02586E-3,-1.8923933E-2,-3.476079E-4,7.121691E-3,-2.4713255E-3,-7.9839246E-4,-4.179202E-3,-1.7977485E-3,1.3319472E-3,-2.1978864E-4,2.8783474E-3,6.73928E-4],"categories":[],"categories_nodes":[],"categories_segments":[],"categories_sizes":[],"default_left":[0,0,0,0,0,0,0,0,0,0,0,0,0,0,0],"id":41,"left_children":[1,3,5,7,9,11,13,-1,-1,-1,-1,-1,-1,-1,-1],"loss_changes":[3.361516E-1,5.35284E-2,2.9095992E-1,4.8152536E-2,3.7286237E-2,3.826276E-1,1.8817589E-1,0E0,0E0,0E0,0E0,0E0,0E0,0E0,0E0],"parents":[2147483647,0,0,1,1,2,2,3,3,4,4,5,5,6,6],"right_children":[2,4,6,8,10,12,14,-1,-1,-1,-1,-1,-1,-1,-1],"split_conditions":[4.1E-1,7E0,4.88E2,2.9E-1,3.5E-1,9E0,3.9E1,-2.4713255E-3,-7.9839246E-4,-4.179202E-3,-1.7977485E-3,1.3319472E-3,-2.1978864E-4,2.8783474E-3,6.73928E-4],"split_indices":[3,2,0,3,3,1,1,0,0,0,0,0,0,0,0],"split_type":[0,0,0,0,0,0,0,0,0,0,0,0,0,0,0],"sum_hessian":[3.625E4,2.89E3,3.336E4,2.331E3,5.59E2,2.6891E4,6.469E3,3.4E2,1.991E3,1.54E2,4.05E2,3.025E3,2.3866E4,7.38E2,5.731E3],"tree_param":{"num_deleted":"0","num_feature":"4","num_nodes":"15","size_leaf_vector":"1"}},{"base_weights":[1.3506725E-4,-4.0336964E-3,1.6213623E-3,6.5573514E-3,-6.9688135E-3,3.330832E-2,9.709598E-4,-1.3408042E-5,4.1181454E-3,-5.892617E-4,-2.018432E-3,6.493841E-3,7.9131004E-4,7.200515E-4,-1.7615852E-4],"categories":[],"categories_nodes":[],"categories_segments":[],"categories_sizes":[],"default_left":[0,0,0,0,0,0,0,0,0,0,0,0,0,0,0],"id":42,"left_children":[1,3,5,7,9,11,13,-1,-1,-1,-1,-1,-1,-1,-1],"loss_changes":[2.2233185E-1,2.9321745E-1,5.451243E-1,3.4249938E-1,1.5388143E-1,2.4073434E-1,2.7541932E-1,0E0,0E0,0E0,0E0,0E0,0E0,0E0,0E0],"parents":[2147483647,0,0,1,1,2,2,3,3,4,4,5,5,6,6],"right_children":[2,4,6,8,10,12,14,-1,-1,-1,-1,-1,-1,-1,-1],"split_conditions":[1.72E2,7E0,1.2E1,7.7E1,1E1,1.4E1,4.5E1,-1.3408042E-5,4.1181454E-3,-5.892617E-4,-2.018432E-3,6.493841E-3,7.9131004E-4,7.200515E-4,-1.7615852E-4],"split_indices":[0,1,1,0,2,2,1,0,0,0,0,0,0,0,0],"split_type":[0,0,0,0,0,0,0,0,0,0,0,0,0,0,0],"sum_hessian":[3.5881E4,9.43E3,2.6451E4,2.046E3,7.384E3,5.31E2,2.592E4,1.618E3,4.28E2,5.749E3,1.635E3,3.29E2,2.02E2,8.745E3,1.7175E4],"tree_param":{"num_deleted":"0","num_feature":"4","num_nodes":"15","size_leaf_vector":"1"}},{"base_weights":[-5.298829E-5,-3.032316E-3,2.1189337E-3,1.0087285E-3,-7.6626437E-3,5.0496757E-3,-3.4192721E-3,-1.1129689E-3,6.941945E-4,-4.098711E-3,-8.6982566E-4,3.452813E-3,5.4116006E-4,-8.599517E-5,-2.0420786E-3],"categories":[],"categories_nodes":[],"categories_segments":[],"categories_sizes":[],"default_left":[0,0,0,0,0,0,0,0,0,0,0,0,0,0,0],"id":43,"left_children":[1,3,5,7,9,11,13,-1,-1,-1,-1,-1,-1,-1,-1],"loss_changes":[2.3424534E-1,2.8559923E-1,3.398468E-1,3.3790457E-1,1.6473916E-1,2.6110166E-1,2.4555884E-1,0E0,0E0,0E0,0E0,0E0,0E0,0E0,0E0],"parents":[2147483647,0,0,1,1,2,2,3,3,4,4,5,5,6,6],"right_children":[2,4,6,8,10,12,14,-1,-1,-1,-1,-1,-1,-1,-1],"split_conditions":[2.67E2,2.2E1,8.8E1,6.1E1,9.3E1,1.7E1,9E0,-1.1129689E-3,6.941945E-4,-4.098711E-3,-8.6982566E-4,3.452813E-3,5.4116006E-4,-8.599517E-5,-2.0420786E-3],"split_indices":[0,1,1,0,0,1,2,0,0,0,0,0,0,0,0],"split_type":[0,0,0,0,0,0,0,0,0,0,0,0,0,0,0],"sum_hessian":[3.6198E4,1.5262E4,2.0936E4,8.15E3,7.112E3,1.3691E4,7.245E3,2.539E3,5.611E3,2.77E2,6.835E3,5.41E2,1.315E4,5.918E3,1.327E3],"tree_param":{"num_deleted":"0","num_feature":"4","num_nodes":"15","size_leaf_vector":"1"}},{"base_weights":[1.5529839E-4,-9.326206E-4,6.5207565E-3,-4.5874847E-5,-8.8939965E-3,9.264208E-3,-4.780597E-3,-6.425148E-4,2.0550359E-4,-5.7163456E-4,-3.2260318E-3,-3.986171E-4,1.6322768E-3,1.41152E-4,-4.3781344E-3],"categories":[],"categories_nodes":[],"categories_segments":[],"categories_sizes":[],"default_left":[0,0,0,0,0,0,0,0,0,0,0,0,0,0,0],"id":44,"left_children":[1,3,5,7,9,11,13,-1,-1,-1,-1,-1,-1,-1,-1],"loss_changes":[2.4879733E-1,2.1661285E-1,1.6263305E-1,2.1991555E-1,2.2005014E-1,1.7132455E-1,1.7379758E-1,0E0,0E0,0E0,0E0,0E0,0E0,0E0,0E0],"parents":[2147483647,0,0,1,1,2,2,3,3,4,4,5,5,6,6],"right_children":[2,4,6,8,10,12,14,-1,-1,-1,-1,-1,-1,-1,-1],"split_conditions":[5.15E2,1.03E2,1.47E2,1.32E2,8E0,7E0,8E0,-6.425148E-4,2.0550359E-4,-5.7163456E-4,-3.2260318E-3,-3.986171E-4,1.6322768E-3,1.41152E-4,-4.3781344E-3],"split_indices":[0,1,1,0,2,2,2,0,0,0,0,0,0,0,0],"split_type":[0,0,0,0,0,0,0,0,0,0,0,0,0,0,0],"sum_hessian":[3.5925E4,3.0682E4,5.243E3,2.7608E4,3.074E3,4.219E3,1.024E3,6.884E3,2.0724E4,2.398E3,6.76E2,8.89E2,3.33E3,8.52E2,1.72E2],"tree_param":{"num_deleted":"0","num_feature":"4","num_nodes":"15","size_leaf_vector":"1"}},{"base_weights":[2.622677E-4,8.331773E-3,-5.171173E-4,-1.3104903E-3,2.0287476E-2,-6.8482957E-3,7.400965E-4,-1.6969768E-3,5.8727973E-4,4.46005E-3,1.96379E-3,-5.92398E-4,-2.619099E-3,2.085809E-3,3.358549E-5],"categories":[],"categories_nodes":[],"categories_segments":[],"categories_sizes":[],"default_left":[0,0,0,0,0,0,0,0,0,0,0,0,0,0,0],"id":45,"left_children":[1,3,5,7,9,11,13,-1,-1,-1,-1,-1,-1,-1,-1],"loss_changes":[2.2807145E-1,3.6823103E-1,2.632305E-1,1.2112855E-1,1.03075385E-1,1.6686594E-1,2.0342979E-1,0E0,0E0,0E0,0E0,0E0,0E0,0E0,0E0],"parents":[2147483647,0,0,1,1,2,2,3,3,4,4,5,5,6,6],"right_children":[2,4,6,8,10,12,14,-1,-1,-1,-1,-1,-1,-1,-1],"split_conditions":[9E0,6.1E1,1.54E2,3E1,5E0,3.2E1,1.5E1,-1.6969768E-3,5.8727973E-4,4.46005E-3,1.96379E-3,-5.92398E-4,-2.619099E-3,2.085809E-3,3.358549E-5],"split_indices":[1,0,0,0,1,1,1,0,0,0,0,0,0,0,0],"split_type":[0,0,0,0,0,0,0,0,0,0,0,0,0,0,0],"sum_hessian":[3.6262E4,3.193E3,3.3069E4,1.768E3,1.425E3,5.478E3,2.7591E4,5.86E2,1.182E3,3.83E2,1.042E3,4.674E3,8.04E2,8.41E2,2.675E4],"tree_param":{"num_deleted":"0","num_feature":"4","num_nodes":"15","size_leaf_vector":"1"}},{"base_weights":[-6.370612E-5,-7.2529027E-3,6.578905E-4,-1.9424457E-2,-5.8393693E-3,-6.688272E-3,1.3437619E-3,-1.0341193E-3,-3.1198096E-3,-5.8384484E-4,-2.239203E-3,2.3627574E-4,-1.4715783E-3,3.96657E-3,1.15093855E-4],"categories":[],"categories_nodes":[],"categories_segments":[],"categories_sizes":[],"default_left":[0,0,0,0,0,0,0,0,0,0,0,0,0,0,0],"id":46,"left_children":[1,3,5,7,9,11,13,-1,-1,-1,-1,-1,-1,-1,-1],"loss_changes":[1.8716662E-1,5.650793E-2,1.6521206E-1,1.775153E-2,4.5205854E-2,1.1032663E-1,4.0097004E-1,0E0,0E0,0E0,0E0,0E0,0E0,0E0,0E0],"parents":[2147483647,0,0,1,1,2,2,3,3,4,4,5,5,6,6],"right_children":[2,4,6,8,10,12,14,-1,-1,-1,-1,-1,-1,-1,-1],"split_conditions":[4.2E-1,2.9E-1,7E1,4E0,8E0,5E0,6E0,-1.0341193E-3,-3.1198096E-3,-5.8384484E-4,-2.239203E-3,2.3627574E-4,-1.4715783E-3,3.96657E-3,1.15093855E-4],"split_indices":[3,3,0,2,2,1,1,0,0,0,0,0,0,0,0],"split_type":[0,0,0,0,0,0,0,0,0,0,0,0,0,0,0],"sum_hessian":[3.6077E4,3.29E3,3.2787E4,3.41E2,2.949E3,2.799E3,2.9988E4,9.8E1,2.43E2,2.638E3,3.11E2,9.87E2,1.812E3,4.63E2,2.9525E4],"tree_param":{"num_deleted":"0","num_feature":"4","num_nodes":"15","size_leaf_vector":"1"}},{"base_weights":[-1.8114132E-4,3.341096E-3,-1.8895045E-3,-3.0794777E-3,8.037459E-3,-1.0226199E-2,-4.504295E-4,2.0368418E-3,-6.357534E-4,7.918793E-4,2.5381462E-3,-7.4419245E-4,-3.233074E-3,2.2236237E-4,-5.5212574E-4],"categories":[],"categories_nodes":[],"categories_segments":[],"categories_sizes":[],"default_left":[0,0,0,0,0,0,0,0,0,0,0,0,0,0,0],"id":47,"left_children":[1,3,5,7,9,11,13,-1,-1,-1,-1,-1,-1,-1,-1],"loss_changes":[2.171933E-1,3.5550255E-1,2.915976E-1,1.6918384E-1,1.5209022E-1,2.3572025E-1,1.7007433E-1,0E0,0E0,0E0,0E0,0E0,0E0,0E0,0E0],"parents":[2147483647,0,0,1,1,2,2,3,3,4,4,5,5,6,6],"right_children":[2,4,6,8,10,12,14,-1,-1,-1,-1,-1,-1,-1,-1],"split_conditions":[2.8E1,1.07E2,2.26E2,3E0,3.64E2,9E0,8.7E1,2.0368418E-3,-6.357534E-4,7.918793E-4,2.5381462E-3,-7.4419245E-4,-3.233074E-3,2.2236237E-4,-5.5212574E-4],"split_indices":[1,0,0,1,0,2,1,0,0,0,0,0,0,0,0],"split_type":[0,0,0,0,0,0,0,0,0,0,0,0,0,0,0],"sum_hessian":[3.6093E4,1.1788E4,2.4305E4,4.98E3,6.808E3,3.577E3,2.0728E4,4.38E2,4.542E3,5.823E3,9.85E2,2.737E3,8.4E2,1.321E4,7.518E3],"tree_param":{"num_deleted":"0","num_feature":"4","num_nodes":"15","size_leaf_vector":"1"}},{"base_weights":[-5.876517E-5,-1.3300867E-3,5.1052603E-3,1.8555142E-2,-1.695608E-3,5.770967E-3,-2.5180781E-2,5.9502857E-4,4.2340085E-3,-1.190504E-3,-9.781633E-5,2.3859811E-3,6.3099904E-4,-1.9335541E-3,-6.548972E-3],"categories":[],"categories_nodes":[],"categories_segments":[],"categories_sizes":[],"default_left":[0,0,0,0,0,0,0,0,0,0,0,0,0,0,0],"id":48,"left_children":[1,3,5,7,9,11,13,-1,-1,-1,-1,-1,-1,-1,-1],"loss_changes":[2.3611537E-1,2.0979966E-1,1.4339364E-1,1.0190952E-1,1.9945225E-1,8.014837E-2,3.898508E-2,0E0,0E0,0E0,0E0,0E0,0E0,0E0,0E0],"parents":[2147483647,0,0,1,1,2,2,3,3,4,4,5,5,6,6],"right_children":[2,4,6,8,10,12,14,-1,-1,-1,-1,-1,-1,-1,-1],"split_conditions":[4.86E2,3E0,2.18E2,3.6E1,7.9E1,3.2E1,5E0,5.9502857E-4,4.2340085E-3,-1.190504E-3,-9.781633E-5,2.3859811E-3,6.3099904E-4,-1.9335541E-3,-6.548972E-3],"split_indices":[0,1,1,0,0,1,2,0,0,0,0,0,0,0,0],"split_type":[0,0,0,0,0,0,0,0,0,0,0,0,0,0,0],"sum_hessian":[3.5963E4,2.8859E4,7.104E3,5.2E2,2.8339E4,6.952E3,1.52E2,2.61E2,2.59E2,3.179E3,2.516E4,4.71E2,6.481E3,1.09E2,4.3E1],"tree_param":{"num_deleted":"0","num_feature":"4","num_nodes":"15","size_leaf_vector":"1"}},{"base_weights":[1.06968524E-4,-1.0680483E-2,4.461488E-4,-9.566935E-3,-4.5246597E-2,-5.221719E-4,3.9044872E-3,-1.6312028E-3,-2.7721553E-4,-7.3191496E-3,-2.2118506E-3,1.08083485E-4,-9.2817465E-4,6.4149173E-4,-1.0673028E-3],"categories":[],"categories_nodes":[],"categories_segments":[],"categories_sizes":[],"default_left":[0,0,0,0,0,0,0,0,0,0,0,0,0,0,0],"id":49,"left_children":[1,3,5,7,9,11,13,-1,-1,-1,-1,-1,-1,-1,-1],"loss_changes":[1.3179068E-1,4.183027E-2,1.1694481E-1,2.3574308E-2,9.653352E-3,2.4439391E-1,9.536554E-2,0E0,0E0,0E0,0E0,0E0,0E0,0E0,0E0],"parents":[2147483647,0,0,1,1,2,2,3,3,4,4,5,5,6,6],"right_children":[2,4,6,8,10,12,14,-1,-1,-1,-1,-1,-1,-1,-1],"split_conditions":[4E0,6.2E-1,4.72E2,1.18E2,9.7E1,7.5E1,1.7E2,-1.6312028E-3,-2.7721553E-4,-7.3191496E-3,-2.2118506E-3,1.08083485E-4,-9.2817465E-4,6.4149173E-4,-1.0673028E-3],"split_indices":[2,3,0,1,1,1,1,0,0,0,0,0,0,0,0],"split_type":[0,0,0,0,0,0,0,0,0,0,0,0,0,0,0],"sum_hessian":[3.6017E4,1.097E3,3.492E4,1.064E3,3.3E1,2.7282E4,7.638E3,7.59E2,3.05E2,2.3E1,1E1,2.265E4,4.632E3,7.04E3,5.98E2],"tree_param":{"num_deleted":"0","num_feature":"4","num_nodes":"15","size_leaf_vector":"1"}},{"base_weights":[2.7839345E-4,-1.1094733E-2,6.338876E-4,-7.992042E-3,-2.4566589E-2,-1.3623445E-2,8.909685E-4,-7.1712356E-4,-1.8911441E-3,-3.7062739E-3,-4.4058985E-4,-1.5973997E-3,-4.890208E-3,-2.050716E-4,3.1193372E-4],"categories":[],"categories_nodes":[],"categories_segments":[],"categories_sizes":[],"default_left":[0,0,0,0,0,0,0,0,0,0,0,0,0,0,0],"id":50,"left_children":[1,3,5,7,9,11,13,-1,-1,-1,-1,-1,-1,-1,-1],"loss_changes":[1.4499593E-1,4.523918E-2,1.2747252E-1,1.4282245E-2,1.6855322E-2,1.928027E-2,1.2720534E-1,0E0,0E0,0E0,0E0,0E0,0E0,0E0,0E0],"parents":[2147483647,0,0,1,1,2,2,3,3,4,4,5,5,6,6],"right_children":[2,4,6,8,10,12,14,-1,-1,-1,-1,-1,-1,-1,-1],"split_conditions":[4E0,5.1E-1,3.3E-1,4.33E2,1.57E2,8E0,2.4E2,-7.1712356E-4,-1.8911441E-3,-3.7062739E-3,-4.4058985E-4,-1.5973997E-3,-4.890208E-3,-2.050716E-4,3.1193372E-4],"split_indices":[2,3,3,0,1,2,0,0,0,0,0,0,0,0,0],"split_type":[0,0,0,0,0,0,0,0,0,0,0,0,0,0,0],"sum_hessian":[3.586E4,1.086E3,3.4774E4,8.84E2,2.02E2,6.15E2,3.4159E4,6.43E2,2.41E2,1.7E2,3.2E1,5.84E2,3.1E1,1.2957E4,2.1202E4],"tree_param":{"num_deleted":"0","num_feature":"4","num_nodes":"15","size_leaf_vector":"1"}},{"base_weights":[-1.3048903E-4,-3.5648546E-4,1.4695537E-2,4.6408935E-3,-9.012049E-4,3.062778E-2,-4.757624E-3,2.1921066E-4,3.2583836E-3,-8.9447544E-4,6.002017E-6,3.562681E-3,1.0277103E-2,-3.7035198E-4,-6.387911E-3],"categories":[],"categories_nodes":[],"categories_segments":[],"categories_sizes":[],"default_left":[0,0,0,0,0,0,0,0,0,0,0,0,0,0,0],"id":51,"left_children":[1,3,5,7,9,11,13,-1,-1,-1,-1,-1,-1,-1,-1],"loss_changes":[1.2050727E-1,9.643703E-2,1.6750923E-1,2.1007812E-1,1.809537E-1,4.41826E-2,2.0529538E-2,0E0,0E0,0E0,0E0,0E0,0E0,0E0,0E0],"parents":[2147483647,0,0,1,1,2,2,3,3,4,4,5,5,6,6],"right_children":[2,4,6,8,10,12,14,-1,-1,-1,-1,-1,-1,-1,-1],"split_conditions":[9.1E-1,1E1,1.3E1,1.37E2,1.43E2,5.67E2,5.5E1,2.1921066E-4,3.2583836E-3,-8.9447544E-4,6.002017E-6,3.562681E-3,1.0277103E-2,-3.7035198E-4,-6.387911E-3],"split_indices":[3,1,2,0,0,0,1,0,0,0,0,0,0,0,0],"split_type":[0,0,0,0,0,0,0,0,0,0,0,0,0,0,0],"sum_hessian":[3.5963E4,3.5424E4,5.39E2,3.481E3,3.1943E4,2.96E2,2.43E2,3.042E3,4.39E2,4.368E3,2.7575E4,2.79E2,1.7E1,2.34E2,9E0],"tree_param":{"num_deleted":"0","num_feature":"4","num_nodes":"15","size_leaf_vector":"1"}},{"base_weights":[-3.7658124E-4,1.5286888E-2,-6.178045E-4,1.5249613E-3,2.3316901E-2,-6.7653856E-3,-4.7844853E-5,1.5123928E-3,-1.7997603E-3,4.4187577E-3,7.2017114E-4,-1.8759823E-4,-2.0967976E-3,1.0502838E-3,-1.12637754E-4],"categories":[],"categories_nodes":[],"categories_segments":[],"categories_sizes":[],"default_left":[0,0,0,0,0,0,0,0,0,0,0,0,0,0,0],"id":52,"left_children":[1,3,5,7,9,11,13,-1,-1,-1,-1,-1,-1,-1,-1],"loss_changes":[1.36519E-1,6.0523063E-2,1.24674484E-1,3.1700227E-2,6.546345E-2,1.5043555E-1,2.1664609E-1,0E0,0E0,0E0,0E0,0E0,0E0,0E0,0E0],"parents":[2147483647,0,0,1,1,2,2,3,3,4,4,5,5,6,6],"right_children":[2,4,6,8,10,12,14,-1,-1,-1,-1,-1,-1,-1,-1],"split_conditions":[3E0,3E1,7.5E1,7E-1,8.3E-1,9E0,1.5E1,1.5123928E-3,-1.7997603E-3,4.4187577E-3,7.2017114E-4,-1.8759823E-4,-2.0967976E-3,1.0502838E-3,-1.12637754E-4],"split_indices":[1,0,0,3,3,2,1,0,0,0,0,0,0,0,0],"split_type":[0,0,0,0,0,0,0,0,0,0,0,0,0,0,0],"sum_hessian":[3.6128E4,5.47E2,3.5581E4,2.02E2,3.45E2,3.018E3,3.2563E4,1.22E2,8E1,2.15E2,1.3E2,1.925E3,1.093E3,2.979E3,2.9584E4],"tree_param":{"num_deleted":"0","num_feature":"4","num_nodes":"15","size_leaf_vector":"1"}},{"base_weights":[-3.1030952E-4,1.2271457E-2,-6.253166E-4,1.534636E-3,2.6020596E-2,-1.2387296E-2,-3.9216963E-4,6.093051E-3,-9.869662E-5,4.60111E-3,1.5411556E-3,-8.086522E-4,-3.4526745E-3,5.2879256E-4,-1.567067E-4],"categories":[],"categories_nodes":[],"categories_segments":[],"categories_sizes":[],"default_left":[0,0,0,0,0,0,0,0,0,0,0,0,0,0,0],"id":53,"left_children":[1,3,5,7,9,11,13,-1,-1,-1,-1,-1,-1,-1,-1],"loss_changes":[1.4360362E-1,1.306056E-1,9.692614E-2,5.182323E-2,5.1094174E-2,5.9875593E-2,1.257207E-1,0E0,0E0,0E0,0E0,0E0,0E0,0E0,0E0],"parents":[2147483647,0,0,1,1,2,2,3,3,4,4,5,5,6,6],"right_children":[2,4,6,8,10,12,14,-1,-1,-1,-1,-1,-1,-1,-1],"split_conditions":[4E0,4.1E1,3.9E1,1E0,8.2E-1,6.4E-1,1.7E1,6.093051E-3,-9.869662E-5,4.60111E-3,1.5411556E-3,-8.086522E-4,-3.4526745E-3,5.2879256E-4,-1.567067E-4],"split_indices":[1,0,0,1,3,3,1,0,0,0,0,0,0,0,0],"split_type":[0,0,0,0,0,0,0,0,0,0,0,0,0,0,0],"sum_hessian":[3.623E4,8.84E2,3.5346E4,4.97E2,3.87E2,6.86E2,3.466E4,2.3E1,4.74E2,2.32E2,1.55E2,4.79E2,2.07E2,5.345E3,2.9315E4],"tree_param":{"num_deleted":"0","num_feature":"4","num_nodes":"15","size_leaf_vector":"1"}},{"base_weights":[4.1205127E-4,-1.8377269E-3,1.970809E-3,-2.3600999E-4,-8.899087E-3,3.378624E-3,-4.1450937E-3,2.860279E-4,-6.6345895E-4,-5.196762E-4,-4.0142634E-3,1.5928008E-3,3.3646545E-4,6.552257E-5,-2.6583946E-3],"categories":[],"categories_nodes":[],"categories_segments":[],"categories_sizes":[],"default_left":[0,0,0,0,0,0,0,0,0,0,0,0,0,0,0],"id":54,"left_children":[1,3,5,7,9,11,13,-1,-1,-1,-1,-1,-1,-1,-1],"loss_changes":[1.2609977E-1,1.6645159E-1,1.8290028E-1,1.4227612E-1,2.9302627E-1,1.2107928E-1,3.0131367E-1,0E0,0E0,0E0,0E0,0E0,0E0,0E0,0E0],"parents":[2147483647,0,0,1,1,2,2,3,3,4,4,5,5,6,6],"right_children":[2,4,6,8,10,12,14,-1,-1,-1,-1,-1,-1,-1,-1],"split_conditions":[2.6E2,4.1E1,1.15E2,1E1,9E0,2.4E1,8E0,2.860279E-4,-6.6345895E-4,-5.196762E-4,-4.0142634E-3,1.5928008E-3,3.3646545E-4,6.552257E-5,-2.6583946E-3],"split_indices":[0,1,1,2,2,1,2,0,0,0,0,0,0,0,0],"split_type":[0,0,0,0,0,0,0,0,0,0,0,0,0,0,0],"sum_hessian":[3.5956E4,1.4716E4,2.124E4,1.1996E4,2.72E3,1.7266E4,3.974E3,7.995E3,4.001E3,2.225E3,4.95E2,1.411E3,1.5855E4,3.093E3,8.81E2],"tree_param":{"num_deleted":"0","num_feature":"4","num_nodes":"15","size_leaf_vector":"1"}},{"base_weights":[2.983241E-5,-1.5283608E-3,2.9796967E-3,-3.795987E-4,-8.051918E-3,3.65038E-3,-1.1040233E-2,7.811577E-5,-9.504098E-4,-4.5303052E-4,-2.623576E-3,1.2417865E-3,3.4013527E-4,-4.6526355E-4,-3.8014806E-3],"categories":[],"categories_nodes":[],"categories_segments":[],"categories_sizes":[],"default_left":[0,0,0,0,0,0,0,0,0,0,0,0,0,0,0],"id":55,"left_children":[1,3,5,7,9,11,13,-1,-1,-1,-1,-1,-1,-1,-1],"loss_changes":[1.6537593E-1,1.7642854E-1,1.1697519E-1,1.3605377E-1,1.9520041E-1,7.2402254E-2,7.703525E-2,0E0,0E0,0E0,0E0,0E0,0E0,0E0,0E0],"parents":[2147483647,0,0,1,1,2,2,3,3,4,4,5,5,6,6],"right_children":[2,4,6,8,10,12,14,-1,-1,-1,-1,-1,-1,-1,-1],"split_conditions":[3.98E2,6.8E1,1.82E2,1.2E1,8E0,3.9E1,6E0,7.811577E-5,-9.504098E-4,-4.5303052E-4,-2.623576E-3,1.2417865E-3,3.4013527E-4,-4.6526355E-4,-3.8014806E-3],"split_indices":[0,1,1,2,2,1,2,0,0,0,0,0,0,0,0],"split_type":[0,0,0,0,0,0,0,0,0,0,0,0,0,0,0],"sum_hessian":[3.5977E4,2.3542E4,1.2435E4,2.0018E4,3.524E3,1.1868E4,5.67E2,1.7538E4,2.48E3,2.561E3,9.63E2,1.768E3,1.01E4,4.03E2,1.64E2],"tree_param":{"num_deleted":"0","num_feature":"4","num_nodes":"15","size_leaf_vector":"1"}},{"base_weights":[-8.637134E-5,1.3885097E-4,-1.8487513E-2,-1.0227587E-3,2.8886916E-3,-9.471198E-3,-4.0733784E-2,2.4959903E-5,-1.112217E-3,-2.3419202E-4,5.9621636E-4,-2.362642E-3,-4.764612E-4,-7.904256E-3,-4.5225886E-3],"categories":[],"categories_nodes":[],"categories_segments":[],"categories_sizes":[],"default_left":[0,0,0,0,0,0,0,0,0,0,0,0,0,0,0],"id":56,"left_children":[1,3,5,7,9,11,13,-1,-1,-1,-1,-1,-1,-1,-1],"loss_changes":[1.4772369E-1,1.1248497E-1,8.606392E-2,2.2654E-1,8.327461E-2,1.5496759E-2,1.2677729E-2,0E0,0E0,0E0,0E0,0E0,0E0,0E0,0E0],"parents":[2147483647,0,0,1,1,2,2,3,3,4,4,5,5,6,6],"right_children":[2,4,6,8,10,12,14,-1,-1,-1,-1,-1,-1,-1,-1],"split_conditions":[1.9E2,4.24E2,6E0,7.5E1,5.2E-1,5.29E2,5.31E2,2.4959903E-5,-1.112217E-3,-2.3419202E-4,5.9621636E-4,-2.362642E-3,-4.764612E-4,-7.904256E-3,-4.5225886E-3],"split_indices":[1,0,2,1,3,0,0,0,0,0,0,0,0,0,0],"split_type":[0,0,0,0,0,0,0,0,0,0,0,0,0,0,0],"sum_hessian":[3.5643E4,3.5213E4,4.3E2,2.4756E4,1.0457E4,3.07E2,1.23E2,2.1319E4,3.437E3,2.779E3,7.678E3,1.22E2,1.85E2,2.6E1,9.7E1],"tree_param":{"num_deleted":"0","num_feature":"4","num_nodes":"15","size_leaf_vector":"1"}},{"base_weights":[-2.993061E-4,5.0607254E-3,-9.862513E-4,-1.3309262E-3,1.0861069E-2,-6.995723E-3,-3.1476512E-4,5.377057E-4,-8.924053E-4,1.8502716E-3,7.521384E-5,-1.8507741E-4,-1.9214636E-3,-1.4432035E-4,3.8400598E-4],"categories":[],"categories_nodes":[],"categories_segments":[],"categories_sizes":[],"default_left":[0,0,0,0,0,0,0,0,0,0,0,0,0,0,0],"id":57,"left_children":[1,3,5,7,9,11,13,-1,-1,-1,-1,-1,-1,-1,-1],"loss_changes":[1.3217577E-1,1.5120128E-1,1.2839629E-1,5.8750607E-2,7.411718E-2,1.3869895E-1,7.4416526E-2,0E0,0E0,0E0,0E0,0E0,0E0,0E0,0E0],"parents":[2147483647,0,0,1,1,2,2,3,3,4,4,5,5,6,6],"right_children":[2,4,6,8,10,12,14,-1,-1,-1,-1,-1,-1,-1,-1],"split_conditions":[1.1E1,5.9E1,1.26E2,9E0,1.3E1,8E0,5.09E2,5.377057E-4,-8.924053E-4,1.8502716E-3,7.521384E-5,-1.8507741E-4,-1.9214636E-3,-1.4432035E-4,3.8400598E-4],"split_indices":[1,0,0,2,2,2,0,0,0,0,0,0,0,0,0],"split_type":[0,0,0,0,0,0,0,0,0,0,0,0,0,0,0],"sum_hessian":[3.5895E4,4.077E3,3.1818E4,1.94E3,2.137E3,3.197E3,2.8621E4,9.76E2,9.64E2,1.609E3,5.28E2,1.864E3,1.333E3,2.302E4,5.601E3],"tree_param":{"num_deleted":"0","num_feature":"4","num_nodes":"15","size_leaf_vector":"1"}},{"base_weights":[-2.872502E-4,3.2855351E-3,-1.006893E-3,-5.9067435E-3,7.147809E-3,-3.034333E-3,8.699683E-4,-2.774845E-4,-1.7199746E-3,1.2269339E-3,-4.1422463E-4,-2.8352664E-4,-1.7931487E-3,3.0145588E-4,-6.0133997E-4],"categories":[],"categories_nodes":[],"categories_segments":[],"categories_sizes":[],"default_left":[0,0,0,0,0,0,0,0,0,0,0,0,0,0,0],"id":58,"left_children":[1,3,5,7,9,11,13,-1,-1,-1,-1,-1,-1,-1,-1],"loss_changes":[9.270537E-2,2.1465844E-1,1.142012E-1,4.9397003E-2,1.0077922E-1,1.3242981E-1,1.24110796E-1,0E0,0E0,0E0,0E0,0E0,0E0,0E0,0E0],"parents":[2147483647,0,0,1,1,2,2,3,3,4,4,5,5,6,6],"right_children":[2,4,6,8,10,12,14,-1,-1,-1,-1,-1,-1,-1,-1],"split_conditions":[1.5E1,5E1,3.44E2,7E0,1.3E1,8.3E1,1.21E2,-2.774845E-4,-1.7199746E-3,1.2269339E-3,-4.1422463E-4,-2.8352664E-4,-1.7931487E-3,3.0145588E-4,-6.0133997E-4],"split_indices":[1,0,0,1,2,1,1,0,0,0,0,0,0,0,0],"split_type":[0,0,0,0,0,0,0,0,0,0,0,0,0,0,0],"sum_hessian":[3.6054E4,6.044E3,3.001E4,1.788E3,4.256E3,1.4426E4,1.5584E4,1.181E3,6.07E2,3.484E3,7.72E2,1.3367E4,1.059E3,1.2333E4,3.251E3],"tree_param":{"num_deleted":"0","num_feature":"4","num_nodes":"15","size_leaf_vector":"1"}},{"base_weights":[-4.4167432E-4,3.994922E-3,-1.0155458E-3,2.5098147E-3,2.3143388E-2,-9.915064E-3,-5.2492315E-4,2.877014E-3,1.818313E-4,6.3967346E-3,-1.1857195E-3,-6.130934E-4,-3.6347748E-3,5.0717335E-5,-4.0198324E-4],"categories":[],"categories_nodes":[],"categories_segments":[],"categories_sizes":[],"default_left":[0,0,0,0,0,0,0,0,0,0,0,0,0,0,0],"id":59,"left_children":[1,3,5,7,9,11,13,-1,-1,-1,-1,-1,-1,-1,-1],"loss_changes":[9.207383E-2,1.17730156E-1,1.3980828E-1,8.379467E-2,2.5103134E-1,1.568188E-1,7.129659E-2,0E0,0E0,0E0,0E0,0E0,0E0,0E0,0E0],"parents":[2147483647,0,0,1,1,2,2,3,3,4,4,5,5,6,6],"right_children":[2,4,6,8,10,12,14,-1,-1,-1,-1,-1,-1,-1,-1],"split_conditions":[1.1E1,2.07E2,9.3E1,2E0,1.4E1,9E0,1E1,2.877014E-3,1.818313E-4,6.3967346E-3,-1.1857195E-3,-6.130934E-4,-3.6347748E-3,5.0717335E-5,-4.0198324E-4],"split_indices":[1,0,0,1,2,2,2,0,0,0,0,0,0,0,0],"split_type":[0,0,0,0,0,0,0,0,0,0,0,0,0,0,0],"sum_hessian":[3.6161E4,4.141E3,3.202E4,3.844E3,2.97E2,1.672E3,3.0348E4,2.05E2,3.639E3,1.64E2,1.33E2,1.299E3,3.73E2,2.2374E4,7.974E3],"tree_param":{"num_deleted":"0","num_feature":"4","num_nodes":"15","size_leaf_vector":"1"}},{"base_weights":[5.9425464E-4,1.3310471E-2,4.0221392E-4,3.0197136E-6,2.2791488E-2,-7.912631E-3,6.858638E-4,5.476924E-3,-5.6336995E-4,5.1941355E-3,-5.6408444E-5,-6.8774784E-4,-3.1783688E-3,-3.8110634E-4,1.7304235E-4],"categories":[],"categories_nodes":[],"categories_segments":[],"categories_sizes":[],"default_left":[0,0,0,0,0,0,0,0,0,0,0,0,0,0,0],"id":60,"left_children":[1,3,5,7,9,11,13,-1,-1,-1,-1,-1,-1,-1,-1],"loss_changes":[8.7981045E-2,6.762607E-2,8.372055E-2,4.110517E-2,1.2478757E-1,5.064836E-2,8.0121644E-2,0E0,0E0,0E0,0E0,0E0,0E0,0E0,0E0],"parents":[2147483647,0,0,1,1,2,2,3,3,4,4,5,5,6,6],"right_children":[2,4,6,8,10,12,14,-1,-1,-1,-1,-1,-1,-1,-1],"split_conditions":[3E0,3.2E1,3.5E-1,1E0,1.4E1,7E0,1.16E2,5.476924E-3,-5.6336995E-4,5.1941355E-3,-5.6408444E-5,-6.8774784E-4,-3.1783688E-3,-3.8110634E-4,1.7304235E-4],"split_indices":[1,0,3,1,2,2,0,0,0,0,0,0,0,0,0],"split_type":[0,0,0,0,0,0,0,0,0,0,0,0,0,0,0],"sum_hessian":[3.6029E4,5.35E2,3.5494E4,2.23E2,3.12E2,1.17E3,3.4324E4,2E1,2.03E2,1.79E2,1.33E2,1.011E3,1.59E2,5.195E3,2.9129E4],"tree_param":{"num_deleted":"0","num_feature":"4","num_nodes":"15","size_leaf_vector":"1"}},{"base_weights":[-3.255109E-5,-1.5196971E-2,1.4770847E-4,-1.3499691E-2,-1.1881307E-2,1.2328703E-2,-2.1276828E-4,-1.8967816E-3,5.6618648E-3,2.1215782E-3,-4.7796898E-4,-3.5970868E-4,8.831605E-5],"categories":[],"categories_nodes":[],"categories_segments":[],"categories_sizes":[],"default_left":[0,0,0,0,0,0,0,0,0,0,0,0,0],"id":61,"left_children":[1,3,5,7,-1,9,11,-1,-1,-1,-1,-1,-1],"loss_changes":[9.796382E-2,5.321359E-2,1.5551746E-1,2.6340865E-2,0E0,6.5089405E-2,7.838842E-2,0E0,0E0,0E0,0E0,0E0,0E0],"parents":[2147483647,0,0,1,1,2,2,3,3,5,5,6,6],"right_children":[2,4,6,8,-1,10,12,-1,-1,-1,-1,-1,-1],"split_conditions":[2.7E1,9E-1,5E0,8.7E-1,-1.1881307E-2,8.4E-1,1.88E2,-1.8967816E-3,5.6618648E-3,2.1215782E-3,-4.7796898E-4,-3.5970868E-4,8.831605E-5],"split_indices":[0,3,1,3,0,3,0,0,0,0,0,0,0],"split_type":[0,0,0,0,0,0,0,0,0,0,0,0,0],"sum_hessian":[3.5836E4,4.2E2,3.5416E4,4.12E2,8E0,1.017E3,3.4399E4,4.05E2,7E0,8.14E2,2.03E2,8.904E3,2.5495E4],"tree_param":{"num_deleted":"0","num_feature":"4","num_nodes":"13","size_leaf_vector":"1"}},{"base_weights":[-2.5256406E-4,-4.2382578E-4,1.1892765E-2,8.226695E-4,-2.2610347E-3,2.8443614E-2,-6.2313555E-3,2.4579347E-5,2.696169E-3,-1.767119E-4,-1.7780254E-3,4.166335E-3,-6.374327E-3,5.876008E-4,-1.4780314E-3],"categories":[],"categories_nodes":[],"categories_segments":[],"categories_sizes":[],"default_left":[0,0,0,0,0,0,0,0,0,0,0,0,0,0,0],"id":62,"left_children":[1,3,5,7,9,11,13,-1,-1,-1,-1,-1,-1,-1,-1],"loss_changes":[7.464483E-2,8.1038356E-2,1.4986207E-1,2.6605135E-1,1.4722714E-1,7.447222E-2,1.3254171E-2,0E0,0E0,0E0,0E0,0E0,0E0,0E0,0E0],"parents":[2147483647,0,0,1,1,2,2,3,3,4,4,5,5,6,6],"right_children":[2,4,6,8,10,12,14,-1,-1,-1,-1,-1,-1,-1,-1],"split_conditions":[9.1E-1,9E0,1.3E1,7.7E-1,9.5E1,9E1,1.4E1,2.4579347E-5,2.696169E-3,-1.767119E-4,-1.7780254E-3,4.166335E-3,-6.374327E-3,5.876008E-4,-1.4780314E-3],"split_indices":[3,2,2,3,1,1,2,0,0,0,0,0,0,0,0],"split_type":[0,0,0,0,0,0,0,0,0,0,0,0,0,0,0],"sum_hessian":[3.5883E4,3.5385E4,4.98E2,2.1082E4,1.4303E4,2.6E2,2.38E2,2.0433E4,6.49E2,1.3257E4,1.046E3,2.49E2,1.1E1,7.7E1,1.61E2],"tree_param":{"num_deleted":"0","num_feature":"4","num_nodes":"15","size_leaf_vector":"1"}},{"base_weights":[1.1069838E-4,3.2404433E-3,-9.0739474E-4,1.9645328E-3,1.623872E-2,-9.269946E-3,-3.7275953E-4,5.713028E-4,-2.388336E-4,5.6135263E-3,6.9390173E-4,6.387531E-5,-2.5103067E-3,-3.3324563E-5,-2.8413504E-3],"categories":[],"categories_nodes":[],"categories_segments":[],"categories_sizes":[],"default_left":[0,0,0,0,0,0,0,0,0,0,0,0,0,0,0],"id":63,"left_children":[1,3,5,7,9,11,13,-1,-1,-1,-1,-1,-1,-1,-1],"loss_changes":[1.1504371E-1,1.4694116E-1,1.2179765E-1,7.45725E-2,2.3237821E-1,1.6044277E-1,6.403935E-2,0E0,0E0,0E0,0E0,0E0,0E0,0E0,0E0],"parents":[2147483647,0,0,1,1,2,2,3,3,4,4,5,5,6,6],"right_children":[2,4,6,8,10,12,14,-1,-1,-1,-1,-1,-1,-1,-1],"split_conditions":[2.1E1,2.92E2,1.41E2,1E1,1.1E1,7E0,2.18E2,5.713028E-4,-2.388336E-4,5.6135263E-3,6.9390173E-4,6.387531E-5,-2.5103067E-3,-3.3324563E-5,-2.8413504E-3],"split_indices":[1,0,0,2,2,2,1,0,0,0,0,0,0,0,0],"split_type":[0,0,0,0,0,0,0,0,0,0,0,0,0,0,0],"sum_hessian":[3.6103E4,8.861E3,2.7242E4,8.07E3,7.91E2,1.636E3,2.5606E4,4.923E3,3.147E3,2.27E2,5.64E2,8.3E2,8.06E2,2.5469E4,1.37E2],"tree_param":{"num_deleted":"0","num_feature":"4","num_nodes":"15","size_leaf_vector":"1"}},{"base_weights":[-3.5044865E-4,1.2903137E-3,-1.6542029E-3,-2.4776312E-3,3.236531E-3,-1.2553058E-2,-9.1940013E-4,-1.9244965E-4,-2.1697725E-3,-1.449081E-3,5.0704146E-4,-7.770013E-4,-4.6485625E-3,-1.9698286E-4,4.1167848E-4],"categories":[],"categories_nodes":[],"categories_segments":[],"categories_sizes":[],"default_left":[0,0,0,0,0,0,0,0,0,0,0,0,0,0,0],"id":64,"left_children":[1,3,5,7,9,11,13,-1,-1,-1,-1,-1,-1,-1,-1],"loss_changes":[7.768112E-2,1.17919184E-1,1.6204064E-1,7.760535E-2,1.0127522E-1,1.948087E-1,4.6162754E-2,0E0,0E0,0E0,0E0,0E0,0E0,0E0,0E0],"parents":[2147483647,0,0,1,1,2,2,3,3,4,4,5,5,6,6],"right_children":[2,4,6,8,10,12,14,-1,-1,-1,-1,-1,-1,-1,-1],"split_conditions":[3.8E1,1.09E2,1.97E2,2.5E1,4.2E-1,8E0,5.58E2,-1.9244965E-4,-2.1697725E-3,-1.449081E-3,5.0704146E-4,-7.770013E-4,-4.6485625E-3,-1.9698286E-4,4.1167848E-4],"split_indices":[1,0,0,1,3,2,0,0,0,0,0,0,0,0,0],"split_type":[0,0,0,0,0,0,0,0,0,0,0,0,0,0,0],"sum_hessian":[3.6312E4,1.6078E4,2.0234E4,5.476E3,1.0602E4,1.277E3,1.8957E4,5.118E3,3.58E2,4.67E2,1.0135E4,9.96E2,2.81E2,1.6545E4,2.412E3],"tree_param":{"num_deleted":"0","num_feature":"4","num_nodes":"15","size_leaf_vector":"1"}},{"base_weights":[-2.188434E-4,1.9619833E-3,-1.3405413E-3,-2.4119436E-3,3.9770207E-3,-7.3708976E-3,-6.801507E-4,-1.1765114E-5,-1.609936E-3,2.8875822E-3,4.1178038E-4,-4.6213783E-4,-3.2206993E-3,-5.859202E-5,-1.5083497E-3],"categories":[],"categories_nodes":[],"categories_segments":[],"categories_sizes":[],"default_left":[0,0,0,0,0,0,0,0,0,0,0,0,0,0,0],"id":65,"left_children":[1,3,5,7,9,11,13,-1,-1,-1,-1,-1,-1,-1,-1],"loss_changes":[8.790296E-2,1.0757992E-1,9.4493136E-2,8.912578E-2,1.23272404E-1,1.5544981E-1,5.3595196E-2,0E0,0E0,0E0,0E0,0E0,0E0,0E0,0E0],"parents":[2147483647,0,0,1,1,2,2,3,3,4,4,5,5,6,6],"right_children":[2,4,6,8,10,12,14,-1,-1,-1,-1,-1,-1,-1,-1],"split_conditions":[2.9E1,8.2E1,1.97E2,7.3E-1,6E0,9E0,1.9E2,-1.1765114E-5,-1.609936E-3,2.8875822E-3,4.1178038E-4,-4.6213783E-4,-3.2206993E-3,-5.859202E-5,-1.5083497E-3],"split_indices":[1,0,0,3,1,2,1,0,0,0,0,0,0,0,0],"split_type":[0,0,0,0,0,0,0,0,0,0,0,0,0,0,0],"sum_hessian":[3.5932E4,1.2204E4,2.3728E4,3.849E3,8.355E3,2.341E3,2.1387E4,3.123E3,7.26E2,3.54E2,8.001E3,1.921E3,4.2E2,2.0948E4,4.39E2],"tree_param":{"num_deleted":"0","num_feature":"4","num_nodes":"15","size_leaf_vector":"1"}},{"base_weights":[1.4786399E-4,1.1556911E-3,-2.4005075E-3,7.8304997E-4,1.8784678E-2,-7.846953E-4,-1.669611E-2,5.375562E-4,-5.8935602E-5,3.9935657E-3,9.7154785E-4,-8.2118093E-4,2.87648E-4,-1.1556542E-3,-5.6333058E-3],"categories":[],"categories_nodes":[],"categories_segments":[],"categories_sizes":[],"default_left":[0,0,0,0,0,0,0,0,0,0,0,0,0,0,0],"id":66,"left_children":[1,3,5,7,9,11,13,-1,-1,-1,-1,-1,-1,-1,-1],"loss_changes":[9.263685E-2,1.697816E-1,2.3610498E-1,1.0490939E-1,7.199556E-2,1.5231696E-1,2.1545738E-1,0E0,0E0,0E0,0E0,0E0,0E0,0E0,0E0],"parents":[2147483647,0,0,1,1,2,2,3,3,4,4,5,5,6,6],"right_children":[2,4,6,8,10,12,14,-1,-1,-1,-1,-1,-1,-1,-1],"split_conditions":[1E1,8.2E-1,7.7E1,2.8E1,9E0,2.02E2,7.4E-1,5.375562E-4,-5.8935602E-5,3.9935657E-3,9.7154785E-4,-8.2118093E-4,2.87648E-4,-1.1556542E-3,-5.6333058E-3],"split_indices":[2,3,1,1,2,0,3,0,0,0,0,0,0,0,0],"split_type":[0,0,0,0,0,0,0,0,0,0,0,0,0,0,0],"sum_hessian":[3.6067E4,2.5846E4,1.0221E4,2.5312E4,5.34E2,9.184E3,1.037E3,6.82E3,1.8492E4,2.59E2,2.75E2,3.227E3,5.957E3,8.03E2,2.34E2],"tree_param":{"num_deleted":"0","num_feature":"4","num_nodes":"15","size_leaf_vector":"1"}},{"base_weights":[8.985072E-6,9.3204295E-4,-2.359234E-3,6.3321344E-4,1.3565776E-2,-1.8886649E-3,-2.071887E-2,1.3649992E-4,-7.423535E-4,2.703534E-3,8.018051E-4,-9.341545E-4,-3.454376E-5,-1.3705834E-3,-6.813085E-3],"categories":[],"categories_nodes":[],"categories_segments":[],"categories_sizes":[],"default_left":[0,0,0,0,0,0,0,0,0,0,0,0,0,0,0],"id":67,"left_children":[1,3,5,7,9,11,13,-1,-1,-1,-1,-1,-1,-1,-1],"loss_changes":[7.863055E-2,9.7704574E-2,8.711591E-2,6.685785E-2,3.1860307E-2,8.456638E-2,8.070982E-2,0E0,0E0,0E0,0E0,0E0,0E0,0E0,0E0],"parents":[2147483647,0,0,1,1,2,2,3,3,4,4,5,5,6,6],"right_children":[2,4,6,8,10,12,14,-1,-1,-1,-1,-1,-1,-1,-1],"split_conditions":[1E1,8.1E-1,1.1E2,1.5E2,9E0,1.54E2,7.1E-1,1.3649992E-4,-7.423535E-4,2.703534E-3,8.018051E-4,-9.341545E-4,-3.454376E-5,-1.3705834E-3,-6.813085E-3],"split_indices":[2,3,1,1,2,0,3,0,0,0,0,0,0,0,0],"split_type":[0,0,0,0,0,0,0,0,0,0,0,0,0,0,0],"sum_hessian":[3.5968E4,2.5881E4,1.0087E4,2.5284E4,5.97E2,9.836E3,2.51E2,2.3726E4,1.558E3,3.01E2,2.96E2,2.306E3,7.53E3,1.91E2,6E1],"tree_param":{"num_deleted":"0","num_feature":"4","num_nodes":"15","size_leaf_vector":"1"}},{"base_weights":[-2.848188E-4,-9.290137E-4,2.4734393E-3,-5.8488484E-4,-9.552607E-3,1.367246E-2,1.5886815E-3,1.2983545E-4,-3.4813877E-4,2.1567367E-4,-3.1094379E-3,7.912707E-3,1.1667267E-3,-1.4251743E-3,2.7090395E-4],"categories":[],"categories_nodes":[],"categories_segments":[],"categories_sizes":[],"default_left":[0,0,0,0,0,0,0,0,0,0,0,0,0,0,0],"id":68,"left_children":[1,3,5,7,9,11,13,-1,-1,-1,-1,-1,-1,-1,-1],"loss_changes":[6.397622E-2,8.661352E-2,6.7523986E-2,9.304249E-2,1.8043582E-1,1.10083446E-1,3.9298408E-2,0E0,0E0,0E0,0E0,0E0,0E0,0E0,0E0],"parents":[2147483647,0,0,1,1,2,2,3,3,4,4,5,5,6,6],"right_children":[2,4,6,8,10,12,14,-1,-1,-1,-1,-1,-1,-1,-1],"split_conditions":[4.91E2,1.27E2,3.4E1,9E0,6E0,9E0,3.6E-1,1.2983545E-4,-3.4813877E-4,2.1567367E-4,-3.1094379E-3,7.912707E-3,1.1667267E-3,-1.4251743E-3,2.7090395E-4],"split_indices":[0,1,1,2,2,2,3,0,0,0,0,0,0,0,0],"split_type":[0,0,0,0,0,0,0,0,0,0,0,0,0,0,0],"sum_hessian":[3.6003E4,2.9187E4,6.816E3,2.8068E4,1.119E3,4.98E2,6.318E3,1.5979E4,1.2089E4,6.29E2,4.9E2,4.4E1,4.54E2,2.39E2,6.079E3],"tree_param":{"num_deleted":"0","num_feature":"4","num_nodes":"15","size_leaf_vector":"1"}},{"base_weights":[-6.722124E-6,5.966946E-3,-4.9749896E-4,3.1383338E-3,1.9213635E-2,-8.610813E-3,-1.5696845E-4,5.8198413E-3,2.923911E-4,5.4359827E-3,-1.1608395E-4,-3.9740105E-4,-3.1642914E-3,1.338767E-4,-2.3731515E-4],"categories":[],"categories_nodes":[],"categories_segments":[],"categories_sizes":[],"default_left":[0,0,0,0,0,0,0,0,0,0,0,0,0,0,0],"id":69,"left_children":[1,3,5,7,9,11,13,-1,-1,-1,-1,-1,-1,-1,-1],"loss_changes":[1.0538428E-1,1.0219464E-1,9.1771595E-2,8.31851E-2,2.1816926E-1,1.168159E-1,6.313056E-2,0E0,0E0,0E0,0E0,0E0,0E0,0E0,0E0],"parents":[2147483647,0,0,1,1,2,2,3,3,4,4,5,5,6,6],"right_children":[2,4,6,8,10,12,14,-1,-1,-1,-1,-1,-1,-1,-1],"split_conditions":[8E0,1.09E2,7E1,1E0,1.3E1,9E0,6.3E-1,5.8198413E-3,2.923911E-4,5.4359827E-3,-1.1608395E-4,-3.9740105E-4,-3.1642914E-3,1.338767E-4,-2.3731515E-4],"split_indices":[1,0,0,1,2,2,3,0,0,0,0,0,0,0,0],"split_type":[0,0,0,0,0,0,0,0,0,0,0,0,0,0,0],"sum_hessian":[3.5944E4,2.728E3,3.3216E4,2.249E3,4.79E2,1.337E3,3.1879E4,4.6E1,2.203E3,2.25E2,2.54E2,9.89E2,3.48E2,1.8629E4,1.325E4],"tree_param":{"num_deleted":"0","num_feature":"4","num_nodes":"15","size_leaf_vector":"1"}},{"base_weights":[4.796651E-5,-7.5800195E-3,2.9219702E-4,-2.4086344E-3,-1.7076654E-2,8.160055E-3,7.97625E-5,-8.405305E-4,1.8136643E-4,-2.9019746E-3,-3.8703307E-4,-2.3421182E-4,1.877798E-3,-1.5061253E-3,3.1441286E-5],"categories":[],"categories_nodes":[],"categories_segments":[],"categories_sizes":[],"default_left":[0,0,0,0,0,0,0,0,0,0,0,0,0,0,0],"id":70,"left_children":[1,3,5,7,9,11,13,-1,-1,-1,-1,-1,-1,-1,-1],"loss_changes":[6.713495E-2,5.4864697E-2,5.836145E-2,1.1197075E-2,2.9077344E-2,5.7497103E-2,6.429451E-2,0E0,0E0,0E0,0E0,0E0,0E0,0E0,0E0],"parents":[2147483647,0,0,1,1,2,2,3,3,4,4,5,5,6,6],"right_children":[2,4,6,8,10,12,14,-1,-1,-1,-1,-1,-1,-1,-1],"split_conditions":[4E0,4.6E-1,4E0,7.6E1,1.15E2,3.2E1,3.4E1,-8.405305E-4,1.8136643E-4,-2.9019746E-3,-3.8703307E-4,-2.3421182E-4,1.877798E-3,-1.5061253E-3,3.1441286E-5],"split_indices":[2,3,1,1,1,0,0,0,0,0,0,0,0,0,0],"split_type":[0,0,0,0,0,0,0,0,0,0,0,0,0,0,0],"sum_hessian":[3.6034E4,1.117E3,3.4917E4,7.24E2,3.93E2,9.17E2,3.4E4,3.5E2,3.74E2,2.86E2,1.07E2,3.55E2,5.62E2,4.65E2,3.3535E4],"tree_param":{"num_deleted":"0","num_feature":"4","num_nodes":"15","size_leaf_vector":"1"}},{"base_weights":[4.5377924E-4,2.570475E-3,-2.8450982E-4,-2.4064695E-3,4.2269644E-3,-1.926109E-2,-5.3321764E-5,1.9030488E-3,-4.6562278E-4,7.338454E-4,-5.0572807E-4,-1.8438225E-3,-6.647791E-3,-1.5304007E-5,3.34826E-3],"categories":[],"categories_nodes":[],"categories_segments":[],"categories_sizes":[],"default_left":[0,0,0,0,0,0,0,0,0,0,0,0,0,0,0],"id":71,"left_children":[1,3,5,7,9,11,13,-1,-1,-1,-1,-1,-1,-1,-1],"loss_changes":[5.656386E-2,7.7176414E-2,1.17732756E-1,4.6888188E-2,8.085786E-2,5.1555507E-2,4.407317E-2,0E0,0E0,0E0,0E0,0E0,0E0,0E0,0E0],"parents":[2147483647,0,0,1,1,2,2,3,3,4,4,5,5,6,6],"right_children":[2,4,6,8,10,12,14,-1,-1,-1,-1,-1,-1,-1,-1],"split_conditions":[2.2E1,5.7E1,9.5E1,2E0,1.3E1,6.5E-1,9.6E-1,1.9030488E-3,-4.6562278E-4,7.338454E-4,-5.0572807E-4,-1.8438225E-3,-6.647791E-3,-1.5304007E-5,3.34826E-3],"split_indices":[1,0,0,1,2,3,3,0,0,0,0,0,0,0,0],"split_type":[0,0,0,0,0,0,0,0,0,0,0,0,0,0,0],"sum_hessian":[3.6194E4,9.359E3,2.6835E4,2.337E3,7.022E3,3.22E2,2.6513E4,1.5E2,2.187E3,5.978E3,1.044E3,2.79E2,4.3E1,2.6448E4,6.5E1],"tree_param":{"num_deleted":"0","num_feature":"4","num_nodes":"15","size_leaf_vector":"1"}},{"base_weights":[-2.2980887E-5,-1.2903781E-4,1.6181713E-2,8.431117E-4,-1.788388E-3,5.4215085E-2,4.535209E-3,-2.3158021E-4,2.1512595E-4,5.095644E-4,-3.9230156E-4,7.970243E-3,5.1752054E-3,1.9674003E-3,-4.7292392E-4],"categories":[],"categories_nodes":[],"categories_segments":[],"categories_sizes":[],"default_left":[0,0,0,0,0,0,0,0,0,0,0,0,0,0,0],"id":72,"left_children":[1,3,5,7,9,11,13,-1,-1,-1,-1,-1,-1,-1,-1],"loss_changes":[6.2113013E-2,5.792279E-2,1.0384874E-1,4.823751E-2,9.3093365E-2,3.1803995E-3,1.5733926E-2,0E0,0E0,0E0,0E0,0E0,0E0,0E0,0E0],"parents":[2147483647,0,0,1,1,2,2,3,3,4,4,5,5,6,6],"right_children":[2,4,6,8,10,12,14,-1,-1,-1,-1,-1,-1,-1,-1],"split_conditions":[1.6E1,6.5E-1,7.7E-1,4.6E-1,8E0,3.55E2,2.11E2,-2.3158021E-4,2.1512595E-4,5.095644E-4,-3.9230156E-4,7.970243E-3,5.1752054E-3,1.9674003E-3,-4.7292392E-4],"split_indices":[2,3,3,3,2,0,0,0,0,0,0,0,0,0,0],"split_type":[0,0,0,0,0,0,0,0,0,0,0,0,0,0,0],"sum_hessian":[3.6139E4,3.5905E4,2.34E2,2.2641E4,1.3264E4,5.4E1,1.8E2,5.348E3,1.7293E4,2.35E3,1.0914E4,3.4E1,2E1,7.8E1,1.02E2],"tree_param":{"num_deleted":"0","num_feature":"4","num_nodes":"15","size_leaf_vector":"1"}},{"base_weights":[2.5017778E-4,7.564032E-3,6.450071E-5,8.61335E-3,-3.427554E-2,-3.4394858E-3,6.0518674E-4,5.5995287E-4,3.106816E-3,-9.7430084E-4,-6.3756667E-3,1.9352425E-4,-1.0600862E-3,8.6859654E-4,1.5006101E-5],"categories":[],"categories_nodes":[],"categories_segments":[],"categories_sizes":[],"default_left":[0,0,0,0,0,0,0,0,0,0,0,0,0,0,0],"id":73,"left_children":[1,3,5,7,9,11,13,-1,-1,-1,-1,-1,-1,-1,-1],"loss_changes":[4.8871756E-2,3.9412808E-2,6.649723E-2,5.7159178E-2,8.333482E-3,1.0903672E-1,9.0487786E-2,0E0,0E0,0E0,0E0,0E0,0E0,0E0,0E0],"parents":[2147483647,0,0,1,1,2,2,3,3,4,4,5,5,6,6],"right_children":[2,4,6,8,10,12,14,-1,-1,-1,-1,-1,-1,-1,-1],"split_conditions":[4E0,3.64E2,1.09E2,6.4E1,1.5E1,8E0,1.6E1,5.5995287E-4,3.106816E-3,-9.7430084E-4,-6.3756667E-3,1.9352425E-4,-1.0600862E-3,8.6859654E-4,1.5006101E-5],"split_indices":[1,0,0,0,2,2,1,0,0,0,0,0,0,0,0],"split_type":[0,0,0,0,0,0,0,0,0,0,0,0,0,0,0],"sum_hessian":[3.5987E4,8.9E2,3.5097E4,8.69E2,2.1E1,4.691E3,3.0406E4,6.79E2,1.9E2,8E0,1.3E1,2.294E3,2.397E3,2.267E3,2.8139E4],"tree_param":{"num_deleted":"0","num_feature":"4","num_nodes":"15","size_leaf_vector":"1"}},{"base_weights":[2.2564428E-4,-8.1408094E-4,1.971781E-3,4.9312407E-4,-6.7970552E-3,2.2962233E-3,-1.2647089E-2,2.955337E-4,-4.1952144E-4,-4.0535166E-4,-1.9330654E-3,1.78439E-3,2.4814243E-4,2.6353696E-4,-4.4196546E-3],"categories":[],"categories_nodes":[],"categories_segments":[],"categories_sizes":[],"default_left":[0,0,0,0,0,0,0,0,0,0,0,0,0,0,0],"id":74,"left_children":[1,3,5,7,9,11,13,-1,-1,-1,-1,-1,-1,-1,-1],"loss_changes":[6.538874E-2,1.7656183E-1,6.378414E-2,1.2271396E-1,1.20175615E-1,5.8210745E-2,9.155251E-2,0E0,0E0,0E0,0E0,0E0,0E0,0E0,0E0],"parents":[2147483647,0,0,1,1,2,2,3,3,4,4,5,5,6,6],"right_children":[2,4,6,8,10,12,14,-1,-1,-1,-1,-1,-1,-1,-1],"split_conditions":[3.84E2,6E1,2E2,1E1,8E0,2.2E1,5E0,2.955337E-4,-4.1952144E-4,-4.0535166E-4,-1.9330654E-3,1.78439E-3,2.4814243E-4,2.6353696E-4,-4.4196546E-3],"split_indices":[0,1,1,2,2,1,2,0,0,0,0,0,0,0,0],"split_type":[0,0,0,0,0,0,0,0,0,0,0,0,0,0,0],"sum_hessian":[3.6015E4,2.2574E4,1.3441E4,1.8527E4,4.047E3,1.315E4,2.91E2,1.2531E4,5.996E3,2.781E3,1.266E3,4.3E2,1.272E4,1.73E2,1.18E2],"tree_param":{"num_deleted":"0","num_feature":"4","num_nodes":"15","size_leaf_vector":"1"}},{"base_weights":[1.271853E-4,6.027701E-4,-3.9715385E-3,2.9952743E-4,1.1673416E-2,8.9189445E-4,-1.2355347E-2,-2.8976754E-5,4.4942807E-4,2.0409005E-3,-1.7716853E-3,-2.4371966E-5,5.272472E-3,-1.9092609E-3,6.9842197E-4],"categories":[],"categories_nodes":[],"categories_segments":[],"categories_sizes":[],"default_left":[0,0,0,0,0,0,0,0,0,0,0,0,0,0,0],"id":75,"left_children":[1,3,5,7,9,11,13,-1,-1,-1,-1,-1,-1,-1,-1],"loss_changes":[7.042052E-2,1.0866558E-1,1.5315852E-1,5.1976904E-2,8.811943E-2,1.0181902E-1,5.707082E-2,0E0,0E0,0E0,0E0,0E0,0E0,0E0,0E0],"parents":[2147483647,0,0,1,1,2,2,3,3,4,4,5,5,6,6],"right_children":[2,4,6,8,10,12,14,-1,-1,-1,-1,-1,-1,-1,-1],"split_conditions":[1.2E1,8.4E-1,7.9E-1,5.17E2,6.6E1,1.6E1,9.5E-1,-2.8976754E-5,4.4942807E-4,2.0409005E-3,-1.7716853E-3,-2.4371966E-5,5.272472E-3,-1.9092609E-3,6.9842197E-4],"split_indices":[2,3,3,0,1,2,3,0,0,0,0,0,0,0,0],"split_type":[0,0,0,0,0,0,0,0,0,0,0,0,0,0,0],"sum_hessian":[3.6124E4,3.2369E4,3.755E3,3.1507E4,8.62E2,2.377E3,1.378E3,2.7035E4,4.472E3,7.44E2,1.18E2,2.315E3,6.2E1,1.218E3,1.6E2],"tree_param":{"num_deleted":"0","num_feature":"4","num_nodes":"15","size_leaf_vector":"1"}},{"base_weights":[2.4124181E-4,3.471054E-3,-1.8027658E-4,1.0866084E-3,8.983495E-3,-2.296274E-4,2.2391401E-2,3.709363E-3,7.567001E-5,2.1710854E-3,-5.870581E-4,2.993838E-5,-3.5439682E-4,4.0722284E-3,-8.810144E-4],"categories":[],"categories_nodes":[],"categories_segments":[],"categories_sizes":[],"default_left":[0,0,0,0,0,0,0,0,0,0,0,0,0,0,0],"id":76,"left_children":[1,3,5,7,9,11,13,-1,-1,-1,-1,-1,-1,-1,-1],"loss_changes":[4.8670214E-2,5.4236002E-2,3.523098E-2,3.989289E-2,1.2987933E-1,3.6232013E-2,1.8191919E-2,0E0,0E0,0E0,0E0,0E0,0E0,0E0,0E0],"parents":[2147483647,0,0,1,1,2,2,3,3,4,4,5,5,6,6],"right_children":[2,4,6,8,10,12,14,-1,-1,-1,-1,-1,-1,-1,-1],"split_conditions":[1.1E1,9.5E1,1.6E1,1E0,7.9E-1,1.1E1,9E-1,3.709363E-3,7.567001E-5,2.1710854E-3,-5.870581E-4,2.993838E-5,-3.5439682E-4,4.0722284E-3,-8.810144E-4],"split_indices":[1,0,2,1,3,2,3,0,0,0,0,0,0,0,0],"split_type":[0,0,0,0,0,0,0,0,0,0,0,0,0,0,0],"sum_hessian":[3.5748E4,4.126E3,3.1622E4,2.881E3,1.245E3,3.1554E4,6.8E1,5.1E1,2.83E3,7.92E2,4.53E2,2.6646E4,4.908E3,5.2E1,1.6E1],"tree_param":{"num_deleted":"0","num_feature":"4","num_nodes":"15","size_leaf_vector":"1"}},{"base_weights":[2.2902444E-4,2.7987866E-5,1.130994E-2,-1.5754519E-4,9.17693E-3,1.714913E-3,1.8210633E-2,9.551375E-4,-5.424344E-5,2.1648782E-3,-1.366247E-3,-1.1609821E-3,1.4965304E-3,2.7686977E-3,-3.2975688E-3],"categories":[],"categories_nodes":[],"categories_segments":[],"categories_sizes":[],"default_left":[0,0,0,0,0,0,0,0,0,0,0,0,0,0,0],"id":77,"left_children":[1,3,5,7,9,11,13,-1,-1,-1,-1,-1,-1,-1,-1],"loss_changes":[7.975915E-2,5.9695013E-2,4.221224E-2,6.718576E-2,1.0305108E-1,2.8053308E-2,5.0448112E-2,0E0,0E0,0E0,0E0,0E0,0E0,0E0,0E0],"parents":[2147483647,0,0,1,1,2,2,3,3,4,4,5,5,6,6],"right_children":[2,4,6,8,10,12,14,-1,-1,-1,-1,-1,-1,-1,-1],"split_conditions":[5.89E2,8.9E-1,5.8E-1,5E0,1.4E1,1.25E2,1.66E2,9.551375E-4,-5.424344E-5,2.1648782E-3,-1.366247E-3,-1.1609821E-3,1.4965304E-3,2.7686977E-3,-3.2975688E-3],"split_indices":[0,3,3,1,2,1,1,0,0,0,0,0,0,0,0],"split_type":[0,0,0,0,0,0,0,0,0,0,0,0,0,0,0],"sum_hessian":[3.5803E4,3.5166E4,6.37E2,3.4468E4,6.98E2,2.67E2,3.7E2,1.152E3,3.3316E4,5.06E2,1.92E2,1.28E2,1.39E2,3.46E2,2.4E1],"tree_param":{"num_deleted":"0","num_feature":"4","num_nodes":"15","size_leaf_vector":"1"}},{"base_weights":[-5.055817E-4,-3.422652E-3,7.664834E-5,-1.3816282E-3,-8.573453E-3,-1.32268695E-2,2.3484541E-4,-3.124426E-3,-1.3092913E-4,-1.6005428E-3,-1.6084396E-4,-1.1664048E-3,-5.138381E-3,6.30384E-5,-1.0367441E-3],"categories":[],"categories_nodes":[],"categories_segments":[],"categories_sizes":[],"default_left":[0,0,0,0,0,0,0,0,0,0,0,0,0,0,0],"id":78,"left_children":[1,3,5,7,9,11,13,-1,-1,-1,-1,-1,-1,-1,-1],"loss_changes":[6.1368763E-2,6.319175E-2,6.339719E-2,3.6511652E-2,4.677306E-2,3.925454E-2,6.1119236E-2,0E0,0E0,0E0,0E0,0E0,0E0,0E0,0E0],"parents":[2147483647,0,0,1,1,2,2,3,3,4,4,5,5,6,6],"right_children":[2,4,6,8,10,12,14,-1,-1,-1,-1,-1,-1,-1,-1],"split_conditions":[4.7E-1,7E0,4E0,2.2E-1,7.4E1,6E-1,1.5E2,-3.124426E-3,-1.3092913E-4,-1.6005428E-3,-1.6084396E-4,-1.1664048E-3,-5.138381E-3,6.30384E-5,-1.0367441E-3],"split_indices":[3,2,2,3,1,3,1,0,0,0,0,0,0,0,0],"split_type":[0,0,0,0,0,0,0,0,0,0,0,0,0,0,0],"sum_hessian":[3.6132E4,6.011E3,3.0121E4,4.306E3,1.705E3,3.53E2,2.9768E4,6.9E1,4.237E3,1.129E3,5.76E2,3.05E2,4.8E1,2.8889E4,8.79E2],"tree_param":{"num_deleted":"0","num_feature":"4","num_nodes":"15","size_leaf_vector":"1"}},{"base_weights":[-1.00303805E-4,1.1896673E-3,-1.7947425E-3,-4.3007755E-3,1.5041165E-3,-1.26222E-3,-1.4706367E-2,-5.6778328E-5,-1.2841828E-3,2.0846455E-4,-2.4238455E-3,-2.8949368E-4,6.174358E-4,9.85811E-4,-3.3280326E-3],"categories":[],"categories_nodes":[],"categories_segments":[],"categories_sizes":[],"default_left":[0,0,0,0,0,0,0,0,0,0,0,0,0,0,0],"id":79,"left_children":[1,3,5,7,9,11,13,-1,-1,-1,-1,-1,-1,-1,-1],"loss_changes":[7.865513E-2,3.5279885E-2,1.06926575E-1,2.3853496E-2,3.8756583E-2,8.664541E-2,1.4977096E-1,0E0,0E0,0E0,0E0,0E0,0E0,0E0,0E0],"parents":[2147483647,0,0,1,1,2,2,3,3,4,4,5,5,6,6],"right_children":[2,4,6,8,10,12,14,-1,-1,-1,-1,-1,-1,-1,-1],"split_conditions":[6.3E-1,4E0,1.21E2,4.4E-1,2.18E2,5.09E2,7E0,-5.6778328E-5,-1.2841828E-3,2.0846455E-4,-2.4238455E-3,-2.8949368E-4,6.174358E-4,9.85811E-4,-3.3280326E-3],"split_indices":[3,2,1,3,1,0,2,0,0,0,0,0,0,0,0],"split_type":[0,0,0,0,0,0,0,0,0,0,0,0,0,0,0],"sum_hessian":[3.5983E4,2.043E4,1.5553E4,1.106E3,1.9324E4,1.4938E4,6.15E2,6.54E2,4.52E2,1.923E4,9.4E1,1.2873E4,2.065E3,2.02E2,4.13E2],"tree_param":{"num_deleted":"0","num_feature":"4","num_nodes":"15","size_leaf_vector":"1"}},{"base_weights":[4.73679E-5,-1.6268777E-3,7.7108643E-4,2.1493475E-5,-1.0421413E-2,5.6750965E-3,6.498467E-5,1.7810796E-4,-5.7349686E-4,-1.12251444E-4,-3.0102117E-3,1.1543515E-3,-7.934921E-4,-2.0527541E-4,1.1311734E-4],"categories":[],"categories_nodes":[],"categories_segments":[],"categories_sizes":[],"default_left":[0,0,0,0,0,0,0,0,0,0,0,0,0,0,0],"id":80,"left_children":[1,3,5,7,9,11,13,-1,-1,-1,-1,-1,-1,-1,-1],"loss_changes":[4.3544278E-2,1.5723099E-1,8.688299E-2,5.461701E-2,2.0834993E-1,1.1925538E-1,2.9035097E-2,0E0,0E0,0E0,0E0,0E0,0E0,0E0,0E0],"parents":[2147483647,0,0,1,1,2,2,3,3,4,4,5,5,6,6],"right_children":[2,4,6,8,10,12,14,-1,-1,-1,-1,-1,-1,-1,-1],"split_conditions":[1.97E2,3.4E1,2.7E1,7.2E-1,7E0,1.3E1,5.3E-1,1.7810796E-4,-5.7349686E-4,-1.12251444E-4,-3.0102117E-3,1.1543515E-3,-7.934921E-4,-2.0527541E-4,1.1311734E-4],"split_indices":[0,1,1,3,2,2,3,0,0,0,0,0,0,0,0],"split_type":[0,0,0,0,0,0,0,0,0,0,0,0,0,0,0],"sum_hessian":[3.5935E4,1.0845E4,2.509E4,9.134E3,1.711E3,3.157E3,2.1933E4,7.004E3,2.13E3,9.78E2,7.33E2,2.482E3,6.75E2,7.21E3,1.4723E4],"tree_param":{"num_deleted":"0","num_feature":"4","num_nodes":"15","size_leaf_vector":"1"}},{"base_weights":[4.8730438E-4,-3.5010863E-3,7.8668736E-4,-1.6535582E-3,-1.1254985E-2,-7.522014E-3,9.360987E-4,-1.7223181E-3,-7.353216E-5,-1.5880177E-3,3.1735275E-3,4.4193156E-3,-1.1551192E-3,1.1717959E-3,9.2220165E-5],"categories":[],"categories_nodes":[],"categories_segments":[],"categories_sizes":[],"default_left":[0,0,0,0,0,0,0,0,0,0,0,0,0,0,0],"id":81,"left_children":[1,3,5,7,9,11,13,-1,-1,-1,-1,-1,-1,-1,-1],"loss_changes":[4.2941015E-2,3.5952833E-2,4.1532338E-2,2.558743E-2,1.6845394E-2,3.3757903E-2,6.0170837E-2,0E0,0E0,0E0,0E0,0E0,0E0,0E0,0E0],"parents":[2147483647,0,0,1,1,2,2,3,3,4,4,5,5,6,6],"right_children":[2,4,6,8,10,12,14,-1,-1,-1,-1,-1,-1,-1,-1],"split_conditions":[4E-1,7E0,3E1,2.6E-1,5.78E2,1E0,5E0,-1.7223181E-3,-7.353216E-5,-1.5880177E-3,3.1735275E-3,4.4193156E-3,-1.1551192E-3,1.1717959E-3,9.2220165E-5],"split_indices":[3,2,0,3,0,1,1,0,0,0,0,0,0,0,0],"split_type":[0,0,0,0,0,0,0,0,0,0,0,0,0,0,0],"sum_hessian":[3.5959E4,2.51E3,3.3449E4,2.028E3,4.82E2,5.9E2,3.2859E4,1.73E2,1.855E3,4.7E2,1.2E1,1.8E1,5.72E2,8.96E2,3.1963E4],"tree_param":{"num_deleted":"0","num_feature":"4","num_nodes":"15","size_leaf_vector":"1"}},{"base_weights":[5.634238E-4,3.4467764E-3,1.3162567E-4,-3.8443075E-3,6.124297E-3,-7.147534E-3,4.89504E-4,-2.5720168E-3,-3.859582E-4,1.0442586E-3,-2.5018936E-4,5.6489655E-5,-2.6348247E-3,5.2927688E-5,2.6341297E-3],"categories":[],"categories_nodes":[],"categories_segments":[],"categories_sizes":[],"default_left":[0,0,0,0,0,0,0,0,0,0,0,0,0,0,0],"id":82,"left_children":[1,3,5,7,9,11,13,-1,-1,-1,-1,-1,-1,-1,-1],"loss_changes":[4.4534136E-2,9.097667E-2,8.105192E-2,1.7411953E-2,5.2365348E-2,1.4504978E-1,4.8289783E-2,0E0,0E0,0E0,0E0,0E0,0E0,0E0,0E0],"parents":[2147483647,0,0,1,1,2,2,3,3,4,4,5,5,6,6],"right_children":[2,4,6,8,10,12,14,-1,-1,-1,-1,-1,-1,-1,-1],"split_conditions":[1.2E1,4.1E1,9.5E1,3.8E-1,1.3E1,8E0,9.5E-1,-2.5720168E-3,-3.859582E-4,1.0442586E-3,-2.5018936E-4,5.6489655E-5,-2.6348247E-3,5.2927688E-5,2.6341297E-3],"split_indices":[1,0,0,3,2,2,3,0,0,0,0,0,0,0,0],"split_type":[0,0,0,0,0,0,0,0,0,0,0,0,0,0,0],"sum_hessian":[3.5769E4,4.658E3,3.1111E4,1.251E3,3.407E3,1.457E3,2.9654E4,6.4E1,1.187E3,2.754E3,6.53E2,9.24E2,5.33E2,2.9532E4,1.22E2],"tree_param":{"num_deleted":"0",